20 372
ga -0.035386644 -0.037653394 -0.01885954 -0.03089545 -0.019955993 -0.012150833 -0.054737244 -0.0019328333 0.022972787 0.04409251 -0.0495797 -0.021758411 -0.04733002 -0.047700115 -0.0062685823 -0.03126184 0.0391698 0.014426333 -0.011548329 0.029897368 0.023846572 0.009697381 0.056076817 -0.008299485 0.008913953 -0.009158498 0.03136561 0.018261842 0.039842274 -0.008869085 0.016418202 -0.033213887 -0.036994852 0.025077429 0.03648076 -0.023607649 -0.0237318 -0.041243587 0.011587148 -0.038181707 -0.008360251 -0.044301942 -0.035645805 -0.02902239 0.039616823 0.020183165 -0.044107392 -0.01634542 -0.00831386 0.05796496 -0.013519571 -0.037151996 -0.006814583 0.047581095 -0.02814992 0.0063602165 0.021375008 0.0500569 0.019901827 -0.050296556 0.01931742 -0.030437922 0.009887524 -0.0016619365 0.050349202 -0.05385552 -0.03619034 0.01638496 0.0004369197 -0.018742409 -0.04277938 0.056968514 0.058026016 -0.029090011 0.05166863 0.017970592 -0.046412688 0.037775457 -0.013421606 -0.017263846 -0.029146612 -0.030223163 -0.008753286 0.022166684 -0.028161766 -0.025968548 0.026191276 -0.011374317 -0.005027891 -0.0402179 0.014160888 -0.03964148 -0.03296496 -0.046133164 0.025395412 0.015156363 -0.03812083 0.017883895 0.040394533 0.018418474 -0.002158171 -0.024973813 -0.0019026799 -0.037427437 -0.043673534 -0.027332257 -0.015082774 0.011478196 -0.05636899 -0.03041479 0.019728484 0.0010578922 -0.05698444 0.04804304 0.009692219 -0.02667074 -0.0030982879 0.044345666 0.05573516 -0.051158812 0.019534362 -0.0003357833 -0.009239759 0.024574278 -0.02542643 -0.046364002 -0.015328752 -0.012831143 -0.0053090253 0.0073207435 -0.004048919 -0.035806846 0.023924764 -0.026389677 -0.003928785 0.016437892 0.011108489 0.04428898 0.012995925 -0.025710635 0.0030247902 -0.0015238415 0.039488688 0.016152702 -0.017638708 -0.014599799 -0.0052264025 -0.0065897717 0.004390258 -0.02252984 0.01292814 0.05397111 0.016711615 0.01579101 -0.018243322 0.012413401 -7.6767436e-05 -0.03651991 -0.011609663 0.04147648 0.029352369 -0.01081206 -0.029428404 -0.024526972 0.007528956 -0.015831174 0.027911948 0.05185591 0.015664136 0.02409091 -0.040613238 -0.02663438 -0.034763638 0.011169762 -0.011908689 0.03045598 -0.035502948 0.0037437154 0.03779215 -0.056675013 -0.004563653 0.052272134 0.022035245 0.042861424 -0.0020012583 0.045469753 -0.027651314 0.028924104 0.011123132 -0.030600099 0.029754069 -0.033830017 0.015735658 0.017638873 0.03482446 -0.05278981 0.0277385 -0.035556015 -0.043284066 -0.028118506 0.040106494 -0.027116325 -0.012364819 -0.0365708 0.03900605 -0.035188712 -0.019367289 0.005302881 -0.04596128 0.05659999 -0.028343529 -0.044419397 0.016598051 0.03184835 0.033428557 0.031785484 0.048729092 -0.020348022 -0.044677485 0.000905365 -0.00045031213 0.00103699 0.033474453 0.048642777 -0.04519983 0.008405425 -0.012620173 -0.0215704 0.028830128 -0.028422087 -0.03708435 -0.019720297 0.018076431 0.00233032 -0.0041077593 0.005632926 0.03213998 0.037973918 0.038942337 0.03857932 0.023947604 0.026243906 -0.016052289 0.017204316 0.022271996 -0.015443072 -0.022073146 0.03895268 -0.012297683 -0.03276928 0.030550327 -0.030251637 -0.016504264 0.04324067 -0.029820224 -0.035288155 0.0543403 0.003893867 -0.014553208 -0.018979477 -0.029772706 -0.024853671 0.03799678 0.02907186 0.04472563 0.0035166412 -0.030002965 -0.058838017 -0.02252098 0.015598386 0.010966216 0.019321026 -0.03297724 -0.058317654 0.014632326 -0.01635837 0.0034415224 -0.03314107 -0.02473569 0.015882803 -0.0030030017 0.026327481 0.017030556 -0.029645678 0.003612454 0.04216563 0.05554226 0.023898527 -0.011647881 0.028529786 -0.040850587 -0.05858306 -0.031169584 -0.030405901 0.0029406543 -0.04188892 0.039725114 0.020630172 -0.005413341 -0.058713857 -0.043701336 -0.029170685 -0.058166057 -0.0063871783 -0.0038913365 0.04519201 0.022190208 -0.041966945 -0.023405612 0.015201955 0.033371117 0.015031208 0.01595616 0.01720502 0.029113952 0.04968162 0.03531717 0.038022812 0.031376306 -0.02776755 0.007581328 -0.00081571506 -0.01888071 -0.028459607 -0.025700921 -0.013441837 0.02605329 0.05740895 0.012396908 0.017102135 -0.023970587 0.0051079057 0.034985922 -0.041398987 -0.029889733 -0.034120686 0.00079717377 0.00034106246 0.031340156 -0.029401444 -0.00042533033 0.030089505 0.013106133 0.02629156 -0.050100088 0.002050693 -0.03234683 0.005190227 0.022491734 -0.021515263 -0.010131346 0.0320628 0.020148512 -0.02778643 0.05181662 0.02688882 0.0018300574 -0.024645379 -0.035903193 -0.019140378 -0.007491901 -0.029911663 0.0014275309 0.003904834 0.045950685 -0.059049975 0.003873332 0.045703463 0.046926145 0.035198756 -0.043285422 -0.019169662
ct -0.05004021 0.028923845 -0.035444748 0.017165232 0.020207886 -0.025969712 0.004443158 0.046538614 -0.03865562 0.03471293 -0.001897316 -0.00078363426 -0.005088957 -0.06032884 -0.036766175 -0.04834644 -0.027919939 -0.033284508 0.008450068 0.020469664 -0.025986537 0.032462332 0.048287492 -0.03190126 -0.023294792 0.039095707 -0.0035916842 0.02333377 -0.043863468 -0.019323062 -0.004109637 0.007231288 0.02909553 0.01196576 0.050744805 0.012184832 0.015264363 0.014676127 -0.04086037 0.0064845015 0.05984804 -0.006810884 -0.024176909 0.051783048 0.01964169 -0.052961424 -0.048771966 0.045685895 0.051415913 0.01579398 0.009327791 -0.03616019 0.050216276 0.063794754 0.0451831 -0.014281401 0.009551498 -0.027650286 -0.016816754 0.034387235 0.055598482 0.029926253 -0.04036802 0.044239707 -0.005488245 -0.010715325 -0.008049671 0.0065424517 0.0518268 0.06536952 -0.057846203 0.053166546 -0.031560328 -0.0044737235 -0.015047581 -0.008108575 -0.049898915 -0.011701614 0.037852958 0.0300439 0.0052196863 -0.01237328 0.056241736 -0.050883584 0.059553944 0.021684378 0.024049656 0.0063865427 0.00316968 0.041309673 0.04473407 -0.027159933 -0.041871715 -0.005746527 0.063761026 -0.046929486 -0.059116513 0.05125865 0.0006501147 -0.04788558 0.014544304 0.06650442 -0.041264933 0.027468234 -0.037425626 -0.0043505114 0.035135154 0.02410436 -0.026583813 -0.016184451 0.04492571 0.011811908 -0.059708707 0.036806446 0.009501307 -0.007422874 0.018624663 -0.0037464395 -0.024826352 -0.043055672 -0.004221534 -0.011234254 -0.030107493 -0.017290538 -0.0025159332 -0.03461804 -0.060278162 0.012823699 -0.025116015 -0.030013558 0.016127417 0.011441388 -0.066140026 0.058631517 -0.011174222 0.047934696 0.033996467 0.05757173 0.0048584784 0.034306243 0.06505187 0.020745564 0.020371893 -0.0029934007 -0.0012471655 0.0018524053 0.04978768 0.030906675 0.042025484 0.028481692 0.025795685 0.058013834 0.026075864 0.03165774 0.044735745 0.049690135 -0.008321088 -0.045254417 0.030556906 -0.02519008 -0.008491873 -0.057286467 0.0576054 0.0031144056 0.008703187 -0.037206862 0.0038128812 -0.020773152 -0.012080486 0.041283187 7.915834e-06 0.045084216 -0.0034092588 -0.05010729 0.035203975 0.024121467 0.03831264 -0.062405378 0.00044852338 0.024849096 0.010611981 0.015581035 -0.026394539 -0.014660439 0.0008125305 -0.00080029 -0.024689378 0.044464853 -0.005264951 0.0065044854 -0.028631195 -0.027008113 -0.04672043 0.061905093 0.04478375 -0.0036668775 -0.053190593 -0.037989978 0.019066252 -0.015003924 -0.019446837 0.02389201 0.020514127 -0.00096323254 0.012202719 -0.03595334 0.05527384 0.028930364 -0.026804825 -0.02917007 -0.049489133 -0.054090254 0.007006265 0.0022697207 -0.0077687916 -0.050183047 0.011458352 -0.026194865 0.02851768 0.05470257 0.003841344 0.0625441 0.009149861 0.009454972 0.028819023 0.014912173 0.06658774 -0.037063055 0.0063742828 0.035314564 0.059564028 0.003146714 0.0041882605 0.00018790714 0.0033997903 -0.016197385 -0.015905134 -0.008643284 0.023866795 0.016676085 0.034408517 -0.035195924 0.0087646935 0.00885295 0.003169835 -0.05948881 -0.056692 -0.0063453345 0.010181695 0.017157432 -0.00898336 -0.01972813 0.02172779 -0.023178715 -0.011399456 0.021562234 0.0462733 0.03621417 -0.032701924 -0.01689566 0.033550527 -0.011424488 0.024512516 -0.010793106 0.0355747 0.038676564 0.017092923 0.01585769 -0.06346573 -0.049260147 -0.025878793 -0.010984105 -0.031886265 0.016344132 -0.025010264 0.024946483 -0.016400104 0.027649755 -0.061705943 -0.001134621 0.0064461525 0.024379216 -0.06402286 -0.024880636 -0.0024245894 -0.01657269 0.024388438 0.054045208 0.025876507 0.0497806 -0.00067835196 -0.057145767 0.003162741 0.013718894 0.038602494 -0.014930042 0.015578139 0.02271001 0.031916164 -0.023619223 0.031123394 -0.04609687 -0.042272255 0.045087248 -0.025021506 0.036018077 0.009513209 -0.0063632014 -0.018255753 -0.029405756 -0.054225527 -0.025611704 -0.020006629 0.053309463 0.050248254 -0.02703482 -0.031305384 0.039939288 -0.009458686 0.028147874 -0.054101072 -0.025837753 0.003351132 -0.03572504 0.0088529 0.023213426 0.0025431563 -0.008995098 0.012960053 0.02290846 0.0029968428 0.040751398 -0.03821246 -0.039789606 0.032588292 -0.022659518 0.02553747 0.018325409 0.06221652 0.04807788 0.030814983 -0.034594897 -0.021958886 0.05978132 -0.06160036 -0.0014873504 -0.062495504 0.016239084 -0.042880703 0.013376106 -0.04983025 -0.00460015 0.05331707 0.05715555 0.0345076 0.015550163 -0.00585883 0.009398564 -0.0027985997 -0.024614269 -0.020966293 0.039211266 -0.06108563 -0.0016582229 0.042112958 0.007972396 -0.050729897 -0.024343343 0.03329556 -0.0239644 -0.06655175 0.04517398
t -0.104360424 -0.035092946 -0.040423818 0.10284383 -0.08891341 -0.08927994 -0.10208232 0.024135707 -0.05131365 0.09458864 -0.039087787 0.10153523 -0.055776935 -0.09072061 -0.036325924 -0.051517878 0.0844249 0.11085258 -0.10059091 0.055139717 -0.027659703 0.08167887 0.054646347 0.045723893 -0.057136383 0.10430131 0.053477917 0.047685314 -0.09070909 0.09698746 -0.07737173 0.09637947 0.059058454 0.02253452 0.0224769 0.10790104 0.02087961 -0.04412875 -0.043013882 0.09672402 0.054832526 -0.050605636 -0.07982264 0.033822984 0.062324278 -0.08314235 -0.082402214 0.051077697 0.10049651 0.103915825 0.088617325 -0.056381997 0.08710247 0.021288091 0.0729034 -0.090021476 -0.08147181 0.091215245 -0.02329546 -0.061910775 -0.02072024 -0.07286705 -0.033228565 0.09162287 0.055908095 -0.11045345 -0.038364165 -0.054168627 0.074497774 0.06080475 -0.05019374 0.09968184 0.065516695 0.08856512 0.09853781 0.072543606 -0.105894454 -0.1147307 0.11493924 0.07172242 0.03479895 0.079071864 0.095815465 -0.08131637 0.11339114 -0.037634157 0.058337916 0.031966012 0.06456803 0.014322452 0.032489154 -0.09141454 -0.07039634 -0.06700947 0.09922179 -0.102818504 -0.09177344 0.07032779 0.04078583 -0.008258518 -0.04461438 0.0628776 -0.055609122 0.07743454 -0.055679705 -0.07219174 0.075748034 -0.10720464 -0.10559024 -0.08285367 0.075643465 -0.038719304 -0.05289998 0.045645617 0.049931116 -0.07302411 0.10888508 0.10167468 0.084624395 -0.10220745 -0.0664006 -0.05872816 0.09857067 0.05284244 0.03263083 -0.060733866 -0.10008462 -0.09778152 -0.030874886 0.080443375 -0.09496947 -0.026662124 -0.08118671 0.110538095 -0.06449279 0.03323062 0.055084825 0.104315706 0.07064618 0.06029756 0.067468114 0.0017226235 0.015623436 -0.106365964 -0.01958482 -0.023803858 0.07834679 -0.016676191 0.09178157 -0.05298437 -0.11325502 0.023315068 0.09236363 0.08278659 0.042410526 0.06341935 0.058810607 -0.06892341 -0.08967396 0.11414788 -0.076098636 -0.061555594 0.050023355 0.053919807 0.098536015 -0.07639457 0.027821125 0.030620905 -0.07612085 0.020451047 0.08571891 0.0088525675 0.08291965 -0.031901494 -0.063008815 -0.08816631 0.11083385 -0.0791936 -0.09154493 -0.036678217 -0.107111864 0.044547677 0.09446918 -0.074765876 -0.09765127 0.10678232 -0.00048711686 0.045064673 0.08983154 -0.064006366 0.071330376 0.054991078 -0.07861025 0.03700133 0.07162437 -0.10549539 -0.017325098 -0.058010858 -0.04335278 0.0155417835 0.032178946 0.03134326 -0.06723097 0.03837304 0.07390184 -0.09199525 0.05391946 0.09443219 0.10009346 0.034852523 -0.028786784 -0.099224575 -0.019560229 -0.051396545 0.079394594 -0.066357315 0.048651528 -0.10111658 -0.08533708 0.0881859 0.09269341 0.06141299 -0.044921633 0.06902872 0.047630895 -0.06607304 0.06124953 -0.023764608 -0.057917155 0.10547419 0.09391641 0.07480213 -0.07974564 -0.011059912 0.023197822 -0.0934385 0.09135695 0.06633462 -0.11077389 -0.06904429 -0.07877273 -0.051506497 0.043028202 0.0019605532 0.043461017 -0.08250258 -0.112745784 0.084624186 0.043690015 -0.11041795 -0.03791632 0.08170313 -0.04653484 0.018241685 0.028465016 0.111887686 0.114509165 0.04561016 0.012951497 -0.06843941 -0.060086876 0.061276335 0.07889997 0.083921894 0.10852809 0.0696298 -0.019645855 -0.077364594 -0.02553494 -0.052873127 -0.078674786 0.08116801 0.027862044 -0.076139025 0.10166618 -0.020934867 -0.053244438 -0.05580978 -0.043129317 -0.004757157 0.07249491 -0.084701195 -0.05744107 0.09732703 0.06916432 -0.059855122 0.027463038 0.065476544 -0.09189464 0.08686984 -0.06604141 -0.10423843 0.051233135 0.08080277 0.092318304 -0.058761828 0.037264463 0.07587276 -0.04491847 -0.1131933 0.07308327 -0.096582204 -0.036388677 0.110014096 0.0647374 0.06493999 -0.03693962 -0.033704974 -0.08886959 -0.08386046 -0.10473585 -0.09210044 -0.03184563 0.087173775 0.07024153 0.077982776 -0.05335937 0.06277298 -0.023273755 0.09675063 -0.08264305 0.07860883 0.097928345 -0.10274947 0.07163404 0.09308634 -0.043135323 0.09242831 0.007265916 0.09756982 -0.053696338 0.065531045 -0.09804545 -0.03144028 0.06756655 -0.0366929 0.11163453 -0.0468877 0.05681056 0.05888739 -0.11466287 -0.050363768 -0.04147577 0.06913611 -0.047546927 -0.05665719 -0.02962672 -0.09592456 -0.054788027 0.05506774 -0.102456614 0.049754076 0.10532621 0.02784826 0.08550216 -0.075112924 -0.0716876 -0.06384411 -0.091553815 0.08047688 0.07446736 0.100823365 -0.01494552 0.047660645 0.06928822 -0.11457108 -0.114324875 0.089097366 0.09878193 -0.08760013 -0.060058977 0.10041748
at -0.0309535 -0.02046317 2.0560692e-05 0.014352081 -0.011691801 -0.004258833 -0.0103049865 0.044587217 0.0012374911 -0.009813209 -0.02384486 0.009375555 -0.06236144 -0.03851242 -0.025025534 0.0027156256 -0.01206949 0.0035462133 -0.063623354 0.055558883 -0.026212098 0.06030726 0.015953248 0.049167093 -0.046122443 -0.0011650815 0.01120606 0.010194718 -0.025442647 0.07938411 -0.02921522 -0.013765296 0.001684566 0.010638544 0.034628995 0.04621552 0.007679824 -0.050793163 0.0067856465 0.042553212 0.054324098 0.0034027856 -0.044323493 0.008516621 0.0036724613 -0.056244005 -0.044584528 0.04895332 -0.016117956 0.062477075 0.07875684 -0.07857258 0.07635338 0.025781736 0.02082222 0.00634319 0.008716697 0.039880134 -0.063883 -0.08116869 0.035129447 -0.084316306 0.015748907 0.050049197 0.077992074 0.014639288 -0.032623354 -0.0056145876 0.07593484 0.08145933 -0.028630503 0.0770784 0.036011487 0.0068071596 0.064524926 -0.009961036 -0.02400728 -0.025521882 0.06493948 0.07361452 0.0749354 0.012064446 -0.008356096 -0.0039538285 0.0084951045 -0.014884615 0.048986807 0.08015952 0.04758782 0.02267162 0.07210325 -0.061135538 -0.063399136 -0.010689435 0.08497804 -0.064962454 -0.023929438 0.05094375 0.014862114 -0.07123775 0.010019196 0.051754985 -0.06170622 0.008775863 -0.07636286 -0.020060992 0.04840331 -0.0612143 -0.04406774 -0.0022802842 0.06729797 -0.03045008 -0.025077503 -0.013305189 -0.006466785 -0.061534148 0.031800214 -0.01113988 0.018247854 -0.06516541 -0.03731081 -0.026994381 0.030583646 0.065916345 0.029744584 -0.032403503 0.005386593 -0.07430204 -0.06509562 0.04315683 0.013134137 -0.003927017 -0.05611884 0.03741131 -0.06406942 -0.008916655 0.013877511 0.053558588 0.012594493 0.052721336 0.050834112 -0.035814013 0.00039338577 0.011995581 -0.036343966 -0.05726479 -0.009395646 -0.040107097 0.00799739 -0.06950571 -0.038165886 -0.015241135 0.0063452995 0.05685621 0.06041364 0.078074865 0.037302803 -0.04122199 -0.053400874 0.004396599 -0.075004 -0.023046529 0.06738119 0.07391107 0.06046927 -0.02137158 0.06744348 0.07015169 0.0022061171 -0.009673436 -0.009478314 0.05384932 0.07934708 -0.011084593 -0.0684673 -0.077041 0.022312572 0.0053470843 -0.021290526 0.008671787 0.008527153 0.03385552 0.02435476 0.016117215 -0.077968255 0.015435966 0.043006025 0.023124864 0.012323562 0.0019700173 0.040892486 -0.013040663 0.013248629 0.057781577 -0.00054039806 -0.008957134 0.00750453 0.012628747 -0.06648231 0.07637116 -0.030871479 0.008270378 -0.016940214 0.020180663 0.0096623385 -0.04971468 0.046676297 0.07218639 -0.0016847572 0.075891264 -0.01481952 0.008049951 -0.03986103 0.0051354165 0.02622023 -0.079734825 0.030317461 -0.03411714 -0.06586646 0.027049793 0.020484166 0.05882155 0.0030589998 0.052572414 -0.015667986 -0.030679958 0.08227514 -0.028973527 -0.07874084 0.0339746 0.034101788 -0.0022498271 -0.056237325 -0.030421913 0.013133047 -0.019291658 0.017493049 0.054708157 -0.05413089 0.0040343986 0.015895588 -0.005456235 0.06785 -0.05471799 -0.016564123 -0.07092621 -0.080096 0.06658602 0.026564717 -0.06930996 -0.028914424 0.0358153 -0.059586942 0.05707549 0.050875016 -0.0026552773 -0.0012371128 -0.0044289934 -0.028835366 -0.042835664 -0.037427865 0.06425295 0.042260304 0.02258789 0.08081315 0.065077 0.015225095 -0.06482751 -0.03350902 -0.052129447 -0.038745925 0.005676162 0.05358747 -0.046985067 0.037883114 -0.07330099 -0.041559454 0.0050628986 -0.038681112 -0.05393373 0.08270234 -0.023763435 -0.02521353 0.0038239092 0.035628248 -0.055983983 0.026103856 -0.0066605513 -0.066269696 0.07153398 -0.0058404803 -0.07558467 0.0017131169 0.021498205 -0.009681343 -0.054128524 0.011564795 0.07256579 -0.071952015 -0.08256708 0.08039101 -0.062729746 -0.05121008 -0.012685104 0.0038215327 0.07251947 -0.026397295 0.016064273 -0.036489896 -0.036788568 -0.07794022 -0.084118456 -0.0071444605 0.033718627 0.0804679 0.0025947713 -0.03293859 -0.0031185148 -0.05988818 0.008205549 -0.083100535 0.036618363 0.04922686 -0.08456611 0.06683454 0.05991552 -0.0062999967 0.04723838 0.060328692 -0.010898061 -0.007936551 0.06468441 0.0070481524 -0.08056343 0.04793706 0.006589792 0.05421088 -0.04463637 0.0142665375 0.06481883 -0.018112298 -0.046672273 -0.038817562 0.042888623 0.0102689285 0.00030258443 -0.084417656 -0.033375405 -0.029595189 0.058624662 -0.0075956327 0.062138494 0.060967065 0.064554036 0.029887863 -0.0061543505 -0.015220189 -0.04572264 -0.027856994 0.038043257 0.023064153 0.005581174 -0.02614158 0.035537083 -0.014962261 -0.0071084113 0.0014713468 0.023705399 0.06599138 0.015413883 0.0012709573 0.0064226417
gc -0.023842826 -0.00011204154 0.030616196 0.046284992 -0.04296951 -0.065455996 0.0019339509 0.041983005 0.042400658 0.056305572 -0.051841248 -0.00057114864 -0.037330285 -0.009044961 -0.045395374 0.030305011 -0.026617475 0.0009990893 0.003941187 0.03873456 -0.04116224 0.044968642 0.02070048 0.047374744 -0.065117106 -0.011083133 -0.025745852 -0.030741954 -0.051330984 0.02329845 0.01324941 -0.013390829 0.042292096 -0.008048681 0.058417752 -0.009148795 0.0020531123 -0.0276351 -0.021612087 0.005000365 0.026937371 -0.044992093 -0.0063492446 0.023696575 0.009628627 0.02974002 -0.0037212186 0.0496023 0.0124411825 0.039196655 -0.016791578 -0.010027241 0.040572755 0.024827069 -0.011568849 -0.05192932 -0.041774023 0.0453107 0.0046488326 0.0026709186 0.025419224 -0.018894302 0.013790375 -0.0115511585 0.03935236 -0.011879251 -0.007044392 -0.025408218 0.022258062 0.019835891 0.021603446 -0.0019512313 0.021176862 0.061726283 0.008009699 0.03461918 0.023583772 -0.012707891 0.004550873 0.0640079 0.03933903 0.011115662 0.0316849 -0.041422833 0.060055804 0.015163102 -0.0060149897 -0.017561706 0.045086164 -0.037184995 -0.00223565 -0.04269304 -0.022139795 -0.05893144 0.048723362 -0.020066615 -0.06521804 -0.023306651 0.05254102 0.021556607 0.00936914 0.058099154 0.025598416 -0.023526408 -0.0038445322 -0.03124672 0.022244502 -0.055828948 -0.044357095 -0.04143176 -0.016746579 -0.060450166 0.019410381 0.06136724 -0.017875029 -0.056566246 0.030764867 -0.01944977 0.05223331 1.0526881e-05 -0.009665036 0.0042955712 -0.0038747913 0.013722876 0.0460474 -0.054121736 0.0081417905 -0.020035222 0.017217835 -0.022071633 0.026925499 -0.012605966 0.008064331 0.029951654 0.0046326905 0.05112734 0.049252454 0.056127008 -0.008372897 -0.0017047819 0.022518974 -0.018010486 0.038670987 -0.021190494 -0.034337334 0.010242638 0.036529493 -0.020836988 0.021004511 -0.036480587 -0.0062299906 0.02373375 0.040771913 -0.019270996 0.017421987 -0.00045347007 -0.02888285 0.0031672423 -0.03721246 0.0043968954 0.015787212 -0.007755527 -0.00272312 -0.005806659 0.005694472 -0.0031207383 0.056833 0.033983584 -0.024765119 0.017573617 0.013717999 -0.014388859 0.01348409 -0.028732818 0.016067524 -0.048255797 -0.004863745 0.0067158253 -0.03261116 -0.021390231 -0.040624395 0.06427281 0.05862357 -0.046666678 -0.023581134 -0.006708843 -0.031550005 0.043852925 -0.006611998 -0.012083177 0.013297749 -0.0028420354 0.006931747 0.03083853 -0.022389239 -0.020080494 0.028339777 -0.0034487988 0.02651226 0.014886216 0.037591875 0.020793531 0.0028814117 0.03091833 0.024946682 -0.053758893 0.060298234 0.057094224 -0.00080081704 -0.018799607 0.011150599 -0.00512446 -0.0045728832 0.006056585 0.005679281 -0.062525816 0.041209508 0.02634534 0.027893346 0.026291937 -0.0027975254 -0.032427017 -0.041542433 -0.03102843 0.03230792 0.025085092 0.0072826142 0.034773946 -0.026773926 -0.028849512 -0.01868813 0.009729454 0.028367318 0.014709239 -0.027081488 0.023617214 0.014577884 -0.010853271 -0.02325239 -0.058090545 -0.015083644 0.031036736 -0.00068138464 0.02981857 0.05965961 -0.060156763 -0.010901136 0.03831197 -0.018194763 -0.050474662 -0.04034019 0.05981897 -0.021027293 -0.032536153 0.005090232 0.0014594278 0.023943584 0.052226957 -0.043566808 -0.013172763 0.028941302 0.010249799 -0.009889209 0.049505267 -0.030198177 0.04827463 0.0028082046 -0.0061862543 -0.021060163 0.016051482 -0.04971113 0.003400749 -0.025320394 -0.032482445 0.023515437 -0.0016181304 -0.02459011 0.008355203 -0.0062999465 -0.055335205 0.01147178 -0.004489845 0.0066298754 0.06777484 0.051158544 -0.051649105 0.057059146 0.025900347 -0.064012736 0.031979192 0.019515267 -0.048890695 0.004915196 -0.024984775 0.010865754 -0.05912802 0.057993025 -0.029089859 0.024792293 -0.050851695 0.02049269 -0.0017868199 -0.0041828966 0.065552294 -0.0022448518 -0.006340342 -0.044991788 0.008210413 -0.026354345 0.026024241 -0.026985468 -0.064545766 -0.019614376 -0.021076716 0.038979646 -0.008559297 0.0018712115 0.049304012 -0.031198286 0.019849949 -0.020734763 0.026228383 -0.018086327 -0.042960692 0.033149026 0.06705567 -0.062371343 -0.021874914 -0.026570039 0.03505668 -0.008322274 0.0016188979 0.008327338 -0.015343401 0.006497391 -0.0010153664 -0.02676066 0.021028973 0.052431446 0.05601057 -0.041657303 -0.042205155 -0.044156257 0.014115404 -0.003244525 -0.043871183 0.020372808 0.0063352687 -0.023764629 0.029575849 0.02252533 0.024604255 0.06259608 0.0014484962 0.017983906 -0.05664943 -0.05114336 0.028580742 0.01978168 -0.008343165 -0.012646053 0.008431954 -0.006351147 0.014841881 0.038824324 -0.034089968 -0.048427947 -0.022145752 0.014118123 -0.03189419 0.007461882 -0.030279519
tt -0.079657316 -0.04514722 -0.09979469 0.1135511 -0.04389732 -0.08760745 -0.04518651 0.09821772 -0.0741342 0.042592157 -0.09143372 0.08214857 -0.08234348 -0.079721205 -0.1010531 -0.09439864 0.10885069 0.032120794 -0.071824715 0.07454803 -0.044986997 0.023231246 0.09094802 0.0019745212 -0.0437868 0.065710254 0.06206042 0.05459818 -0.0378545 0.04078915 -0.11007136 0.078889556 0.07408017 0.103097096 0.017822526 0.08396912 0.0073550786 -0.09666296 -0.09949684 0.10790377 0.08493387 -0.09821157 -0.061444357 0.062601745 0.027200162 -0.08653278 -0.07783184 0.026684089 0.09954493 0.02079062 0.07057064 -0.027325757 0.018160535 0.05200266 0.083675 -0.077396184 -0.07538592 0.038611066 -0.05695403 -0.08446714 0.017588442 -0.08230757 -0.07343073 0.08031879 0.108435996 -0.08697507 -0.05129789 -0.08512859 0.07314335 0.07914836 -0.06985362 0.020276694 0.08531252 0.10527862 0.09744075 0.056524027 -0.06776386 -0.08198569 0.06105331 0.063129745 0.013291412 0.09968852 0.08966181 -0.114488445 0.03895319 -0.024820456 0.09517726 0.113127016 0.07973118 0.04448644 0.045814365 -0.09843255 -0.061425954 -0.063453205 0.10586131 -0.04022555 -0.071140185 0.020780006 0.095871896 -0.0042668055 -0.08869184 0.09680595 -0.016938595 0.09088533 -0.02142153 -0.033043746 0.039774444 -0.03513218 -0.029050194 -0.051315404 0.019721553 -0.02171793 -0.10003995 0.10545973 0.060505267 -0.08506237 0.017851902 0.032495845 0.023716895 -0.07699095 -0.098642685 -0.057413317 0.07314762 0.11774008 0.056273773 -0.07425326 -0.0031829558 -0.02439652 -0.099098235 0.05022942 -0.09906984 -0.08580699 -0.024771083 0.06403301 -0.064079806 0.0984191 0.07597596 0.058635823 0.067244366 0.06111653 0.07776378 -0.073330656 0.11443083 -0.1122149 -0.09111613 -0.015654832 0.098134235 -0.10073964 0.051959954 -0.039101712 -0.09479395 0.02457909 0.073654644 0.019332018 0.08001826 0.08898627 0.018758034 -0.066540495 -0.08882974 0.08161061 -0.10218555 -0.07689689 0.093629345 0.09592809 0.09851357 -0.103714995 0.11279306 0.11307689 -0.011934949 0.019154955 0.07519194 -0.008462297 0.049390357 -0.02999606 -0.03746297 -0.01645829 0.07028941 -0.092794634 -0.06227563 -0.033319358 -0.06156143 0.04261338 0.11270221 -0.054223076 -0.10283157 0.03055785 0.025350865 0.057136767 0.082323685 -0.09106739 0.072538726 0.10221448 -0.031963058 0.056911565 0.012416689 -0.085543126 -0.086452946 -0.00084238953 -0.10502911 0.08093864 0.0006278587 0.053495035 -0.06288721 0.030229922 0.08331337 -0.039627947 0.069270715 0.09045172 0.09209342 0.055518765 -0.112898484 -0.07402936 -0.08172715 -0.035429392 0.10689645 -0.05298998 0.08288358 -0.021499708 -0.07581925 0.065215856 0.06401614 0.01369576 -0.06551922 0.077998385 0.007092713 -0.0698842 0.089618996 -0.07601041 -0.08283458 0.04419289 0.048020203 0.03520864 -0.013483983 -0.101798944 0.06113676 -0.07012125 0.10974261 0.046034336 -0.042233344 -0.10631726 -0.099371396 -0.107382 0.06250571 -0.08009811 0.05862774 -0.080788165 -0.045341723 0.1094002 0.0891617 -0.09552885 -0.07939865 0.071446955 -0.06949782 0.04555471 0.11352072 0.053022385 0.08629205 0.09736942 -0.024188317 -0.08232467 -0.036798522 0.019481966 0.030761482 0.09602409 0.026428046 0.088221736 -0.0686373 -0.084015235 -0.086152606 -0.076145485 -0.038582448 0.07625179 0.09587519 -0.061793424 0.031822048 -0.10467192 -0.07017253 -0.10581823 -0.10245915 -0.073148705 0.111778095 -0.06991296 -0.110946685 0.02023572 0.08940267 -0.02770697 0.07356291 0.097094335 -0.07255576 0.02501531 -0.1100238 -0.030985197 0.088656634 0.102093354 0.025672091 -0.09856462 0.05998881 -0.00019418087 -0.07168292 -0.020839632 0.027971014 -0.07676426 0.00014690384 0.07497114 0.031881727 0.05293503 -0.016050799 -0.109304026 -0.095930986 -0.09389499 -0.035116974 -0.06495217 -0.07012652 0.07786428 0.097350664 0.106897645 -0.11176767 0.0606 -0.08589887 0.025417842 -0.07738504 0.071321405 0.10290159 -0.066249944 0.07301681 0.11221629 -0.081183925 0.103246585 0.05825297 0.076802246 -0.0708991 0.009937874 -0.07681994 -0.08820495 0.08191929 -0.08466437 0.050780874 -0.04686139 0.0348792 0.05343036 -0.10338414 -0.07917728 -0.049411345 0.11194971 -0.013318908 -0.100213885 -0.07535306 -0.10253267 -0.0871321 0.11206022 -0.06439524 0.1163876 0.070234306 0.019325254 0.020632051 -0.07244503 -0.03004061 -0.014260771 -0.052714963 0.10650075 0.109055765 0.097881235 -0.048386637 0.09128823 0.023130916 -0.06492651 -0.065731525 0.06386518 0.04975511 -0.0023907928 -0.0673579 0.06983228
ac -0.006457766 -0.0071903327 -0.056064982 -0.024640346 -0.019253803 -0.060467254 0.007512653 0.013703757 -0.035594054 0.05822822 -0.011442143 0.062070627 0.021864856 0.023063144 -0.038209908 -0.040000614 0.06758913 0.039207794 -0.06655882 0.047251496 -0.028346393 0.054847766 0.052052584 -0.030511307 -0.031259663 0.04832529 0.025216732 0.0696923 -0.019142129 0.025392702 0.023944741 0.047756232 0.052953064 -0.018480178 0.006804265 0.047526192 0.05644383 0.0034019037 -0.024459563 0.049982063 0.0067608566 -0.070444174 0.014709153 -0.021729216 0.015441967 0.001103951 -0.06635337 0.0041113803 0.04737117 0.04380756 0.0044740993 -0.046172317 0.034886464 0.003975156 0.0016672198 -0.04067598 -0.039259672 0.025333542 0.0016061105 0.029767016 -0.0064358716 -0.02410135 -0.029617254 -0.010772421 0.059080727 -0.0056927404 -0.01752725 -0.030830694 0.0065547265 0.057647783 -0.0027811972 0.065775804 0.031631213 -0.0106096165 0.014674047 0.032983173 -0.058664434 -0.056092586 -0.011449985 -0.0005832418 0.011011564 0.012178617 0.018745435 -0.06785115 0.049511343 -0.006205323 0.05854554 0.026427243 0.0009881847 -0.0101953205 0.035844743 -0.00016842442 0.0025121935 -0.02645245 0.03234312 0.011063895 -0.06555245 0.03299165 -0.011660576 -0.0020892553 -0.036452845 0.023166806 -0.013959909 0.018665189 0.0063326648 0.0092769265 -0.014798648 -0.040450543 -0.004966703 0.0027938862 0.028704396 0.012188767 0.009167182 0.025268463 0.0494352 0.013261303 0.017213333 0.019085666 0.0484492 -0.043874033 -0.022137549 -0.06524816 0.04550737 0.02218888 -0.0060588345 0.024731273 0.027447397 -0.044822745 -0.048676528 0.0640949 0.02321118 -0.041717898 -0.004247503 0.045425225 0.00405044 0.026828485 0.041609406 0.044515856 0.026516993 -0.015082062 0.038896542 -0.067194656 0.05933644 -0.0406749 -0.02565952 0.021581456 0.0668712 -0.04245637 0.017734107 -0.011478122 0.000259513 0.051314387 0.074260816 -0.006080169 0.0427095 0.024623068 0.037259627 -0.021850873 -0.06968184 0.07218778 -0.024603503 -0.06690247 0.06378856 -0.017913178 0.0070201703 0.022654373 0.056485668 0.0137049 -0.026872348 0.003121197 0.021118829 0.020035977 -0.022487484 -0.031867106 -0.060342893 0.019772025 0.026137216 -0.07229711 -0.010629371 -0.054679714 -0.011170726 0.009519605 -0.01869793 -0.035636827 -0.044091705 0.05114314 0.03410082 0.029889517 -0.010887315 0.021289509 -0.0181 -0.0021511302 -0.003067358 0.03282143 -0.013589718 0.02356142 0.01756035 -0.014321859 -0.016380524 0.010686741 0.038489003 0.011004829 -0.0139605 -0.011878136 0.0307193 0.0036815747 0.05456861 0.029429926 0.062425658 0.074906155 0.0102526955 -0.030369014 -0.025089776 -0.026967853 0.06713559 -0.057644542 -0.021716397 -0.06898647 -0.048962392 0.003994856 -0.008149426 0.011936752 -0.026833907 0.016626563 0.02103173 -0.066842325 0.05025857 0.013717043 0.009733513 0.009056328 0.01635263 -0.019009927 0.025561478 -0.013122246 0.044480283 -0.048495956 0.019542957 0.009847616 -0.035995882 0.019023174 -0.06320856 -0.026221808 0.04758484 0.004478814 -0.013935641 -0.024128195 -0.07140151 0.0058905855 0.03642891 -0.0007791616 0.010744249 -0.015228271 0.012850121 0.017122617 0.050788663 0.007830068 0.03315135 0.016981905 -0.013488498 -0.008598333 0.0009495745 0.057030257 -0.0033717444 0.034853335 0.0024180969 0.028844152 -0.047690645 -0.011856794 -0.008194306 -0.018037627 -0.032494448 0.0090134265 -0.020832298 -0.06080691 0.03631909 0.016104061 -0.0342076 -0.013327702 0.0030625602 -0.06888522 0.057817668 -0.04435133 0.008890493 0.03922539 0.061080858 -0.043890756 0.012925264 0.043755617 -0.0015480448 0.017351253 -0.05103576 -0.058365334 0.021785712 0.06955764 -0.0116629 -0.035152387 0.07415617 0.054428183 0.0008582593 -0.06031291 0.053855367 -0.054763734 -0.019945629 0.033760443 0.06968978 0.0367924 0.01586316 0.0127312355 -0.042058438 -0.0136755975 -0.022836968 -9.5995434e-05 0.014237098 0.04422905 -0.019190794 -0.018269528 -0.010206349 0.004186978 -0.045525905 0.0031904234 0.023707379 0.026077325 0.07237602 -0.046758104 0.07238041 -0.008606729 -0.06729201 0.033966742 0.02907454 -0.0026579923 0.012153371 -0.009619233 -0.046833094 -0.009018748 0.055234063 -0.032120094 0.058164738 -0.05434056 0.01182814 0.039457638 0.01440119 -0.02549522 -0.006350401 -0.0021116026 -0.023833353 -0.05531684 -0.02906135 -0.021216627 -0.017509649 0.020944806 -0.0052376487 -0.021691754 0.0076041813 0.041776385 0.068637855 -0.036359277 -0.055369463 -0.06766786 -0.017199595 0.032879177 -0.0039572236 0.0004957992 -0.053587973 -0.015492408 0.059925467 -0.01380743 -0.037170693 0.06357866 0.042090546 0.014871773 -0.056259923 -0.019213036
tg 0.007998085 0.026715359 -0.007872926 0.044067778 -0.008662828 -0.015318299 0.019186888 -0.015464483 0.01806044 -0.0052840775 -0.049253367 -0.028092297 -0.04680658 -0.056962177 -0.011877764 -0.019688424 -0.01722822 0.01306441 -0.033116475 0.05243192 -0.04801558 -0.024063576 0.020186605 -0.023600701 -0.060563743 0.06404654 -0.010968796 0.03476195 -0.04270722 0.02503554 0.014655082 0.036469653 0.009091909 0.050922602 0.025554564 0.05196103 0.014792349 -0.0048409267 -0.014534316 -0.0038117531 -0.019509204 -0.027417017 -0.04496355 0.02285359 0.03753007 -0.0455507 -0.03769722 0.019449728 0.0613436 0.012393403 0.010900819 0.024698809 0.004857054 0.019645238 0.02883222 0.01876851 -0.02025356 0.042972907 0.004212881 0.014604926 -0.023156714 -0.0012071081 0.0012933329 -0.029986592 0.0136606395 0.027981244 0.020643836 -0.012317123 0.002731837 0.039661285 -0.046550933 0.032219816 0.008828746 -0.02611406 0.048058335 -0.0038664327 0.014208773 0.005033145 0.05223194 -0.021102082 0.039781313 0.011126282 -0.00095359556 0.005071353 0.010192705 -0.05487458 -0.03085966 -0.0148122525 -0.02227533 -0.018053861 0.044150054 0.022302045 -0.028042188 0.0023617467 -0.031430222 -0.032299988 0.020586688 0.011950292 -0.013143276 0.019259503 -0.045603175 0.032905888 0.03144023 0.031500835 0.010959874 0.01758936 0.06483013 -0.0139995525 -0.00023671653 -0.02460485 0.00081565935 0.007825547 0.006223861 -0.022114774 0.05638692 0.007451479 -0.026723785 0.057570986 -0.024501951 0.029919703 -0.015791893 -0.006421563 0.016990423 0.064492434 0.034218475 -0.064859465 -0.06159232 -0.048746597 -0.046888642 0.020769173 -0.017874358 -0.04876193 -0.00014324204 -0.015586386 -0.04065065 0.058986004 0.059825942 -0.006422921 0.060555946 0.04074459 0.053692743 -0.035943564 0.044169683 -0.0037802905 -0.03551372 0.029920336 0.014151215 0.015875537 0.04905946 -0.04909528 0.010438747 0.0025481782 -0.0066253995 0.040977165 0.008476946 -0.0200481 0.013100098 0.004385314 -0.05055191 -0.0067578433 -0.042427845 0.02361183 -0.028652906 0.027184254 0.02358144 -0.0633629 -0.018695954 -0.02755232 -0.062825814 -0.017751219 0.039542876 0.026845403 0.061489295 -0.026901668 -0.026879517 -0.037431654 0.035636067 -0.03318226 -0.022290224 0.0041580275 0.015941769 -0.0062904325 0.016169101 0.0132011315 0.0051486637 0.003228548 -0.00450334 -0.013496687 0.04778335 -0.01856374 -0.009828658 0.024310557 0.018057907 0.028815776 -0.025596734 -0.06281205 -0.03988307 0.02635516 -0.024632003 -0.010481914 0.030688219 -0.028252162 0.03211779 0.052933965 0.021758711 -0.0050439294 -0.03361996 0.049601503 0.06023498 0.05160093 -0.000467555 -0.02526324 0.0073163155 0.028569294 -0.004957979 0.004507669 0.020875493 -0.0433842 0.016874691 -0.003658192 -0.0018612157 0.017685255 0.011671051 -0.0049456204 0.037508383 -0.04900256 -0.032225866 -0.030586893 -0.0007992032 0.025232572 -0.0044136075 0.058023553 -0.036220122 0.020087596 -0.014689462 0.015385635 -0.017580828 0.020641757 -0.022068407 0.03111916 0.030579746 0.015491286 0.048697706 -0.0069416855 0.023783522 0.0010474472 0.02725333 0.028267888 -0.032513224 -0.06333321 0.027077219 0.024298238 0.022120208 0.02553059 -0.02695653 0.001999216 0.047104936 0.043450944 0.0048767645 0.0049084006 -0.04322465 0.040457334 -0.012078543 0.019103069 0.009322457 0.03866902 -0.05475072 0.032176916 -0.031344105 -0.057446297 0.004715661 0.035092287 -0.025211757 -0.014284991 0.036192615 -0.061471462 -0.042448252 0.022634495 -0.026843779 -0.0050153136 -0.026430031 -0.026549589 -0.05752665 0.066681325 0.016531052 -0.013133351 -0.033218477 0.057919335 0.01508439 0.0637252 0.017579703 -0.052874308 0.031135172 0.056406405 0.06256911 -0.044857893 0.0002843507 -0.0059255543 0.002664625 -0.065229975 -0.014448398 -0.037282985 0.005203901 0.02429742 0.0461876 -0.013992455 -0.017356712 -0.0052610617 0.009144015 -0.0018396886 -0.027610064 -0.06356296 0.002741821 -0.032193843 0.06581121 -0.021928798 -0.02019528 0.025840618 0.028308235 0.012790578 -0.018775722 0.03383486 -0.029699706 0.018938877 -0.020554617 0.059329197 0.021731587 0.058842793 0.0441176 0.046827126 -0.049661394 0.034224577 -0.008490477 -0.010204787 0.017104072 0.015057483 0.01292433 -0.0524131 -0.028855335 0.0232891 -0.011509265 -0.013509731 0.0057444437 -0.0003311026 -0.05630683 -0.05866953 0.024175068 0.0087000225 -0.055811226 -0.0192849 -0.05344032 0.0634349 0.025831008 0.061901815 -0.023183005 0.02184103 0.028316254 0.023659315 -0.020220319 0.064413905 0.016509797 0.058030173 0.0132028265 0.013274693 -0.013760809 -0.065236874 -0.038853966 -0.020561649 0.006875011 -0.04165901 -0.0018533011 0.006389367
aa -0.045614854 -0.097203076 -0.06377286 0.059775732 -0.042350166 -0.07931253 -0.087286495 0.092071176 -0.03968833 0.024620868 -0.11061043 0.06575562 -0.07079852 -0.040239308 -0.018241752 -0.07597081 0.09519633 0.04346685 -0.048429385 0.08832629 -0.08096723 0.10090872 0.08413429 0.043136656 -0.014245357 0.06099793 0.07149842 0.066179 -0.08655731 0.09595981 -0.034210913 0.057437096 0.04053176 0.019574124 0.09186422 0.049461957 0.086854905 -0.024944065 -0.062297747 0.07305386 0.082486525 -0.061558314 -0.031822827 0.10898429 0.10877055 -0.083450764 -0.019384036 0.06486823 0.079618275 0.100593194 0.08613088 -0.08047169 0.09203542 0.07898629 0.042236228 -0.06794765 -0.038713768 0.07328439 -0.06289264 -0.042165697 -0.017423268 -0.05031626 -0.04734902 0.0871787 0.06300717 -0.08901472 -0.095096156 -0.08721825 0.11386051 0.0663009 -0.07577394 0.052591525 0.05187981 0.020311216 0.09479118 -0.0065670796 -0.020955442 -0.081143424 0.05740333 0.10115665 0.09438108 0.032118917 0.078035735 -0.098470226 0.017550824 -0.035258718 0.05127361 0.07732432 0.09682842 0.088689916 0.110750854 -0.060397904 -0.050707407 -0.020723222 0.08385518 -0.05264981 -0.07590635 0.06750557 0.08974581 -0.07337415 -0.07042197 0.10262215 -0.02068587 0.107232444 -0.10407961 -0.058450136 0.08613553 -0.07999138 -0.05636853 -0.033309452 0.10131366 -0.07093627 -0.04495923 0.07733519 0.040167153 -0.056003917 0.09479971 0.113809824 0.1093441 -0.070940554 -0.058450967 -0.086682834 0.10034722 0.07839508 0.021757307 -0.0313896 -0.04014477 -0.09480643 -0.09620041 0.0468072 -0.110136025 -0.09439651 -0.08447717 0.016118012 -0.0725782 0.07481828 0.10495834 0.08324985 0.103479214 0.07378112 0.06453134 -0.058752637 0.06797233 -0.07898222 -0.040250447 -0.016725406 0.0867397 -0.09402442 0.103744335 -0.09609599 -0.020436289 0.09734801 0.076987155 0.10028836 0.06210449 0.051254988 0.09527706 -0.045487974 -0.039614175 0.04526785 -0.09220087 -0.030474765 0.043194182 0.09293161 0.08435393 -0.0679501 0.030026903 0.11181366 -0.018674493 0.07510994 0.101688944 0.002770022 0.04798926 -0.08846153 -0.01822373 -0.07545833 0.06880609 -0.04148102 -0.06962291 -0.06416649 -0.015773872 0.11553327 0.09384347 -0.014692959 -0.09300816 0.09564815 0.034336045 0.01572625 0.11132484 -0.047789264 0.088156834 0.04794594 -0.047132526 0.0954906 0.10086999 -0.039157312 -0.02997834 -0.08902634 -0.046056516 0.0032986102 0.045930028 0.042241637 -0.06770939 0.029983126 0.047506135 -0.07537304 0.06697398 0.057811826 0.031418636 0.08329486 -0.04301445 -0.080913804 -0.09062279 -0.08176301 0.10544231 -0.09229186 0.028164357 -0.07997258 -0.030322231 0.06344663 0.018249534 0.0909553 -0.07054159 0.0052800025 0.069113225 -0.08920643 0.09100363 -0.08322876 -0.04824783 0.06797529 0.08561426 0.030574014 -0.083384596 -0.0815419 0.11253643 -0.022108559 0.056271594 0.07394666 -0.047911488 -0.07475778 -0.0802122 -0.017808957 0.09732479 -0.06589559 0.09501264 -0.018362971 -0.10399348 0.08571426 0.023570526 -0.06897398 -0.05799078 0.06951784 -0.022433894 0.07721062 0.092682146 0.04959314 0.04456212 0.046363153 0.010122464 -0.030286256 -0.091050066 0.06514759 0.10881247 0.022805393 0.0636603 0.07325612 -0.055633817 -0.09634179 -0.091270864 -0.08668343 -0.036932442 0.044557173 0.10355086 -0.05942024 0.04443005 -0.02702767 -0.08742453 -0.069411844 -0.04967204 -0.09423825 0.10348994 -0.049420398 -0.07586454 0.09707799 0.083662055 -0.09711326 0.06290801 0.027347876 -0.07684352 0.023038555 -0.076127574 -0.083949335 0.10912634 0.08706905 0.059389275 -0.07499679 0.0664565 0.07360967 -0.06080792 -0.06758477 0.10729425 -0.034143943 -0.03913556 0.075999945 0.09731621 0.10381244 -0.10491121 -0.08795763 -0.10991593 -0.040059675 -0.052139256 -0.032275524 -0.076596975 0.056071457 0.057379153 0.1040427 -0.06114567 0.052193243 -0.07355737 0.039209794 -0.029166773 0.10645404 0.08908257 -0.102971025 0.09728363 0.11070211 -0.10442208 0.0861141 0.079421625 0.0420337 -0.10175729 0.09897318 -0.09831723 -0.084794596 0.06424919 -0.104921974 0.07368784 -0.07645039 0.023352966 0.085005544 -0.049467497 -0.04750522 -0.09346864 0.052422408 -0.09284927 -0.07742629 -0.11057407 -0.10370527 -0.05898432 0.08242362 -0.048564103 0.069225974 0.050424486 0.023478458 0.10387485 -0.04942132 -0.08891777 -0.05075902 -0.050707925 0.054461326 0.09632717 0.08856349 -0.10139498 0.025238212 0.028520858 -0.05001309 -0.07884547 0.073565856 0.027810942 -0.07204724 -0.06285955 0.10783843
gt -0.04583689 0.00799859 -0.009965598 0.059573967 -0.04394016 0.022823619 -0.04627211 0.04357885 0.0048865997 -0.03184968 0.011995005 0.03792661 0.03680411 0.009631076 -0.029493192 -0.0065411907 -0.03706737 0.022831846 -0.047032733 0.03449278 -0.046551276 -0.008674739 -0.024092386 0.027259754 -0.02176839 0.029705213 -0.020691192 -0.02531696 -0.02437335 0.042961 0.0032594192 0.01117405 0.057003733 0.048840266 0.058607385 0.048283953 -0.032817643 -0.015896127 -0.037300345 -0.022087496 0.006993683 0.02437382 -0.057529215 0.022291562 0.020537322 -0.022636652 0.016886713 -0.011291015 0.050799754 0.056666203 -0.0072076535 0.029753188 0.012358745 0.01695613 -0.029395897 -0.056334287 -0.042238817 -0.02239884 0.016679503 -0.010036124 0.015131525 0.031316932 0.008678603 -0.01798902 -0.011593298 -0.020504244 0.034304135 -0.042172205 -0.01959893 0.015884088 0.03267502 0.053770248 0.04854664 0.039037984 -0.001486318 0.0068192147 0.023899356 -0.0422471 -0.010056291 -0.035313684 -0.041775424 -0.017453039 -0.010193998 -0.02981612 0.060284883 0.028787931 -0.0025566535 0.0120414635 -0.013661358 0.02349486 0.05823096 0.013015467 -0.020238766 -0.027661886 0.023430055 0.0062634135 0.018244786 0.036976706 0.054197736 -0.009372614 -0.04262931 -0.0195018 0.004738339 -0.046587072 0.015148181 0.0041115666 0.02283988 0.0047445577 -0.05745491 -0.05266031 0.007389909 -0.06226074 -0.02453033 0.039305296 -0.028626116 0.019351628 -0.030386547 -0.02915207 0.011343673 -0.057975493 -0.052192453 -0.051670432 0.038918134 -0.009957051 0.04780454 0.03736485 0.039579503 -0.011985752 -0.050181475 -0.013040757 -0.061884075 -0.037706178 -0.01985906 0.024906583 -0.030446043 -0.008439592 -0.03234476 0.023063902 0.031078152 0.007133803 -0.020058433 0.029236676 0.01860933 -0.020778513 -0.014428776 -0.035572264 -0.000988825 0.014529699 -0.02836724 -0.013811672 -0.022986548 -0.028796012 0.0004682129 0.014119408 -0.017451422 0.004767595 0.010735816 0.033536177 -0.037239827 -0.016876096 0.0029473458 -0.033697754 0.048428413 0.030162314 0.01378475 0.017588975 -0.024140036 -0.013174276 -0.03426047 0.033346303 -0.013239644 -0.0036549298 0.012822271 0.010433256 -0.012640309 -0.037849125 0.013667272 0.031536605 -0.03346233 -0.0015658857 -0.03757274 -0.008408517 -0.023316082 -0.043240976 -0.0013339032 -0.012330075 0.02945521 -0.04359868 -0.030237654 -0.030182445 0.023085836 -0.03832145 -0.050883558 0.014916855 0.04743201 0.025211355 -0.045172967 -0.007122881 -0.013743991 0.053116355 0.027526395 0.004622573 -0.0025358596 -0.040838487 0.02856864 0.027649133 -0.0007130006 -0.011350248 -0.013890344 -0.03688018 0.030011762 -0.019891838 -0.023945631 0.021915106 0.006969044 0.031792514 -0.0048392364 -0.021608666 0.0014431381 0.003754932 0.056986343 -0.0032938519 0.035746034 -0.0032095085 0.021598872 -0.044209354 0.008008626 0.009089152 0.01407588 0.02399808 0.03430441 -0.0012629027 0.040787876 -0.04128637 -0.025954675 -0.025585428 -0.0013818041 -0.045412045 0.023083244 0.032414977 0.044494696 0.029747924 0.030041477 0.038357466 0.028417232 -0.05307965 -0.05750372 -0.015431372 -0.03417213 -0.05326776 0.00381287 0.03406809 -0.0076335007 -0.010502765 0.04172617 0.058017887 0.050362628 -0.015323305 -0.049198113 -0.001296886 0.016728407 0.022097213 -0.019813778 -0.031340808 0.021710895 -0.016322035 0.032521375 -0.03474764 0.023456616 -0.027180709 -0.00080506667 -0.014583361 0.025612285 -0.021909898 0.0068123303 -0.046576202 0.021055903 -0.05649594 0.024624947 -0.03198967 0.043831408 -0.042376768 0.0055137337 0.002580121 0.016318664 0.0030968667 -0.045785226 -0.0363005 -0.038191184 -0.02383356 0.022976585 -0.0012596076 0.013613546 0.005504949 -0.0054754503 -0.023091797 -0.0026926056 0.026096337 -0.01554391 -0.0054892516 0.038849603 -0.056440648 0.03500208 0.0052101365 0.004114109 0.05181104 0.029104665 -0.059156895 -0.010422634 -0.034184366 0.021053348 0.0324489 0.03464987 -0.028789032 0.015794262 0.05586664 -0.053859085 0.027468154 -0.040708188 -0.017873293 -0.019658877 0.045931187 0.029396977 0.004487045 0.024946494 0.00041141585 -0.010192448 -0.006252481 0.008801145 0.03198259 0.023488877 0.043965884 -0.003890955 -0.012537912 0.06040651 -0.021125473 0.0006849108 0.013852892 0.052989915 0.016712876 -0.032931734 0.027422866 -0.018111333 -0.020568568 -0.04925912 0.034446593 -0.014980745 0.037150696 0.0034590834 0.054117367 -0.036876332 -0.034880895 0.057170536 0.045990158 0.012276783 -0.052472536 0.022082046 -0.034371983 -0.0066423244 0.04744113 0.018799739 -0.0011056258 0.019057008 -0.0028966952 -0.03652995 -0.047204018 -0.02399486 0.044374313 0.043247055 0.013931226 0.0035669608 0.041481286
cg 0.0132679865 -0.02287767 -0.056081675 0.032365464 -0.024383094 0.03827581 0.029022576 -0.0029406527 -0.030345738 0.013108487 -0.007651526 -0.010361747 -0.024801519 -0.041895274 0.028977789 0.0028310323 0.032864414 0.050586402 -0.02363279 -0.02032952 -0.032601893 -0.005995288 0.013077387 0.026477106 0.01055853 0.049408525 0.026795588 0.058521066 -0.0056294315 0.024772096 -0.044568606 0.042231057 0.048900094 0.047417525 0.029583905 0.05804622 -0.0380995 0.024703402 0.03333257 0.007424387 0.038882896 -0.035636522 0.005720731 -0.0023572755 0.033988893 0.019599698 -0.0061710286 -0.022746626 0.0023541807 -0.00021924151 0.011979981 -0.042292736 0.0033742297 -0.036663525 0.011685719 0.0059769996 -0.03692633 0.02874086 0.019285912 0.0057963007 -0.017459612 -0.02194077 0.021464637 -0.042312916 -0.0035755793 -0.003002757 0.014917185 -0.03077874 0.024442125 0.030704407 -0.02954813 0.014629966 0.001767918 0.028479023 -0.040213205 0.01690555 0.0039738007 -0.047389824 -0.01588857 0.013736696 0.004768531 0.026422903 0.0009951552 0.018474234 0.01565802 0.0042195534 0.030225782 -0.017676827 -0.043733016 0.00787687 -0.042446077 -0.042519838 -0.03788678 -0.02706841 -0.03384562 -0.033513047 0.02811775 -0.026777264 -0.040946115 -0.01305021 -0.008882766 0.05576008 -0.034811083 -0.028245911 0.03266905 -0.016749457 0.014269983 -0.0075300746 -0.007072828 -0.0023650378 0.01202204 -0.05550958 0.03596468 -0.014889448 0.040568125 0.007845857 -0.0063311695 0.03184812 0.0028514918 -0.0019172456 0.0032162648 0.022156853 0.036979806 -0.02704679 0.037832215 0.012674786 0.017883928 0.013510475 0.02564694 -0.005349975 -0.009955876 -0.010542319 -0.052594464 -0.031331774 0.034738958 -0.0031465115 0.025413327 0.02860094 0.022700654 0.029347638 -0.02675784 0.02564813 0.005840558 -0.012364288 -0.050358664 -0.021576203 0.014309397 -0.028390087 0.006012638 -0.018416056 0.017160062 -0.040030222 -0.0048676953 -0.011388877 0.0032411653 -0.03562418 0.033446513 -0.0122818295 0.03302753 0.023507262 -0.0003411571 -0.05637431 -0.006013729 0.013622082 0.008858848 0.022808343 0.0391051 0.032890026 0.007859189 -0.035276618 0.008678217 0.034293227 0.042713728 -0.015782353 0.033778623 -0.037000228 0.02094758 0.04520284 -0.019855274 0.011746723 -0.0042294827 -0.027489884 0.055843994 -0.047701016 -0.046060506 0.05686541 -0.01632269 -0.01648575 -0.03060013 -0.034540854 -0.016305715 0.048587717 -0.017528445 -0.024957314 0.04624557 -0.03368325 0.042342354 0.031048894 0.036314767 -0.024475357 -0.008995795 0.03479197 -0.05063801 0.037153613 -0.008871947 0.013186672 -0.019039871 0.048746713 0.021849103 0.0007070479 -0.014496691 0.0065118484 -0.021637024 0.024604645 0.040723376 -0.02756574 -0.033427313 0.0032190972 -0.02594286 -0.04503976 -0.015082795 -0.025398538 0.00040291646 0.045315452 -0.018481838 -0.029717678 0.034402333 0.036488507 -0.04686564 0.022882406 0.008529032 -0.018117147 -0.049941547 -0.018165559 -0.018149078 0.005327126 -0.017783701 0.0043088836 0.023608238 0.0048758937 0.03927026 -0.04164201 0.01652543 -0.029217405 0.04422211 -0.04290009 0.013350136 0.030599028 0.011576452 -0.05115918 -0.047987584 0.035642516 -0.031354964 0.021844475 -0.03046674 0.04629612 -0.032748934 -0.039861254 -0.0022193647 -0.04581616 -0.028648432 -0.035187807 0.024931522 0.004327981 -0.026713513 -0.007346337 -0.051441208 -0.0101764565 0.03152755 0.013970253 -0.053987086 -0.029383654 0.0019384269 -0.030236978 0.020952217 -0.0052029914 0.033238765 -0.05703559 -0.021912398 -0.0052876095 -0.0119023565 -0.018804068 -0.033241075 0.020770403 0.039194997 -0.04829024 0.029982582 -0.026235051 -0.026597014 -0.0057305805 -0.006161872 0.023353279 0.02107129 0.0015105442 -0.00065897015 -0.00072147476 0.03670679 -0.041218128 -0.014211209 -0.027187696 -0.04043492 -0.031305768 0.021460922 0.017708044 0.03338093 -0.014591994 0.039562076 0.004122 -0.050602473 -0.03956322 -0.04761709 0.036737625 -0.038574897 0.04940668 -0.027807213 0.043571305 0.0010822256 -0.031868644 -0.04310772 0.027545018 0.014722316 0.022346584 0.031001087 -0.02444704 0.018701922 -0.002477589 0.025658838 0.036231488 0.051371913 0.047070593 0.032886475 -0.010527972 0.035389584 -0.03216043 0.049492918 0.03890956 -0.03382987 -0.0027264166 0.009667461 -0.017024366 0.015943011 0.0039599263 -0.0067180046 -0.026256947 0.0039114496 -0.03598782 -0.007950475 0.026395304 0.035154786 6.617854e-05 -0.03283616 0.042714484 0.056144066 0.053849563 -0.025228567 -0.050800264 -0.018555356 -0.01973799 -0.019070197 -0.009964448 0.028008435 -0.033870175 0.03780579 0.009536482 0.037934337 -0.014435458 -0.044501726 0.007151442 -0.00054967514 -0.00060944585 -0.004962029 0.00816089
c -0.028306866 -0.0973678 -0.040099334 0.0936188 -0.06897877 -0.069781706 -0.032644134 0.04065815 -0.031768166 0.09861249 -0.071888685 0.09251287 -0.1039361 -0.09127575 -0.019869179 -0.04343986 0.050387718 0.05519532 -0.073897555 0.07367438 -0.012897333 0.03595124 0.03531676 0.030517034 -0.093969 0.11252972 0.10466225 0.03230093 -0.088753834 0.08813197 -0.09801104 0.025293903 0.0762083 0.10422812 0.10538321 0.03599274 0.028683838 -0.040601853 -0.061586954 0.07672842 0.08867934 -0.039318185 -0.027376212 0.096763976 0.018602611 -0.004579011 -0.035465676 0.10216816 0.017526038 0.028117396 0.091657184 -0.065676816 0.10354679 0.074254006 0.081034645 -0.07518776 -0.03784935 0.061750367 -0.07107699 -0.08225524 -0.001998536 -0.102744006 -0.04162326 0.079613835 0.076620914 -0.038886704 -0.080732815 -0.049420245 0.045920957 0.071823895 -0.08398991 0.07510741 0.101060785 0.047508232 0.083106674 0.075915076 -0.04559677 -0.08095784 0.04903795 0.107657276 0.07533651 0.1005648 0.055798955 -0.061474726 0.09531387 -0.06749068 0.061202448 0.09299988 0.11117782 0.089945056 0.029605646 -0.03919428 -0.06693562 -0.051586267 0.08843626 -0.03864231 -0.06736552 0.06715347 0.05448678 -0.019595897 -0.053455275 0.074057795 -0.100948595 0.039175164 -0.10098397 -0.04234019 0.075909294 -0.025131851 -0.096739076 -0.045480456 0.046378482 -0.0628302 -0.060027536 0.092896104 0.077398136 -0.04790074 0.10417741 0.041904874 0.034284927 -0.021032412 -0.026049368 -0.08889916 0.10632122 0.10469775 0.02743327 -0.054639526 0.0044409 -0.020204492 -0.10529659 0.0430396 -0.05166942 -0.08389898 -0.06586247 0.08377771 -0.074775256 0.1129466 0.092166856 0.08735683 0.029507235 0.056847274 0.059273448 -0.07341458 0.083157 -0.09828643 -0.03132729 -0.022922074 0.050426222 -0.08614635 0.096222535 -0.07337745 -0.051030595 0.09410721 0.07092534 0.09045412 0.08233429 0.009806457 0.11167041 -0.045330267 -0.04812206 0.060745414 -0.0903672 -0.10275657 0.089171134 0.09414483 0.01863888 -0.036588073 0.10060734 0.10937724 -0.09557735 0.011516096 0.085022844 0.07090919 0.04857267 -0.113004856 -0.06594185 -0.100308076 0.08617809 -0.09405881 -0.050412614 -0.06881056 -0.06860333 0.05642808 0.07617298 -0.013415759 -0.026551286 0.07560315 0.058087125 0.026121316 0.08280372 -0.040685937 0.06444919 0.06645526 -0.04613297 0.08245506 0.045580003 -0.06633356 -0.075595446 -0.07529454 -0.086664036 0.048660155 0.046182975 0.07736769 -0.08126381 0.07851367 0.05118249 -0.022368131 0.097477935 0.029552815 0.0696792 0.023410093 -0.11453748 -0.02928636 -0.08490273 -0.10978525 0.098802455 -0.065836474 0.10595541 -0.06694523 -0.08701115 0.017965715 0.09480283 0.09461817 -0.010046059 0.031877324 0.09252204 -0.04904389 0.063742675 -0.053356383 -0.106669165 0.05004043 0.0887927 0.021129292 -0.081402935 -0.093354054 0.092339694 -0.043311402 0.07238 0.03011768 -0.08202003 -0.07219202 -0.047426898 -0.0723154 0.08911273 -0.04537397 -0.00039079215 -0.03713755 -0.07489064 0.075434044 0.08408629 -0.10941306 -0.07983482 0.053453665 -0.07208275 0.10267786 0.07135187 0.10833538 0.025810841 0.06110276 -0.013461758 -0.082759365 -0.056739666 0.10076114 0.089267276 0.059236046 0.08104466 0.07899228 -0.102165215 -0.10340556 -0.09603753 -0.106273554 -0.06497309 0.08216467 0.1073715 -0.0998536 0.05228543 -0.10746398 -0.07035926 -0.08651647 -0.07342263 -0.03778829 0.063331306 -0.060333125 -0.041990113 0.11359682 0.01841656 -0.050634645 0.013375531 0.09847078 -0.06462979 0.053925794 -0.020183979 -0.08294614 0.07967652 0.11082808 0.039695974 -0.09100999 0.07123568 0.07558025 -0.076253965 -0.095416784 0.101226136 -0.09382325 -0.050191186 0.089411505 0.05612801 0.10509981 -0.08918917 -0.018399928 -0.111869305 -0.08215049 -0.06827663 -0.015864043 -0.10218543 0.006795585 0.024943646 0.08919247 -0.09047698 0.087762766 -0.056423385 0.11032097 -0.10235762 0.096470974 0.016620422 -0.03760528 0.01902516 0.10601554 -0.020178577 0.09786563 0.06485429 0.084438756 -0.07106483 0.013460138 -0.04250355 -0.055982787 0.04897461 -0.07445788 0.10630126 -0.030743197 0.07310745 0.05967262 -0.043019213 -0.10096308 -0.04335018 0.10055446 -0.103933826 -0.08164137 -0.046306882 -0.034705523 -0.054861523 0.08141727 -0.10449679 0.061671264 0.108434945 0.1041564 0.041332178 -0.07362004 -0.053686038 -0.08763865 -0.09104305 0.04053614 0.049630202 0.053596307 -0.084625624 0.06735284 0.08518725 -0.06096115 -0.07497675 0.07173556 0.07348933 -0.077079006 -0.11296386 0.111889474
cc -0.081590936 -0.05046593 -0.10854822 0.07991865 -0.06220459 -0.03822198 -0.069889694 0.016645439 -0.07766974 0.068645805 -0.07894041 0.04766103 -0.08164884 -0.097035155 -0.09080776 -0.02394541 0.0283311 0.053894315 -0.028701697 0.075908884 -0.08481178 0.068850614 0.068612784 0.0075155105 -0.022563756 0.06016673 0.044415772 0.03526009 -0.041696202 0.057160284 -0.081855945 0.05599098 0.117004104 0.10492536 0.11563225 0.033545345 0.10037013 -0.10925653 -0.03130431 0.08976155 0.030575521 -0.09111474 -0.08938161 0.08890958 0.120529026 -0.038718298 -0.03359386 0.094655044 0.10834309 0.11116188 0.025179172 -0.047219355 0.11067 0.05764753 0.01993011 -0.05318748 -0.023723178 0.037506603 -0.11385288 -0.04156068 0.026634827 -0.038995076 -0.014148438 0.09491857 0.043522302 -0.03301265 -0.10722465 -0.031426046 0.023057489 0.04187361 -0.05367998 0.049096648 0.08466553 0.10530693 0.098005556 0.027331535 -0.11330394 -0.095046215 0.021867823 0.035888 0.10173987 0.029827187 0.04633536 -0.052100215 0.09027463 -0.07080013 0.05981584 0.07283663 0.11495873 0.053145498 0.10943266 -0.09633183 -0.022002816 -0.114565104 0.03979089 -0.04915684 -0.09738242 0.051969707 0.03889013 -0.06497178 -0.08877156 0.05276753 -0.110607244 0.091407485 -0.07041282 -0.09578827 0.078215286 -0.05652783 -0.046025276 -0.10519026 0.023671452 -0.049279034 -0.028297149 0.04729341 0.034429677 -0.11290887 0.1137171 0.06036288 0.106738396 -0.09947775 -0.09631511 -0.046192583 0.04366885 0.03161781 0.02050124 -0.11724476 -0.075229116 -0.07024578 -0.025837105 0.048221223 -0.06603273 -0.039105553 -0.100756034 0.030153433 -0.11521551 0.04110384 0.07720434 0.042536374 0.045063075 0.098469466 0.07238742 -0.06888906 0.05629408 -0.07595192 -0.09681929 -0.046245027 0.08559201 -0.061374273 0.03234374 -0.056370206 -0.09165132 0.06321913 0.029192036 0.0873247 0.06530632 0.048554767 0.10459063 -0.062075466 -0.07571678 0.04448791 -0.04715008 -0.027711043 0.0693265 0.05506278 0.015113697 -0.05421824 0.059224006 0.099242665 -0.08992188 0.08837044 0.08945541 0.02670548 0.09425744 -0.06915696 -0.033717934 -0.10695994 0.118559055 -0.060907934 -0.092150725 -0.026546197 -0.102988645 0.027096733 0.04429726 -0.05850065 -0.09883853 0.09074651 0.06495378 -0.027042784 0.034776647 -0.09351414 0.045248125 0.055911854 -0.05881162 0.10592903 0.04955291 -0.105195634 -0.09740203 -0.07385239 -0.029280962 0.012618231 -0.02356105 0.024694318 -0.080547534 0.05163392 0.06349312 -0.08652477 0.08566156 0.10667563 0.11356762 0.10794968 -0.118541576 -0.06734116 -0.08600245 -0.106229104 0.082003534 -0.0454168 0.09232346 -0.053269494 -0.036704525 0.04759818 0.037378263 0.08625657 -0.03124938 0.07178915 0.044072527 -0.109672226 0.0800121 -0.026317308 -0.042404138 0.08765841 0.041326657 0.0041482463 -0.03134127 -0.10070289 0.12065311 -0.09890043 0.04064447 0.074040286 -0.11492068 -0.059653606 -0.065259255 -0.05064654 0.078191526 -0.040122986 0.09781047 -0.120350935 -0.11087126 0.061835315 0.103801385 -0.10910682 -0.11194821 0.035797585 -0.0035933899 0.09867437 0.11103443 0.08531475 0.1200165 0.0975657 -0.062483296 -0.08932248 -0.08277811 0.06783262 0.10775997 0.07571649 0.07712026 0.06617981 -0.10369384 -0.06096726 -0.07684323 -0.037065648 -0.08542623 0.08801385 0.10640362 -0.037724156 0.06358956 -0.053270895 -0.056748133 -0.06716262 -0.06779188 -0.084117234 0.10170338 -0.07989223 -0.03339659 0.02972225 0.07239326 -0.04849545 0.08985407 0.026655799 -0.051365327 0.09592929 -0.019877663 -0.05640849 0.051119193 0.111892246 0.0658916 -0.06738855 0.12011527 0.01393654 -0.028369537 -0.0804713 0.024382282 -0.033582646 -0.038895402 0.060409646 0.09118406 0.04677988 -0.060141593 -0.10293188 -0.035498936 -0.034969125 -0.11454378 -0.1036955 -0.033562314 0.042944018 0.032611214 0.05480327 -0.10199013 0.060174935 -0.0450854 0.0302028 -0.04572618 0.043778628 0.11681233 -0.025752226 0.09282828 0.042390067 -0.119810395 0.10900299 0.09439271 0.038271647 -0.047824025 0.09320575 -0.113059476 -0.067884415 0.054945074 -0.10484039 0.08882362 -0.043033812 0.09229104 0.07594367 -0.10011265 -0.02150229 -0.04606075 0.039388757 -0.095754795 -0.10909891 -0.03880331 -0.033911567 -0.06188789 0.02623068 -0.044006605 0.110307656 0.079859585 0.059999507 0.105957374 -0.03447745 -0.06555437 -0.07194699 -0.0912808 0.08459887 0.092601046 0.10716989 -0.08526699 0.059041914 0.112340696 -0.09448724 -0.0744659 0.051881213 0.05693516 -0.043057505 -0.081105255 0.03591902
g -0.04855055 -0.07566712 -0.103075266 0.053716365 -0.064623795 -0.08675195 -0.070898086 0.088862866 -0.06600693 0.07937779 -0.09925604 0.09460604 -0.021865817 -0.103626795 -0.065580934 -0.053496707 0.053245287 0.08453163 -0.04899672 0.076724716 -0.11029686 0.017420825 0.035698783 0.067172766 -0.039923362 0.061592046 0.0691833 0.04777093 -0.0891673 0.085222915 -0.028628495 0.08011955 0.018048747 0.06472527 0.05645371 0.11107682 0.07974718 -0.07871518 -0.115631856 0.106939495 0.10144454 -0.023178177 -0.08832452 0.056561973 0.102370724 -0.03785022 -0.067828216 0.06371557 0.1017804 0.037093468 0.028905675 -0.005356434 0.09380272 0.09147785 0.10544122 -0.057339124 -0.038318105 0.045345098 -0.051047817 -0.034877524 0.0543504 -0.038008723 -0.058076084 0.102282345 0.024004534 -0.027058609 -0.06240429 -0.053680286 0.020913199 0.059890836 -0.08033225 0.04348688 0.09977302 0.08209593 0.075628035 0.052161075 -0.1119752 -0.108587086 0.0415108 0.046648428 0.039472636 0.055911105 0.0929364 -0.07526484 0.056050748 -0.06016192 0.08834945 0.058231253 0.041042387 0.08376512 0.100726165 -0.063176796 -0.09931194 -0.020728689 0.10718195 -0.09398576 -0.05933759 0.09360031 0.033063333 -0.017114025 -0.062101107 0.023992795 -0.101115815 0.093238115 -0.07197767 -0.067998916 0.10008956 -0.073939666 -0.09900348 -0.06267797 0.08024105 -0.0989695 -0.03908051 0.10372439 0.085563175 -0.09107232 0.024279384 0.10079667 0.064244576 -0.027300155 -0.07511705 -0.10889288 0.10097271 0.07152584 0.05203696 -0.10705811 0.0037538728 -0.04700688 -0.11393174 0.1018186 -0.09275318 -0.0696399 -0.09976419 0.108186185 -0.058552466 0.043843728 0.02015537 0.03616495 0.02935991 0.07381769 0.021539431 -0.08779253 0.084199466 -0.071746394 -0.06724131 0.018091392 0.08241396 -0.06794982 0.058930855 -0.067609146 -0.110872224 0.056935217 0.06425166 0.04781472 0.035233952 0.062120933 0.1068153 -0.11574426 -0.03173534 0.017644998 -0.050253272 -0.100749984 0.05940007 0.02405231 0.08158384 -0.051937897 0.09118646 0.07351356 -0.050552234 0.10231021 0.027139544 0.00010822572 0.052835632 -0.092422105 -0.057288054 -0.029375456 0.05165748 -0.07301828 -0.057030752 -0.063030444 -0.09262369 0.10563611 0.10606195 -0.010026967 -0.072946705 0.017346397 0.052592404 0.024432437 0.09568567 -0.049379602 0.091469705 0.08344336 -0.066056244 0.02008816 0.10777907 -0.0727223 -0.06703443 -0.087003216 -0.07508542 0.029333837 -0.012343611 0.07581285 -0.02342369 0.030994583 0.10124363 -0.032642 0.029663311 0.09472499 0.08914103 0.0860461 -0.06550208 -0.05252439 -0.08955621 -0.057906397 0.080511115 -0.082510956 0.1031222 -0.075288974 -0.089512825 0.06092334 0.10343239 0.054602355 -0.061783887 0.047081795 0.054241057 -0.07736598 0.041574217 -0.039754055 -0.02874865 0.051832568 0.1034165 0.08593418 -0.03472547 -0.046733495 0.05384745 -0.09777129 0.016894998 0.060551703 -0.1144436 -0.05107152 -0.041630954 -0.06447979 0.07068254 -0.015397094 0.057253465 -0.03599186 -0.016958702 0.10509944 0.0716506 -0.08680875 -0.110766694 0.07258428 -0.06599211 0.11003677 0.06526214 0.03063212 0.049236286 0.07738124 -0.0019528297 -0.006368401 -0.08198736 0.071758494 0.06683279 0.05988173 0.021217745 0.06037082 -0.056224223 -0.027039139 -0.047916777 -0.06918217 -0.05588348 0.074758284 0.061229963 -0.03014377 0.07667563 -0.07250969 -0.09679948 -0.048567336 -0.061431557 -0.06613924 0.10424719 -0.020226488 -0.021102265 0.110737815 0.07956411 -0.09355503 0.089310475 0.08365412 -0.09254703 0.0981008 -0.050872024 -0.051171415 0.11281369 0.10701931 0.05997138 -0.0558351 0.113126144 0.07266031 -0.028776195 -0.10971339 0.07766613 -0.105838686 -0.09626847 0.016795034 0.0954232 0.07755396 -0.10737215 -0.09130443 -0.07089518 -0.019299673 -0.025289739 -0.0841606 -0.109392606 0.089834414 0.10729228 0.08671178 -0.11255077 0.055359688 -0.08808375 0.11094462 -0.042381823 0.09150367 0.03959596 -0.062154792 0.026917672 0.11108195 -0.0788962 0.09764747 0.006788722 0.04052406 -0.040399224 0.08021486 -0.04717162 -0.10065159 0.024583347 -0.054361433 0.09066839 -0.025001768 0.104854606 0.023854854 -0.10390728 -0.082802184 -0.084875695 0.11345752 -0.057503894 -0.04067775 -0.112395726 -0.08666084 -0.097859934 0.056821715 -0.10740213 0.099164285 0.03460454 0.056613676 0.077527024 -0.0889816 -0.10200847 -0.08037548 -0.10716232 0.034044933 0.057256818 0.07641804 -0.02837262 0.07893513 0.06045327 -0.08334372 -0.053033892 0.05914841 0.07505355 -0.062398795 -0.034983817 0.031948257
ta -0.018768452 0.022768216 0.026965084 -0.008009174 -0.04535238 0.0009777386 0.034749318 0.013267547 0.024781935 -0.011043884 -0.018046048 -0.029447624 -0.056748096 0.002302703 -0.0500013 -0.06119893 -0.011237264 0.04140613 0.02218268 -0.0049797995 -0.033921406 0.003548777 0.049109146 -0.022802973 -0.054269195 0.045938615 -0.005279921 -0.0264299 -0.033952598 0.06297094 0.02931394 0.05201033 0.056912336 0.03032722 0.04030102 -0.030686649 0.027607603 0.032382946 -0.031409327 0.021764124 0.032548677 0.011412464 -0.027612023 0.019814033 0.048840635 -0.054621767 0.034755826 0.050021682 -0.016025992 0.05731122 -0.02660216 0.011815008 0.054281875 0.034544118 -0.028927201 -0.043864194 -0.04282409 -0.0077703237 -0.0017928915 -0.040147316 -0.011529828 -0.033829775 -0.015330343 0.008745872 -0.026063493 0.025830058 -0.0087310225 -0.040224817 0.019687636 0.03536425 -0.04243569 0.025866907 -0.03019618 -0.018504364 0.045797788 0.005518596 -0.0459296 -0.002675969 -0.031736422 -0.029240098 0.063531995 -0.024973374 0.040960424 -0.06195873 -0.030161744 -0.015413673 0.05136732 0.010668213 -0.011773937 0.011093885 0.05320907 -0.020918353 -0.053150274 0.030164555 0.03871503 0.033748038 0.00864487 0.0027774114 0.0048203175 0.016620073 -0.029722257 0.034560222 -0.027869353 0.06382636 0.0006037462 -0.022148982 0.02582681 -0.037396997 -0.021124098 -0.004388112 0.054641657 0.00032605603 -0.041148122 -0.027879905 0.035281714 -0.0623528 -0.000105261635 0.0024476096 0.0073819445 -0.06361146 -0.026011672 -0.06256251 0.053431436 -0.009561262 0.035030678 -0.04772669 0.023006912 -0.020159544 -0.024039336 0.01822625 -0.031047931 -0.014850877 -0.024317706 0.041590218 -0.04785495 -0.007075484 -0.026256332 -0.034402736 -0.033893492 0.029327257 0.036713637 -0.03280373 0.006092172 -0.046396744 -0.023138521 -0.030442294 -0.015682803 -0.027874064 0.044169854 -0.03595585 -0.03282551 0.020217298 0.013563128 -0.029494734 -0.020977775 -0.0036042985 0.015326422 -0.03170344 -0.028185917 0.06144171 -0.020960975 0.023563059 -0.029154224 0.0016396145 0.025598835 0.038032692 -0.0018222844 -0.029943354 -0.06408796 0.027839372 0.045535788 -0.024038125 0.017906165 0.005810224 0.02827288 0.031235546 0.049992934 -0.03677046 0.008736935 0.03698758 -0.056111872 -0.0037804984 0.021566704 -0.030961026 0.011579781 0.008494266 0.009229673 0.03294717 0.00011648913 0.013459978 0.03150559 0.027743291 -0.021489803 0.06543226 0.03610379 0.030520812 0.024889912 0.03926719 -0.009652872 0.04258747 0.01584209 0.056876116 0.037324548 0.010418176 -0.03330746 -0.05969468 0.05952281 0.017715203 -0.013315117 -0.020625737 -0.03801818 0.013442241 0.00818365 0.027532347 0.060405657 0.0028832846 -0.02598887 -0.012625947 -0.027433783 0.05232126 0.05294097 -0.03642195 -0.029124862 0.004164321 0.037675872 0.029368468 -0.024641683 -0.02452992 -0.051344845 0.024229325 0.042046398 0.022204947 0.014458178 0.024651956 0.036569823 0.016406313 0.04013506 -0.03286904 -0.046125032 -0.048710305 -0.023727218 0.033995025 0.021710252 0.03102252 0.0396191 -0.026179908 0.01960939 0.0009005651 -0.00870052 -0.039298933 -0.05588285 0.021939442 -0.06328257 -0.01844272 0.032977037 0.023431715 0.0076735094 0.03973487 -0.05356791 0.024666063 -0.05111857 0.0056869155 0.037652496 0.009944789 0.0010546 0.04042682 -0.028099202 -0.0036727963 -0.01952955 0.010291026 0.0038896431 -0.025038293 0.026637763 -0.037274465 -0.016261008 -0.015496606 -0.041086614 -0.046043146 -0.02856415 0.0065294583 0.015002122 0.016658677 -0.05973346 0.0040685376 0.043858193 0.013149235 -0.010842883 -0.005520111 0.009797408 -0.03370954 -0.0012836758 0.01897983 0.0049185636 0.038608976 0.06267913 0.020840874 0.051266965 0.009859479 0.0006174307 0.0022616223 0.056928348 0.013177152 -0.04491168 -0.010356225 -0.0051499354 0.020463733 -0.002114602 0.025557011 0.034972228 0.02324759 -0.047910243 -0.047223143 0.025242036 0.04375044 0.030255495 0.024539974 -0.03794294 0.011753159 -0.050655756 -0.028333507 -0.054149393 0.038368683 0.039713617 0.0033273972 -0.0009832933 0.0028180154 -0.042576704 -0.032688864 0.01867668 0.03946113 0.016541306 -0.005633289 0.021288006 -0.016062224 -0.0014978196 0.03026195 0.049471997 -0.04397524 -0.028737007 0.057832643 -0.050853454 0.033153463 -0.056247722 0.02248217 -0.02560293 -0.03296781 -0.021089451 -0.04006875 -0.021413827 0.023432072 -0.020231944 -0.0031043258 0.010950681 -0.030238697 0.047707602 -0.04428699 -0.0096215755 0.034260787 -0.000988721 -0.0023472079 -0.010527587 0.0038977144 -0.040021572 0.023494022 0.0492846 -0.01897543 0.028210286 0.021161383 0.054696213 -0.0011366557 -0.017673353 0.0150170075
gg -0.0641147 -0.08649211 -0.020131795 0.054158095 -0.046449583 -0.03495963 -0.050844207 0.103968665 -0.055824913 0.074296646 -0.06762367 0.105136245 -0.022819577 -0.038460784 -0.062760524 -0.10277031 0.0663065 0.029725928 -0.11821275 0.109493025 -0.050026465 0.045429774 0.09400377 0.068473354 -0.099225536 0.0439538 0.031840477 0.10261523 -0.010776767 0.045697447 -0.062100925 0.11820892 0.06324658 0.08732426 0.08009778 0.03813344 0.09246384 -0.106795944 -0.06542637 0.0818816 0.04216648 -0.11124035 -0.07239951 0.08405963 0.10231192 -0.08984381 -0.07968097 0.042074036 0.05703178 0.083056636 0.05803937 -0.005310947 0.04775477 0.10357747 0.025013046 -0.047738593 -0.07045127 0.055357788 -0.06634401 -0.030281235 0.042549305 -0.03227408 -0.012872395 0.07895289 0.047371097 -0.033018846 -0.04551377 -0.046176385 0.071544036 0.08931764 -0.06760225 0.10037727 0.05037124 0.11527837 0.09229172 -0.011321387 -0.114042506 -0.05406657 0.07656013 0.078148395 0.037714627 0.108952075 0.021649608 -0.042466506 0.10090262 -0.09005771 0.09539022 0.05778601 0.1022657 0.024969723 0.032330643 -0.016804347 -0.06453802 -0.09985212 0.034719378 -0.050180458 -0.05049469 0.094784446 0.1094491 -0.08374453 -0.0048670527 0.025257923 -0.043855358 0.028966771 -0.047328822 -0.09766443 0.08699863 -0.03347897 -0.108872436 -0.044787195 0.06324901 -0.0506162 -0.059330728 0.09860863 0.038454544 -0.024812369 0.0681751 0.03716766 0.053120825 -0.06668513 -0.08419592 -0.0330182 0.07899871 0.03231527 0.050513014 -0.064968415 -0.104188226 -0.03587197 -0.035740163 0.10402846 -0.036084287 -0.054335397 -0.085699305 0.032269236 -0.07193832 0.092203446 0.100827225 0.07677452 0.06108862 0.07185788 0.11695982 -0.056645695 0.0964805 -0.036906194 -0.104447044 -0.009771818 0.063240126 -0.06093211 0.09206974 -0.06744512 -0.08969431 0.05022979 0.1092681 0.049934383 0.106100276 0.0054392745 0.106994905 -0.09323502 -0.110809386 0.094137736 -0.07889038 -0.09910507 0.037917625 0.07479074 0.07503474 -0.11477728 0.1002845 0.031529162 -0.110555686 0.05349683 0.021458631 0.06944574 0.09306322 -0.11663779 -0.063577324 -0.08375427 0.040106125 -0.080692515 -0.005116579 -0.11012069 -0.05511765 0.10044943 0.06767701 -0.066841215 -0.06874328 0.04223367 0.065005325 0.02279181 0.0992175 -0.11099873 0.051145315 0.03525599 -0.03467625 0.054875307 0.02414019 -0.047593553 -0.047725376 -0.004853068 -0.08562934 0.058707487 -0.011012656 0.08681249 -0.06180399 0.052121095 0.08217248 -0.025296448 0.10066544 0.030358184 0.08112563 0.09572019 -0.06540593 -0.077221125 -0.09540495 -0.09101717 0.032970518 -0.05492028 0.08786082 -0.035018124 -0.10310709 0.0782295 0.06793861 0.09867613 -0.025888858 0.047840334 0.039986365 -0.08676692 0.04893174 -0.08698721 -0.10524283 0.07762733 0.027847255 0.06429116 -0.032016058 -0.040893205 0.08229902 -0.117563464 0.05301394 0.110993914 -0.0783084 -0.08673621 -0.101970285 -0.10701684 0.067042544 -0.06104282 0.05247843 -0.026416969 -0.07297 0.09502197 0.09911106 -0.028840035 -0.11721929 0.055077795 -0.07880692 0.09190071 0.028046949 0.068415835 0.10995495 0.030221816 -0.073091246 -0.092419505 -0.011019183 0.09998841 0.065971725 0.07777033 0.105156325 0.087521516 -0.08702918 -0.08563388 -0.07242414 -0.08548082 -0.06497014 0.026715849 0.041813675 -0.057308562 0.100807965 -0.09115712 -0.0630445 -0.09699684 -0.116233796 -0.061602283 0.023416976 -0.11029895 -0.08845249 0.07653023 0.11199731 -0.11261279 0.08820786 0.057598475 -0.08730656 0.0097426595 -0.05193407 -0.08839132 0.09027255 0.026403926 0.05750612 -0.089061774 0.06227713 0.08074134 -0.0065556355 -0.081862375 0.098566145 -0.033272963 -0.051660523 0.10885713 0.07878498 0.046563704 -0.028567787 -0.046271667 -0.072081484 -0.06839722 -0.09418671 -0.10502636 -0.120307356 0.0034638355 0.029866884 0.11582624 -0.040469334 0.08483735 -0.11619317 0.11405046 -0.09317629 0.040487994 0.05410611 -0.10833326 0.042137794 0.11067839 -0.095412694 0.01879604 0.051695775 0.08937362 -0.04156146 0.069683485 -0.018338334 -0.0758689 0.10207616 -0.10105776 0.059016753 -0.058359765 0.11600887 0.07987055 -0.079040594 -0.08284527 -0.1137123 0.050734382 -0.05315394 -0.07978354 -0.09088228 -0.111739725 -0.039722115 0.059842773 -0.1018762 0.027805615 0.08126409 0.05635593 0.11977911 -0.018985739 -0.022749992 -0.06113251 -0.058853354 0.0343982 0.021677341 0.07194101 -0.097369194 0.11694814 0.060230155 -0.022059757 -0.03355078 0.06860732 0.04115089 -0.05009502 -0.11337132 0.046937365
tc -0.031251643 -0.046135474 0.008997303 0.055888206 -0.036508575 -0.016602783 0.009944678 -0.010940079 0.018492509 0.05238718 0.024055148 0.023000134 -0.020949833 -0.040326513 -0.010676632 -0.022988424 -0.024497978 0.019550962 -0.045658678 0.023568831 -0.06020172 0.058049995 0.007894248 0.011304487 0.024559045 -0.01697494 0.061802924 0.024355164 -0.06687952 0.02001168 -0.0030143168 0.011599099 -0.015044297 0.01854761 0.060643777 0.04817863 0.061129298 0.010691132 -0.034886 0.05290194 -0.029789178 -0.06904231 -0.016823506 0.060709953 0.027017646 -0.023921208 -0.024648918 -0.00874606 0.012411344 0.0073640593 0.036459126 -0.02852148 -0.021118846 0.0504149 0.00044034744 0.0050697825 -0.018064503 0.06245844 -0.044642814 -0.017152643 -0.0011587769 -0.003909675 0.010355025 0.052170794 -0.0182342 -0.06501419 -0.010729989 -0.06399493 0.042364765 -0.010321989 -0.04399488 0.026813343 0.049869508 0.016195102 -0.01459782 0.03626706 -0.027986255 0.011752762 -0.026228737 0.05435874 -0.0072336937 0.016230935 0.032074332 0.009870655 -0.022731839 0.026438404 0.0607077 0.010052658 0.06619501 0.02560045 -0.01564934 0.019419655 -0.023797803 0.0034510468 0.022869246 0.026147438 -0.06429329 0.069983736 -0.009824418 -0.05464279 -0.02023734 0.0022046182 -0.012590348 0.028406482 -0.009784909 0.01674738 -0.02474417 -0.012456368 -0.0038879956 0.01242494 -0.007836778 -0.047703248 -0.054162316 0.009163673 0.040912993 -0.054914802 0.009839984 0.038511243 0.06823412 0.026937714 -0.047391552 0.011359627 -0.0073815477 0.033144925 -0.026242198 -0.06359903 0.028510515 -0.011519799 -0.04486238 0.04177463 -0.0623335 -0.060846817 -0.0615488 0.009201272 -0.033235814 0.005657283 0.017411076 0.04635882 0.034257382 0.008023069 0.04177023 0.0048342803 0.011300657 -0.06687317 -0.06374194 0.020999964 0.013892288 -0.035552237 0.06755879 -0.0034702888 -0.037810083 -0.0207197 -0.026487892 1.6150705e-05 -0.011199996 -0.02512256 0.051458642 0.0070018666 -0.06787744 -0.02696192 -0.029030096 -0.029514989 -0.021609074 -0.000994011 0.0581498 0.012396103 -0.018565377 -0.023706181 -0.024005534 0.038590048 0.06890639 0.0015058331 -0.011240736 -0.0054117534 -0.0117311925 -0.030124322 0.005244981 0.0049566515 -0.05053449 -0.030415554 -0.06090949 0.018545134 -0.012207661 -0.066030264 0.015465459 0.019498445 0.026773209 -0.014723768 0.065540135 -0.017526882 0.05433858 -0.006421445 -0.059647083 0.004633084 0.05895594 -0.009526005 -0.020320442 -0.05609053 -0.0525527 0.048796784 -0.0125803845 0.049087964 -0.03001488 0.00486826 0.052355736 -0.035971984 -0.024983417 0.038718674 -0.0069009885 0.006516062 0.010204184 -0.031609915 -0.038238224 0.0062186704 0.057712354 0.0143883005 0.017169459 -0.04861153 0.013518109 0.010270517 0.022940272 0.025286328 -0.01871407 -0.00949244 0.038819842 -0.05387801 0.0055242707 0.011523892 -0.039837323 0.040060654 0.06969092 -0.021564273 -0.047512334 -0.059128933 -0.024117937 -0.052522615 0.030106874 -0.004296267 0.0011028348 -0.044372167 0.0036795114 -0.0502373 0.062693425 -0.03789953 0.043404676 -0.027570648 -0.0020364716 0.017246632 0.008448668 -0.06263763 -0.015600209 0.032077294 -0.039699044 0.025236119 0.027901279 0.023361452 0.006046437 0.061564196 0.006230329 -0.011461005 -0.028244209 -0.018991502 0.029111393 0.032666963 0.062134545 -0.000114026996 0.006990653 -0.018807026 -0.0641355 0.00094821013 -0.058715176 -0.021528285 0.016771093 -0.041745577 -0.026554039 -0.016078457 -0.065021016 -0.008601098 -0.036747776 -0.016968857 -0.0028189223 0.026673649 -0.054822955 -0.017908353 0.015555455 -0.05068182 0.042519964 -0.0127299335 -0.06801041 0.009156642 -0.012264317 -0.014057657 0.0035593326 -0.015273299 0.048326444 0.026442539 0.051724374 0.0020077971 0.010825484 -0.00087467633 0.016533181 -0.061951105 -0.013655485 0.055174217 -0.019288221 0.010060933 -0.03622604 -0.0053260373 -0.056508776 -0.058119882 -0.015152163 -0.07095914 -0.005679938 0.0051276316 0.012852347 0.038057514 -0.04469077 0.0149604585 -0.05897687 0.048559748 0.0040796725 0.04089728 -0.014756904 0.008816855 0.04278658 0.024894683 -0.0028638737 0.03567949 0.036063954 0.03471897 -0.06758127 0.0121482685 -0.03445253 -0.054646462 0.06751488 -0.024308532 0.0048613567 -0.047302783 3.9349106e-07 0.03232907 0.011283676 0.004710558 0.007274752 0.058431253 0.016585875 -0.017216403 -0.06334534 -0.04644796 -0.053935576 0.03052065 -0.057485934 0.038427748 0.04510826 0.009577839 -0.0051007387 0.025732206 0.009242292 -0.016442701 -0.027042862 0.06040767 -0.014195041 0.005291133 -0.06404115 -0.016090887 0.026246397 -0.070604905 -0.005176887 0.009933109 0.013901321 -0.017937476 -0.012067689 -0.016957788
ca -0.017128143 -0.016468761 -0.018520186 0.021262668 -0.052301038 -0.03336674 0.00437884 -0.038821056 -0.010014046 -0.03333207 -0.012926809 0.019888345 0.037657928 -0.053201724 -0.011768855 0.00055401586 -0.008734019 0.040997934 -0.04526668 0.050291426 0.009740518 -0.024106614 0.006808395 -0.0043218187 -0.046839494 -0.022633307 0.046321556 0.036178596 -0.02619298 -0.0016303186 -0.00059381884 0.03372306 -0.014347035 0.027666135 -0.015040201 -0.030810822 -0.0063383086 0.027615111 0.01447853 -0.012539459 0.010384548 -0.054714225 -0.02252534 0.028037125 -0.012470147 -0.028300172 0.009526213 0.041051973 -0.042530634 0.015767101 0.036722723 -0.0057367035 0.0295419 0.008936711 0.024746045 -0.018542435 0.009342575 0.04042303 -0.026888797 -0.028911455 -0.0011254613 -0.0012867728 -0.02718419 0.0135716675 0.0557303 0.034680627 -0.018975766 0.017456204 0.026850713 0.01769458 -0.054692514 -0.025748396 0.0056729754 0.042778496 -0.04134967 -0.015223106 0.011067826 -0.030371679 0.04009008 -0.020863662 0.030643523 -0.041675918 0.03502782 0.03000819 0.053907707 0.008257168 0.0016032204 -0.01275839 0.040797498 -0.012806471 -0.0063078217 -0.037799306 -0.029009713 0.03853875 -0.03621725 -0.024332464 -0.043847576 -0.007643191 0.01828333 0.014759283 0.038408983 0.0029058876 0.008520743 -0.030822037 -0.017985411 0.030542012 0.0081875585 0.014943259 0.023872187 -0.04607569 -0.003921535 0.029240932 -0.053427536 0.03329742 0.0050101597 -0.03575974 0.05370164 0.047501273 -0.0146723185 -0.0014030228 0.012318542 -0.018088592 0.04724276 -0.027862517 -0.021029439 0.010263336 -0.03417494 0.018679202 0.0032870346 -0.0002851677 0.022957101 0.032837186 0.013616905 0.012429547 0.04159528 0.00078669965 0.021107133 -0.021019027 0.052094337 -0.019602703 0.025595345 0.024964085 -0.022926375 -0.044611417 -0.052819267 0.01851974 0.01146617 -0.013088183 0.036454882 0.0396682 0.029216053 -0.03221808 0.03958448 -0.03324991 -0.007483881 0.03134508 0.056126077 0.0015648282 -0.051610187 -0.014488976 0.038517773 -0.024459038 0.035361502 0.05250315 -0.02619896 0.004053861 0.05185398 -0.021552512 -0.048645265 0.036755126 -0.03813447 -0.023646556 0.00093714276 0.029409826 -0.013761076 -0.025295965 -0.03253253 0.029704269 -0.012187451 -0.0101274885 0.03257326 0.03174411 -0.013923146 -0.028249124 -0.048074737 0.0089502325 -0.017586093 0.055151355 -0.029538812 -0.05627199 0.020920573 -0.0025138329 -0.01687074 -0.012592787 0.017840637 -0.046612225 -0.028344471 -0.012948903 0.028019503 -0.030662533 -0.0048322026 0.04429251 -0.001194452 0.05286032 0.020969657 0.01822878 -0.0038202447 0.006247822 0.0042519853 -0.0037700082 0.007701444 -0.031123312 -0.0037993724 -0.028939506 0.038689505 -0.011184857 -0.03548649 -0.011230286 0.008093546 -0.013550442 0.03854858 -0.030861165 0.037442323 0.010928391 -0.025955465 -0.04819712 0.037681278 -0.03466915 -0.0290836 0.05016906 0.016045274 -0.04110246 -0.056129433 -0.033515472 -0.022115355 -0.018429773 0.04662144 -0.026194751 0.026236145 0.0013540074 0.022374334 0.022025649 0.04159293 -0.03986553 0.038835708 -0.014844864 -0.016032064 0.018704815 0.0022205 -0.04184451 0.027066316 0.015711963 0.039638605 0.0058374763 0.014045179 0.04366598 -0.0039514764 -0.023018682 -0.0052267886 -0.054500923 -0.055161785 0.009866244 0.034470864 0.004148437 0.05060037 0.02678835 0.028200585 -0.030728342 -0.023737632 -0.005421479 0.007609974 -0.0030299774 0.011878103 0.0023000406 -0.03605948 0.012198219 -0.014304685 -0.054990735 0.0039163884 0.021819098 -0.042602543 0.022272112 -0.03396945 0.030033413 0.048905045 9.078026e-05 0.040283848 -0.024074951 0.012747908 -0.0041055884 0.014265539 0.03742437 0.040504023 -0.017339416 0.046996333 -0.005999658 0.021457035 0.02174807 -0.02671715 -0.05229326 0.029055512 -0.047440313 0.03730905 -0.018922497 0.030975603 0.031573933 0.022075804 0.035911877 -0.03726145 -0.028878221 -0.012924587 0.02157488 -0.040062636 -0.0019278906 0.012247517 0.020244636 0.035276376 0.013986866 -0.020211449 0.032996677 -0.03449244 0.008168122 -0.026530191 -0.042116757 -0.029020747 -0.040750578 -0.052193053 0.014589509 -0.02227286 -0.012043862 -0.013396661 0.026830245 -0.016058177 -0.005754213 0.010752575 0.0171438 -0.023623234 0.04260621 -0.021227563 0.048187964 -0.049992636 -0.023752797 -0.0139818825 0.01936777 0.039880607 -0.045220423 -0.050201558 0.010618034 0.017623369 0.007826174 -0.04433901 -0.039185558 -0.025218673 -0.026346575 0.01493663 -0.0041280864 -0.050491665 0.028450591 -0.056494955 -0.0017438206 0.026913518 0.047380872 0.04219897 -0.033185914 -0.011579091 -0.039457705 -0.049519725 0.010173052 -0.03667355 0.041941006 0.03124896 -0.02831408
a -0.109639324 -0.03645123 -0.085890085 0.08404805 -0.030826716 -0.10200215 -0.091253676 0.073925436 -0.0777194 0.031114774 -0.04238491 0.017688641 -0.09439112 -0.11534119 -0.067323186 -0.07003601 0.041305862 0.07058097 -0.06629274 0.03203857 -0.061596792 0.039613474 0.07313047 0.075136125 -0.022564786 0.100326866 0.07494939 0.08902929 -0.053937238 0.08203699 -0.058706127 0.048783533 0.10643515 0.07176216 0.11261393 0.055980332 0.08889403 -0.07705086 -0.09665124 0.11315888 0.03071514 -0.0710469 -0.088669874 0.046188943 0.044446014 -0.07116743 -0.0040853354 0.099789776 0.10068355 0.103266925 0.073550634 -0.06050125 0.05826582 0.11651835 0.09093563 -0.03085122 -0.091274545 0.11204723 -0.097860105 -0.07484286 0.013080317 -0.06875 -0.044119157 0.042232238 0.086481914 -0.094115 -0.027696865 -0.08681862 0.0918792 0.085365154 -0.0041507985 0.075977065 0.04372208 0.092512205 0.091708206 0.04804259 -0.03521187 -0.09138515 0.07244765 0.050442442 0.06158326 0.10605701 0.018290378 -0.048772417 0.08457633 -0.077083535 0.083392546 0.039050747 0.040466037 0.095801 0.08677796 -0.064550884 -0.107137896 -0.10269616 0.08703395 -0.10524917 -0.024252474 0.10095555 0.10781047 -0.076954626 -0.081070244 0.06686071 -0.10495048 0.05510406 -0.044285823 -0.0774633 0.10160141 -0.09848984 -0.045206897 -0.041814297 0.10537311 -0.11623082 -0.10264948 0.09474595 0.105656445 -0.05897941 0.04111604 0.090480536 0.11726732 -0.031101793 -0.015358496 -0.09014633 0.02736642 0.030535335 0.007959769 -0.10830892 -0.08799754 -0.11422082 -0.04908059 0.061478633 -0.038379163 -0.077938005 -0.042257603 0.03425994 -0.04425651 0.05773638 0.07062333 0.062642515 0.102271676 0.052590508 0.0679862 -0.048429716 0.08064567 -0.10646546 -0.114102095 -0.02911221 0.03529982 -0.06278616 0.048793115 -0.11254372 -0.06224257 0.09783042 0.094506584 0.09723479 0.086409666 0.07375858 0.02805535 -0.11270813 -0.069507614 0.05028807 -0.049241092 -0.09575724 0.07038907 0.10260165 0.091931485 -0.03781016 0.048329733 0.09680584 -0.07913499 0.07088327 0.094661154 0.073601015 0.057241395 -0.09610408 -0.114087574 -0.014020502 0.11307893 -0.099111035 -0.09396608 -0.10890196 -0.054497328 0.048079796 0.07151685 -0.061520495 -0.038223572 0.04720088 0.083586454 0.019351773 0.026697306 -0.080876164 0.08990022 0.0772426 -0.07503872 0.043483645 0.033494323 -0.066754274 -0.043859065 -0.09232895 -0.06081807 0.030513741 -0.018068373 0.028513256 -0.085570134 0.062560245 0.089421086 -0.11889111 0.05362715 0.037456613 0.08842551 0.051895276 -0.026948528 -0.07369663 -0.031457495 -0.026027748 0.054199807 -0.06630954 0.027997613 -0.07110338 -0.038925245 0.10146571 0.115183175 0.008397321 -0.016057966 0.061929096 0.08488121 -0.04228067 0.085548826 -0.06800149 -0.07347305 0.045303505 0.041554272 0.06844446 -0.07767128 -0.051411033 0.03157752 -0.06818461 0.05796767 0.024627969 -0.0874686 -0.08088052 -0.011482122 -0.07980307 0.10994714 -0.09763446 0.060433928 -0.09502194 -0.10882597 0.10548326 0.019204149 -0.04442465 -0.051764596 0.10295731 -0.0582748 0.021504795 0.020438666 0.112893574 0.020006156 0.0556145 -0.009092351 0.0085653225 -0.09726379 0.056328524 0.09336114 0.10951063 0.1028588 0.07977634 -0.106290765 -0.07304567 -0.071593516 -0.090544306 -0.11558129 0.080765374 0.09259316 -0.08852222 0.10275922 -0.09197449 -0.10284048 -0.07279336 -0.044543125 -0.06385169 0.02989762 -0.07708462 -0.1022446 0.030069176 0.02783335 -0.07531305 0.07000904 0.055400934 -0.015635986 0.065194406 -0.09062158 -0.10930723 0.060499452 0.018909805 0.10691287 -0.022335704 0.049347766 0.064820655 -0.034425147 -0.020502558 0.017983578 -0.073367864 -0.08094168 0.016632734 0.09750134 0.03115434 -0.016997248 -0.034921523 -0.06326182 -0.0580529 -0.06518337 -0.09272691 -0.02605836 0.05948706 0.073218234 0.055924308 -0.030956713 0.07304142 -0.108242355 0.083824076 -0.08694593 0.07270424 0.113309935 -0.03737204 0.048109315 0.05902733 -0.043727577 0.080122784 0.0102671385 0.058132447 -0.09377446 0.106898375 -0.08603328 -0.10797416 0.08294751 -0.03469882 0.033473708 -0.08362231 0.09190624 0.06952051 -0.020173738 -0.054215744 -0.05664319 0.018760601 -0.07400808 -0.049001034 -0.04546342 -0.049462326 -0.105413005 0.07765276 -0.059721686 0.026770914 0.07102187 0.09001264 0.0918954 -0.059983563 -0.112854086 -0.089063294 -0.036923047 0.080614805 0.05767125 0.062989704 -0.090683214 0.1066612 0.117099896 -0.033892587 -0.05526118 0.05634537 0.097066365 -0.07291776 -0.043766156 0.07956224
ag 0.047675658 -0.0047504194 0.0055413954 -0.048371006 -0.04864135 0.01766887 0.023023453 0.041154433 0.005209051 0.019315016 -0.029136693 -0.016236901 -0.04295994 -0.020748997 0.039306108 -0.0116091 -0.027893735 0.0057608113 0.040219318 -0.039883353 -0.0066186897 0.008577108 0.03630871 -0.037239052 0.036901426 0.009605359 0.015540902 -0.03459232 0.048560563 0.04738084 -0.044564556 -0.0268587 0.037674416 -0.031531632 0.023696031 0.04527544 0.002539087 -0.033478536 0.04467077 0.023907986 -0.030683612 0.018191542 -0.00082538277 0.046483148 0.04196007 0.0089073405 -0.024178578 -0.012283884 -0.02223196 0.01073388 0.023125712 -0.004186891 -0.011893749 0.0036675707 -0.0142663345 -0.0035050139 0.009168781 -0.044746544 -0.002401542 -0.02974366 -0.02951244 -0.048646737 0.033891905 0.04624525 -0.033411227 -0.014533363 0.002118729 0.006060183 -0.020464266 -0.049432456 -0.0033084266 0.008005511 0.009991549 -0.011054955 -0.039466154 -0.03300573 0.014337432 0.013866473 -0.015303362 0.012598049 -0.023985792 -0.019810665 0.03466041 0.0039738193 -0.008816291 0.042460296 -0.02489462 -0.041990448 -0.03820566 0.024224866 -0.026653623 -0.04573859 -0.028787864 0.017949346 0.00368426 -0.043263663 0.046817314 -0.045599904 0.0030996688 -0.02048322 -0.044406272 -0.0070321336 -0.017853726 0.040696595 -0.031441547 -0.030378044 -0.003050696 -0.019685686 0.009496104 -0.02176324 0.040714744 -0.015372872 -0.00417161 0.0046270117 0.018031206 0.012244783 0.0028603077 0.0015308484 -0.042101525 -0.018356215 0.034635905 0.0022761822 0.042998645 -0.043483462 -0.01689116 0.035043065 0.0009595044 0.010925461 -0.033281673 0.03125162 0.01051458 -0.023488952 0.008106925 -0.03184183 -0.009776175 -0.035287477 0.038693715 -0.030521417 0.017338905 0.0048497096 0.015736151 0.03052194 -0.036163796 0.00615089 -0.020885801 -0.02146008 -0.01818614 -0.0151565075 -0.009257805 0.01947483 0.01827136 -0.005901672 0.012895193 -0.026085878 -0.010832809 0.046228494 -0.048172858 -0.04062625 0.048801605 -0.04279039 -0.039447714 -0.03976748 0.017314937 0.038759697 -0.028765215 -0.022534836 -0.0052835345 0.030807886 0.035902325 0.03024919 0.03819683 0.008615781 0.0025028214 0.03611355 -0.011328258 -0.030954862 0.0058936253 -0.029779399 0.0118966475 -0.022348344 -0.018107332 -0.0061606765 -0.0036021955 0.029130314 0.018621806 0.0058652274 0.033939186 -0.011862181 0.03287187 0.010170616 -0.037172295 0.02024256 0.010142017 -0.024253035 -0.014206611 0.04149269 0.046147812 0.013748813 0.022949066 -0.0027030595 -0.036350977 0.006996762 -0.024028445 -0.023726596 -0.035400786 0.0032513961 0.016237687 -0.018055212 -0.025889004 0.0484324 -0.005556047 -0.013966359 -0.002881743 -0.0349404 0.031598244 0.009014834 0.0034554005 0.02492905 0.044233236 -0.01955129 0.012562934 0.0058504567 0.02575839 -0.048015833 0.041570965 -0.014154792 0.007674016 0.0072558895 -0.028578151 0.048927937 0.021964852 0.031800542 -0.013314225 -0.041472983 0.04591384 0.007880222 -0.031272374 0.04104301 0.029958013 0.015442822 -0.029740859 0.039473984 0.04499117 -0.015114427 0.012986992 -0.013635062 0.03631622 0.02583604 0.0073085055 -0.006858766 -0.027066445 0.03249668 0.0066449046 0.03610946 0.003336262 0.04159036 0.006599523 -0.032880723 -0.005334772 0.0107463375 -0.02959981 0.032157924 -0.019194722 -0.038318418 0.03493407 -0.01845505 0.037977587 -0.039003015 -0.04960488 -0.015859365 0.044449735 -0.028415872 -0.0383042 0.041521225 -0.014996566 -0.024593938 -0.04425434 -0.04717616 0.019441579 0.014531102 0.017220024 0.009536743 -0.03496051 0.042451527 -0.0022405759 -0.0459867 0.015207138 0.038751926 0.0080296025 -0.017621279 -0.0052131526 0.036257792 0.042019833 0.01969165 -0.04334085 0.014421377 -0.013617776 0.019433986 -0.008854389 0.023719635 -0.0038234703 -0.0012609586 0.013171945 0.030412767 -0.030624712 0.021820989 -0.0063469186 0.03241146 0.01773629 -0.024011374 -0.018793 -0.043070663 0.04916468 -0.0027739778 0.013477039 -0.023195792 -0.019064857 0.023156945 -0.009215631 0.042440917 0.029222872 -0.015668057 -0.027451802 -0.0014560446 -0.047092795 -0.049519982 -0.0033353195 -0.040611852 -0.020264149 0.029105607 -0.00544405 0.024320964 -0.020413054 -0.017941762 -0.014876865 -0.042227924 -0.04972973 0.039850567 0.024569582 -0.042481888 -0.046923578 0.033584442 -0.010001183 0.015926074 0.03931396 -0.03588637 -0.04722599 -0.018714368 0.03413539 0.042786013 0.034775484 -0.038312294 0.009648312 -0.031818546 -0.01985066 -0.034491897 -0.029207576 0.020814452 0.013366926 0.015922416 0.0063660257 -0.02091316 0.021641884 0.008227505 -0.013158798 -0.009140693 -0.004627418 -0.030315554 -0.00938306 0.015365768 0.009736858 -0.04621477
