25 372
ag -0.04037677 0.10062139 -0.01720703 -0.080994524 -0.074591585 0.08723987 0.016934954 0.08449124 -0.05057869 0.095178716 -0.12109456 -0.101473816 -0.05245196 0.038568668 0.03387493 -0.0677949 -0.009721828 -0.10778713 0.041057277 0.04097577 -0.09460426 0.063569576 -0.03915652 -0.042376854 -0.0867574 -0.049198795 0.034870468 -0.099995516 -0.0415297 0.032053445 -0.004227478 0.035917096 -0.07942609 0.03224203 -0.08076038 0.039977167 0.07678363 -0.11492355 0.048465572 0.1121118 0.0031572678 0.086613506 0.08639392 -0.08859267 0.10496708 -0.06406943 0.08672766 -0.06782721 -0.064462334 0.049239825 0.049948573 0.06710841 0.10743541 -0.008156996 -0.05000677 -0.07445681 0.070281446 -0.054852903 -0.10271595 0.08582077 -0.065738 -0.024932835 -0.05083688 0.055955995 -0.1013364 0.066076756 -0.088283665 0.09892153 0.0571267 0.058203213 0.076648 0.06579482 0.11602871 -0.08601499 -0.021639623 0.09153153 -0.027894119 0.012215007 -0.06473965 0.07281053 -0.070355356 0.10973945 0.056556776 -0.034586567 0.06821174 0.06504849 0.06960124 0.02888202 0.04038547 -0.09627297 0.015886128 -0.03301393 0.03990595 0.10534369 -0.02875303 -0.048435185 -0.044845708 -0.069383964 0.03896844 0.11498082 0.0433355 0.09455608 0.07546631 -0.0037482728 -0.064426124 0.040326465 0.012580345 0.105081506 0.045545332 -0.016987791 0.0733115 0.036527444 0.043921776 0.07914559 -0.057757724 -0.113069795 0.075545974 -0.11215854 -0.036824778 0.099845745 -0.06421258 -0.0075416784 0.048770715 -0.06343951 -0.07806582 0.08598485 -0.09927095 0.04339351 -0.114039846 -0.010052364 0.01804595 0.0035582546 -0.043157715 -0.10918664 -0.008669598 -0.020065643 0.018911518 0.0794451 0.03723576 0.036142867 -0.076249644 -0.117076255 0.10454782 -0.08419265 -0.06442939 -0.03508236 0.071542345 -0.08922188 0.105454475 0.076742396 0.041625213 0.027203903 0.031592753 0.0020524121 0.086046785 0.0799132 -0.034010764 0.045025576 -0.07411429 -0.056904018 0.02293365 0.09936451 0.040284537 -0.07358781 -0.07500694 0.07956328 -0.031397447 0.03771322 -0.043087926 -0.072599046 0.038767822 -0.070752054 0.08618192 -0.056459613 -0.05620791 0.10280355 -0.053397823 0.08493131 0.035042934 -0.09735534 -0.08562044 0.0035279382 0.03297689 0.057231147 -0.06457463 0.046366528 -0.072287455 0.096873626 -0.045624774 -0.04697676 0.020605443 -0.019317368 0.035532262 0.014206328 0.0010645089 -0.034325298 -0.013624918 -0.033233374 0.037105564 0.052353937 -0.012616185 0.110527724 0.023880208 0.024251701 0.11291172 0.055145185 -0.058300324 0.056030013 0.008648055 0.0057529416 -0.11807406 -0.0819649 0.0616652 0.08428814 0.10087953 -0.11064241 -0.09167735 -0.0761037 0.008435775 0.04043119 -0.03631981 -0.03725677 0.08895012 -0.07287381 -0.059487786 0.024003228 -0.1131571 -0.08526098 0.0649628 -0.03721226 -0.11028544 -0.05105396 -0.123813674 0.05596879 0.044627924 -0.021421624 -0.08537138 0.05405512 0.07864894 0.11240864 -0.030651115 -0.010981173 0.043034934 -0.086715005 0.07185206 0.046267036 -0.04612856 -0.06513688 0.034701332 0.074030995 -0.08707222 0.023715915 -0.09784576 0.11280753 -0.105021216 -0.090353884 0.08294862 0.08677402 0.04031081 -0.013394368 -0.028696887 0.0769832 -0.09902259 0.08439722 -0.08917233 0.036196858 -0.07221908 -0.06556868 -0.07527498 0.02730631 -0.045148835 -0.033024997 0.09847412 0.012276523 0.05425823 0.08422418 -0.11385691 -0.02383828 0.023577094 0.034561995 -0.013372884 -0.10934176 -0.05037998 -0.103401855 0.09315881 0.04781052 -0.046018228 -0.05378907 -0.08292185 0.043264665 -0.07458142 -0.11891611 -0.066513516 -0.053895015 -0.027960273 -0.015667278 -0.013359988 -0.09748854 0.032192063 0.10391276 0.06264361 0.055762116 0.060721084 0.033883344 0.04081342 0.02562267 -0.045454625 -0.059266817 0.035290543 -0.056878433 0.04279598 -0.052464638 -0.10639699 -0.051821835 -0.08917861 0.07068548 0.052549347 -0.035414513 -0.08449976 0.013819883 0.06399527 0.0689324 0.010412392 -0.016111406 0.0791039 0.040709283 0.010379932 0.047255833 0.09129552 -0.09211513 -0.057692017 0.08844071 -0.01427543 0.11450365 -0.033447023 -0.035759445 -0.009778475 -0.081748545 -0.035044048 -0.095091544 0.06713079 0.12473611 0.05148826 0.046760976 -0.030317083 0.082928695 0.04523119 -0.020363584 0.02564913 0.029716512 -0.022207538 -0.07514883 -0.054287802 -0.012748372 -0.08534155 0.014097894 0.057163194 -0.056492396 -0.048408978 0.05005466 0.04061418 -0.011788152 -0.00095760264 0.115822054 0.07606037 -0.060818225 -0.05755014 -0.037215095 0.06892364 -0.030963782 -0.08195384 -0.08018308
ta -0.11561239 0.107472345 -0.035076875 -0.08435401 -0.0436871 0.06501221 0.034484137 0.0133039355 -0.046061374 0.081814244 -0.05779406 -0.08343435 0.02082974 0.06440412 0.073092915 -0.034277324 -0.0787424 -0.06128015 0.042185735 0.097190134 -0.10937804 0.07260845 -0.10181227 -0.025942007 -0.047393247 -0.04870711 -0.108731575 -0.077330925 -0.059834458 0.013510579 -0.071026675 0.13022575 -0.11376937 -0.0019711435 -0.115747236 0.020423012 0.003384182 -0.026847575 0.047877617 0.11008354 0.101068765 -0.040494837 0.12349904 -0.01960922 0.081800655 -0.015561409 0.115336984 -0.08833613 -0.12969185 0.07746871 0.0162303 -0.06875737 0.11900307 -0.04571518 0.0008107177 -0.08864064 0.12557109 -0.0987634 -0.018813848 0.017306764 0.0039964924 -0.05567937 -0.14684843 0.1343176 -0.1416276 0.05832606 -0.059375126 0.043551512 0.10737872 -0.028981231 0.08681574 0.14495666 0.061446954 -0.101790845 -0.015078473 0.09707692 -0.073002 0.049293123 -0.09799728 0.11616689 -0.14664525 0.11139267 0.13375182 -0.063496746 0.029811172 0.13313945 0.11508093 0.13668488 -0.0025555114 -0.01322877 0.06679925 -0.042147454 0.09985657 0.078008346 -0.029600827 -0.04805765 -0.11742664 -0.019693928 -0.042076252 0.09330263 0.0765092 0.059545655 0.060936563 0.027861627 -0.041599456 0.102629624 -0.00059333694 0.13426033 0.090155415 -0.055464678 0.052635927 0.032780018 0.08251772 0.028797945 0.02555824 -0.06403637 0.1410661 -0.09944843 -0.052319158 0.06281822 -0.0307725 -0.07660471 0.03963526 -0.047916465 -0.03837903 0.012476463 -0.05091707 0.07971988 -0.04393594 -0.07243349 -0.008352104 0.040163748 -0.13244058 -0.06207059 0.0019831848 -0.053098027 0.010602679 -0.025174437 0.078055635 0.02863593 -0.092236534 -0.13241911 0.03598223 -0.08666746 -0.08629322 0.0015086201 0.099232934 -0.12294638 0.08638692 0.07152992 0.0778856 0.046535414 0.09432183 0.069141835 0.00428268 -0.03786893 -0.05270458 0.025716808 -0.03385553 -0.09200034 0.0843665 0.12889734 0.13186376 -0.036251575 -0.10209598 0.12731808 0.0044480558 0.14038879 -0.044614285 -0.022570824 0.0582285 -0.087782495 0.04452218 -0.0011415317 -0.020096375 0.04993452 -0.0839921 0.050732993 0.06813689 -0.113231964 -0.12574579 0.059928983 0.08470407 0.060694203 -0.07999218 0.10844741 -0.1490515 0.06773724 0.021637902 -0.0673871 0.07040346 -0.040543616 0.051554386 0.044099323 0.03047736 -0.07332121 -0.04829904 -0.009771957 -0.03031054 0.03329298 -0.05093875 0.056092896 0.053575885 0.021852363 0.100643165 0.055892374 0.015027037 0.024259204 -0.08002293 0.077493064 -0.086702205 -0.032556962 0.06452946 -0.018468976 0.0937331 -0.052824806 -0.12086347 -0.1349484 0.007585589 -0.03262722 -0.049917765 -0.114535496 0.12374911 -0.0020563188 0.029180162 0.066335775 -0.121151745 -0.08397625 0.0846509 -0.065338545 -0.052699864 -0.041712817 -0.08828594 0.06628822 0.056856878 -0.0692387 -0.060411938 -0.0045285025 0.067208335 0.10574864 -0.10275668 -0.077603 0.1225639 -0.14833808 -0.0056923945 0.08667201 -0.089623995 -0.022741353 0.049901135 0.056533646 -0.13278161 0.09879298 -0.10397379 0.036207598 -0.1403626 -0.13025637 0.0515769 0.066655725 0.029924653 -0.08662738 -0.07876412 0.069176435 -0.026173394 0.13332051 -0.031577636 0.010434664 -0.05370574 -0.069226325 -0.050839808 0.08698108 -0.017547794 0.027826834 0.06458428 -0.002661886 0.005708419 0.09239259 -0.107253686 -0.041647527 0.026191924 0.06625579 -0.0051367483 -0.051011078 0.012881858 -0.035577502 0.0150503125 0.077911004 -0.01042436 -0.08333541 0.013042955 0.07237626 -0.0541535 -0.13770393 -0.019695869 -0.074052535 0.0040136394 -0.0425872 0.036372177 -0.042683665 0.11266019 0.056997664 -0.008964529 0.08930758 -0.06438722 0.03511911 0.030961907 0.063883334 0.01871372 -0.040757503 0.10047283 -0.1303525 0.07578937 0.008436087 -0.015044891 -0.13513088 -0.025648406 0.060325008 0.037983075 -0.042212017 -0.13340327 0.10256313 0.07059187 0.046336945 0.050891608 -0.09969775 0.1119425 0.045739926 -0.025826564 0.030075349 0.12413668 -0.010362584 -0.10863022 0.026767174 -0.03165258 0.064337276 -0.089098796 -0.12373543 -0.01794379 -0.09603895 -0.10558318 -0.053951893 0.08086683 0.15611342 0.1117375 0.018041968 -0.069368415 0.096085735 0.009138536 -0.007817556 0.018515002 -0.00051942334 -0.05621 -0.08509731 -0.09960012 0.028193679 -0.06130835 0.028901052 0.006700312 -0.076621674 -0.1395987 0.1294915 0.06999491 -0.052655604 -0.0106994 0.11964749 0.0010357711 -0.026335105 -0.12394488 -0.11100812 0.044191837 -0.103677206 -0.08798628 -0.12092582
cx -0.10384582 0.14076269 -0.12782559 -0.09369974 -0.06257209 0.13450022 -0.11566694 0.08543204 -0.13054554 0.14637284 -0.089402 -0.12771557 -0.12386211 0.036214784 0.10704752 -0.15269727 -0.14178622 -0.079836436 0.01592075 0.15842627 -0.05706831 0.070777856 -0.17017472 -0.08968073 -0.07453572 -0.08963961 -0.01667267 -0.14529169 -0.088668406 0.1383727 0.12966093 0.10991188 -0.03927968 0.12571107 -0.16637537 0.07067068 0.06556787 -0.097617894 0.16188404 0.049862206 0.12642638 0.105837 0.14563543 -0.064502165 0.037286133 -0.031826455 0.094998896 -0.026214663 -0.084247254 0.08624546 0.15796052 0.09102176 0.16395403 -0.08235003 -0.08644997 -0.09185678 0.042070966 -0.14475079 -0.07916078 0.15415911 -0.048167165 -0.1819989 -0.04589048 0.16131233 -0.055757623 0.06119339 -0.119455844 0.123506956 0.106444985 0.14108726 0.111486875 0.114873625 0.05939072 -0.098977976 -0.113111034 0.08010659 -0.1277234 0.09325328 -0.14350103 0.089527585 -0.16455808 0.16446596 0.1323142 -0.054033846 0.13709645 0.16700664 0.07153902 0.18331143 0.13701926 -0.16916412 0.14804246 -0.15011935 0.033088345 0.17001842 -0.08340007 -0.039594326 -0.066943906 -0.096856505 0.15847506 0.103186816 0.11475972 0.057082 0.16413619 -0.0725924 -0.07408416 0.11173756 -0.1799544 0.17806508 0.07401279 -0.097296074 0.09022363 0.040200822 0.12680411 0.099167526 -0.16129093 -0.15348682 0.11358599 -0.04951364 -0.086682655 0.06334752 -0.04660832 -0.15194196 0.08385465 -0.14621834 -0.049625367 0.14590235 -0.1491667 0.09646127 -0.09780804 -0.13638291 0.056441337 -0.15440479 -0.05725734 -0.10209632 -0.04723824 -0.12434004 0.058698464 0.062628426 0.08369217 0.1414927 -0.17611547 -0.045023423 0.14714138 -0.121185064 -0.06434329 -0.16875713 0.14406979 -0.14667548 0.065251224 0.07291509 0.096507765 0.15388885 0.085334405 0.11032121 0.073093005 0.0019302411 -0.046013344 0.10819597 -0.124247596 -0.08494567 0.11452963 0.12125546 0.1552436 -0.08414372 -0.063944936 0.16561675 -0.11869657 0.07774784 -0.11293358 -0.038400672 0.117110275 -0.14689541 0.01912147 -0.13017558 -0.04104733 0.10570396 -0.08244468 0.09241008 -0.0002583929 -0.04987597 -0.08790158 0.17436847 0.03532587 0.09818434 -0.057520054 0.05325118 -0.18074933 0.15126544 -0.18342888 -0.15496038 0.15759538 -0.095868535 0.13168521 0.18306053 0.12718101 -0.11497915 0.09510328 -0.19464114 0.068868876 0.09027409 -0.08298004 0.05150997 -0.010431814 0.071604654 0.03052275 0.09174114 -0.08500138 0.25600997 0.056011427 0.051416185 -0.11156724 -0.023499854 0.12584694 0.19964242 0.08408854 -0.11010849 -0.09573305 -0.040908907 0.085997604 0.13255517 -0.14692858 -0.17217045 0.08888052 -0.048297334 -0.062005218 0.08234609 -0.057989 -0.0422927 0.08587787 -0.09951167 -0.11398205 -0.08070181 -0.051810578 0.122170314 0.088817686 -0.123565845 -0.034827657 0.16578096 0.102437876 0.13782024 -0.18660475 -0.048289776 0.09424306 0.012306971 0.071933374 0.057519846 -0.12538102 -0.06847748 0.062572196 0.1066599 -0.06795548 0.10759053 -0.00910992 0.14035891 -0.051275928 -0.15548025 0.10258459 0.11899829 0.09475111 -0.0985721 -0.08474018 0.13406076 -0.10480706 0.20068927 -0.082672656 0.14120176 -0.08146447 -0.13448061 -0.12989332 0.13995224 -0.13623047 -0.14683712 0.10768925 0.041094586 0.08283376 0.09679384 -0.0076854606 -0.055528652 0.13839619 0.029715879 0.19069666 -0.13679023 -0.20246106 -0.14138457 0.16614288 -0.012679536 -0.14856313 -0.12495161 -0.13059248 0.0063832775 -0.045434494 -0.076098494 -0.14399683 -0.13443467 -0.09667663 -0.07010801 -0.10570528 -0.053745463 0.11263354 0.10427358 0.014722828 0.08133406 0.13978495 0.031401973 0.08533949 0.16141817 -0.09870992 -0.14453462 0.13353132 -0.042059347 0.12269791 -0.09351829 -0.12165058 -0.15245105 -0.13578185 0.04057901 0.11900738 -0.08391387 -0.16498248 0.040762555 0.10352279 0.14239964 0.12656578 -0.04238862 0.10890067 0.12925814 0.041566905 0.10066924 0.053978994 -0.101439305 -0.10495776 0.08983699 0.137124 0.14234373 -0.08785722 -0.08769332 -0.106250614 -0.0607298 -0.08723648 -0.047752857 0.070798956 0.08740322 0.04690708 0.13701904 -0.0820962 0.10228359 0.118132286 -0.108357176 0.014915595 0.10029164 0.118020475 -0.11263578 -0.026628183 -0.03969048 -0.12934296 0.12181631 0.11084438 -0.08414463 -0.10044265 0.10610979 0.18716581 0.15755045 -0.005531282 0.10357052 0.13651863 -0.057367515 -0.0723342 -0.13562697 0.11623029 -0.14278014 -0.12331261 -0.034564964
tc -0.10038071 0.076131985 -0.042997643 -0.11297606 -0.068471424 0.071037106 0.026987765 0.0036828576 -0.044970546 0.084766775 -0.09056305 -0.015016841 0.08622266 0.083106495 0.10894354 -0.077188745 -0.021490518 -0.06969605 0.038621057 0.048084468 -0.10004753 0.051099498 -0.06386183 -0.08559624 -0.033237394 -0.00013811614 -0.060314078 -0.11318202 -0.024151497 -0.025658382 0.027793182 0.123705335 -0.020610228 -0.017013254 -0.03937231 0.047240518 0.026420452 -0.083742715 0.06242133 0.04170705 0.11431243 0.037297625 0.05512863 -0.057945315 0.032677133 -0.053887706 0.0760756 -0.06737192 -0.10618189 0.053836424 0.09903167 -0.03399133 0.08109552 -0.012383874 -0.06073111 -0.08001105 0.09073286 -0.094692424 -0.039671943 0.0746359 0.024672132 -0.06994733 -0.041192576 0.11843835 -0.084734164 0.026962891 -0.021000072 0.062134042 0.07594962 -0.004177026 0.13278857 0.09014681 0.033412423 -0.04037723 -0.080813795 0.089896634 -0.12679635 0.06631265 -0.046379387 0.055069417 -0.041728105 0.07106195 0.042849634 -0.012142954 0.036732454 0.10342833 0.057437345 0.06127604 0.019242046 -0.0018783893 0.028639797 -0.043477517 0.082742915 0.045508422 -0.10661486 -0.08092565 -0.10039037 -0.03744563 -0.06497228 0.04117584 0.09850533 0.016257778 0.08037767 -0.029466467 -0.059306934 0.039268855 0.052019823 0.066951066 0.07141116 -0.055592228 0.04611286 0.022935452 0.023281695 0.03683881 -0.02801139 -0.053963542 0.1374665 -0.06410923 0.029710012 0.10010762 -0.021880167 -0.021272775 0.042256467 -0.10262253 -0.0040698876 0.051781073 -0.0335813 0.041167926 -0.079797365 -0.031136893 0.04456946 0.00071949617 -0.06498842 -0.031475507 -0.027515253 -0.10250841 0.06368373 -0.040113777 0.09957852 0.069061756 -0.11181695 -0.044919908 0.063001566 -0.044838596 -0.10482646 -0.08802628 0.035750013 -0.07253741 0.043786287 0.059439447 0.044657566 0.10140068 0.03294355 0.026825866 -0.019587265 0.050663635 -0.10065732 0.094248265 -0.047462564 -0.032885823 0.051116887 0.049022112 0.116457105 -0.04665177 -0.018175846 0.023808878 -0.02644949 0.08280096 -0.104469165 -0.05573889 0.089459084 -0.053241402 0.05993793 -0.08273607 -0.0015615333 0.036867313 -0.10515175 0.078567445 0.053423338 -0.104431204 -0.11944548 0.059372537 0.052129682 0.117311485 -0.11793045 0.04829551 -0.093414366 0.06857562 0.024470106 -0.09592017 0.05828824 -0.098221146 0.0459603 0.03606643 -0.0018752083 -0.08472357 -0.038259566 -0.050181028 -0.0149804205 0.055246644 -0.042771645 0.12851678 0.0796199 0.013803447 0.05400442 0.00073015125 0.048571944 0.080234595 -0.017393408 0.050938677 -0.10865037 -0.039472908 0.04593501 1.1066861e-05 0.10399214 -0.10509913 -0.094091095 -0.10833513 0.09724535 0.01664763 -0.12519646 -0.052820526 0.062957965 -0.023753515 0.052244324 0.07779346 -0.054430854 -0.07210663 0.093869 -0.0761926 -0.047073502 -0.08754877 -0.054595362 0.10087646 0.03915925 -0.08128412 0.006849272 -0.044705216 0.08018448 0.08988582 -0.060837567 -0.027721513 0.025582375 -0.082537465 0.014117726 0.06982153 -0.081939206 -0.031131169 0.030729672 0.0421486 -0.03714909 0.0075883637 -0.038544733 0.0937335 -0.060251545 -0.0613223 0.067695625 0.016315643 0.0744802 -0.020235583 -0.076667435 0.09643527 -0.04632692 0.062642425 -0.047485184 0.029305339 -0.036101047 -0.07261378 -0.01602469 0.0150054665 -0.056499623 0.029350413 0.091051586 0.07717169 0.040723644 0.110572144 -0.07595159 -0.08879276 0.07874033 0.048322853 -0.040471815 -0.039452747 0.068163425 -0.07404051 0.09025308 0.124209836 -0.013707907 -0.04878342 -0.014149054 0.07970339 -0.021208623 -0.10027162 -0.038269054 -0.15563074 -0.02788248 -0.05451246 -0.06459775 -0.07992539 0.036390357 0.039352532 -0.00054208416 0.09064847 -0.04983242 0.0019539103 0.037061863 -0.006861703 -0.01209367 -0.07932564 0.10977111 -0.10534586 0.10059138 -0.03936606 -0.007988355 -0.12213547 0.011254541 0.03620691 0.027754024 -0.049147047 -0.037937205 0.05912564 0.103598274 0.12557809 0.058275834 -0.09363332 0.06842699 0.013509728 -0.018665621 0.009364068 0.047626995 0.019316595 -0.087452814 0.028902095 0.035391677 0.085293174 -0.071755186 -0.07245681 -0.034042403 -0.049473614 -0.10118054 -0.053395227 0.091619074 0.11601614 0.10835481 0.0731536 -0.07953003 0.063818984 0.043383695 -0.041446105 0.0068990323 0.0001889586 -0.02403051 -0.059183247 -0.09432041 -0.019447055 -0.010135877 0.067068726 0.013601797 -0.059113167 -0.1066058 0.10074039 0.07637434 -0.037615694 -0.050910585 0.07361336 0.022249985 -0.03499088 -0.11474598 -0.10709834 0.08583367 -0.026152037 -0.069578335 -0.12947865
xx -0.13402613 0.2229925 -0.14560387 -0.19720495 -0.21748747 0.120846964 0.3071773 0.06824999 -0.08365521 0.2935771 -0.21130426 -0.16245821 0.3202002 0.19991626 0.29557934 0.07293097 0.11317661 -0.23780338 0.24202868 0.31734937 -0.1524196 -0.050057676 -0.113372564 0.0018521007 -0.2558446 -0.03245128 -0.29696482 -0.20117009 0.069766864 -0.18215322 -0.24496561 0.23237896 -0.066005886 -0.1382047 -0.22158739 0.11280754 -0.117569536 -0.17784493 -0.056338854 0.2711687 0.28261995 -0.09427527 0.21385357 0.12934612 0.23872182 0.13969249 0.2805126 -0.28420016 -0.2006003 0.2465866 0.102318555 -0.2373422 0.33811176 0.05488326 0.16949251 -0.053296465 0.2625139 -0.30808946 -0.1781844 0.0055432287 0.2061608 -0.038016398 -0.25912008 0.30248868 -0.28081834 0.20115188 -0.16319746 0.23369476 0.23134921 -0.21960129 0.30288327 0.31436735 0.305154 -0.14198585 -0.06851334 0.24155402 -0.27639934 0.034120657 -0.3214967 0.14739093 -0.29991886 0.23825847 0.21291374 0.032917116 -0.19782373 0.27223822 0.21141337 0.2509197 -0.06904981 0.051296007 0.070244275 -0.17885552 0.25195768 0.103550255 -0.14679931 -0.10640862 -0.26628518 -0.19004951 -0.22827563 0.30003783 0.13416378 -0.07084441 0.2592075 0.12237315 -0.27956143 0.16287102 0.17818442 0.30214715 0.14554243 -0.052340765 0.017003799 0.15839222 0.1755291 0.0023621914 0.09705818 -0.22372301 0.25545675 -0.30106488 0.12974808 0.17148292 -0.18632846 0.06911554 0.050993856 -0.24657233 0.020299746 0.009188006 0.0057781585 0.023167336 -0.2502439 0.038931686 0.04793818 0.20352125 -0.2701366 -0.24725676 0.20996271 -0.17733875 0.018312545 -0.1500819 0.18002774 0.030005272 -0.2264864 -0.2539981 0.042582408 -0.20613043 -0.12276531 0.020555902 0.22904734 -0.25070325 0.16762868 0.18132761 0.20032749 0.22756165 0.22589163 -0.055768497 -0.08972585 -0.11843509 -0.27250743 -0.0073092473 0.1823553 -0.14184125 0.25506705 0.30249283 0.21310674 -0.03947981 -0.10296551 0.24077703 0.036146782 0.25346228 -0.1253298 -0.019876331 0.17529616 -0.1834753 0.27268443 0.098048925 0.023670098 0.07538806 -0.22229631 0.2361246 0.24312447 -0.27154317 -0.2446026 -0.09405148 0.23904204 0.28282818 -0.3240072 0.271021 -0.27143282 0.12978174 0.10948164 -0.043404706 0.13583681 -0.20245884 0.192778 0.0036334484 -0.15430422 0.004992417 -0.2569615 0.1392429 -0.12739925 -0.008902527 -0.03837553 0.25329477 0.21487106 0.057141606 0.34737116 -0.114282615 0.19030178 0.28161746 -0.29048154 0.00096705114 -0.2515612 -0.13756484 -0.09122021 -0.11800192 0.25562674 -0.1715813 -0.2632344 -0.30290428 0.03772791 -0.17703784 -0.28643075 -0.23857234 0.2530846 -0.011376358 0.22783175 0.15393585 -0.31154433 -0.16642313 0.31585538 0.012700957 -0.2807519 -0.0127832955 -0.30866724 0.16940446 -0.0032722356 -0.0497544 0.039365917 -0.20142299 0.33453178 0.23601614 -0.26390615 -0.041723438 0.20393138 -0.3281279 -0.012499985 0.197625 -0.2855107 0.19110863 0.20898673 0.27757713 -0.32399952 0.066633366 -0.30589914 0.22825363 -0.30185118 -0.25245097 0.09596004 0.033924256 -0.004245082 -0.16654411 -0.1965362 0.28746837 -0.02637086 0.3088166 0.12127697 -0.05748815 -0.024211517 -0.04811252 -0.12490165 -0.05910809 0.06647934 0.16495922 0.07279365 -0.004243149 -0.13997577 0.24797715 -0.22151686 -0.21290866 0.21592262 0.1947882 -0.28324917 -0.14234391 0.29333216 -0.006273428 0.0068366565 0.2348799 0.23227812 -0.02193185 0.07715312 0.2577272 -0.10672458 -0.23838739 -0.13587244 -0.32642552 0.07724375 -0.19349732 0.1951119 -0.07406856 0.1610692 0.27625024 -0.0836016 0.23524801 -0.24805559 0.03621932 0.0026032405 -0.06809909 0.22522603 -0.21011202 0.217685 -0.2738242 0.21831436 0.09192266 -0.042224955 -0.26066732 0.043585956 0.19405985 0.13108078 -0.20025106 -0.29972702 0.10615626 0.26678938 0.111832686 -0.0045213182 -0.13329098 0.26686832 -0.118152805 -0.19921456 0.09868166 0.32084638 0.0855304 -0.2961439 0.15899813 -0.1445217 0.2883403 -0.01720714 -0.27310798 0.13603245 -0.12848653 -0.24886152 -0.011953131 0.25283265 0.315193 0.33318454 -0.0021432345 -0.3302671 0.22128046 0.121281065 0.23944382 0.012281346 -0.14037305 -0.16689076 -0.08460931 -0.268814 0.21945721 0.028793685 0.1612357 0.05739684 -0.11458888 -0.35009685 0.2982908 0.08020838 -0.26319662 0.053497534 0.30034813 -0.20755139 -0.051702004 -0.23324941 -0.20246564 0.22392188 -0.11345954 -0.24859872 -0.31585822
tg -0.06661279 0.083461344 -0.04330104 -0.0487059 -0.046361856 0.060907107 -0.012814924 0.10480014 -0.03444953 0.09000742 -0.07202568 -0.015746765 0.017745825 0.054146737 0.08454204 -0.080876075 -0.0724365 -0.06899039 0.11673072 0.080274455 -0.096985124 0.02909302 -0.1004895 -0.07906849 -0.09546325 -0.026460713 -0.05150581 -0.055289127 -0.08837151 -0.028649565 0.025272291 0.07952527 -0.023262208 0.028062647 -0.08152266 0.07290851 0.07349373 -0.10669724 0.051560685 0.09107766 0.016505014 -0.009434647 0.112855695 -0.01529577 0.10622546 -0.03598126 0.049436335 -0.112877466 -0.09868899 0.10035137 0.098454736 0.02656234 0.048536126 -0.0032723548 -0.026045507 -0.047669854 0.070462175 -0.079731084 -0.09096969 0.048849978 0.011080127 -0.092958115 -0.08196067 0.04184233 -0.059832014 0.046153836 -0.0743211 0.087680936 0.07481016 -0.029794585 0.06495277 0.06040437 0.08289722 -0.029759375 -0.102623105 0.04643457 -0.029181495 0.08899511 -0.03732994 0.06685912 -0.06613261 0.09177265 0.036946766 -0.08669498 0.010007241 0.0695288 0.02371697 0.08001557 0.08311068 -0.06487738 0.06218769 -0.03840287 0.037534427 0.047415864 -0.028341563 -0.08293399 -0.09321286 -0.037079446 0.037523553 0.09513113 0.09104889 0.067562155 0.1178016 -0.080263086 -0.105747215 0.03298465 0.010898536 0.08127229 0.06806143 -0.021399776 0.08996894 0.10942765 0.024910111 0.087935895 0.016298419 -0.034255322 0.077514604 -0.1109233 0.014297134 0.058241423 -0.11004027 -0.07675346 0.02985579 -0.05895201 -0.08867082 0.033921286 -0.0045614457 0.044478115 -0.103404455 -0.086473815 0.03069445 0.013238066 -0.08010964 -0.075279176 0.018058598 -0.034355164 0.01595718 -0.0016562465 0.06824217 0.090420924 -0.076781005 -0.03201924 0.007848699 -0.10151217 -0.05436172 -0.034602214 0.019152714 -0.01903917 0.088198505 0.07771907 0.023550622 0.072916225 0.08422755 0.07948536 0.07472923 0.06585815 -0.082113266 0.08929062 -0.015931392 -0.11305672 0.11034336 0.079164416 0.03831576 -0.050169185 -0.10280618 0.07097361 -0.017439106 0.07540192 -0.022047352 -0.060028743 0.04537563 -0.078773186 0.08868371 -0.08485765 -0.01463624 0.08087403 -0.10271351 0.035923056 0.046257026 -0.054248374 -0.032236755 0.07039914 0.11390204 0.06080527 -0.08038917 0.12077641 -0.053621255 0.035919055 -0.07114023 -0.015518579 0.018484477 -0.02124611 0.033417795 0.082644776 0.08857457 -0.106695406 0.027926635 -0.0007222334 0.004470998 0.039418038 -0.103786856 0.11581013 -0.053057425 0.047203865 0.08826866 0.03521085 0.00016599207 0.051040746 -0.009153003 0.042463288 -0.028725289 -0.059921086 0.08128377 -0.007949625 0.038406238 -0.063558124 -0.11471266 -0.12501843 0.06422188 0.04951719 -0.10872542 -0.10582456 0.058685087 -0.07372753 -0.01410227 0.034143373 -0.048640005 -0.03283893 0.03907706 -0.06252062 -0.04633012 -0.0039642123 -0.094352916 0.049592916 0.007053635 -0.109542064 -0.035685953 0.017323662 0.041870695 0.03115648 -0.11477181 -0.10522824 0.059720527 -0.040216796 0.022012651 0.10008591 -0.06143449 -0.053373914 0.04134571 0.035065092 -0.03824731 0.09619179 -0.044563223 0.09056059 -0.07398236 -0.101516046 0.060276758 0.03570134 0.0028686838 -0.0187127 -0.052422836 0.1076301 -0.050579727 0.104082055 0.008476993 0.026660446 -0.06680713 -0.07234827 -0.0668586 0.053024773 -0.052245658 -0.001805755 0.054368895 0.058347702 0.02016599 0.09319817 -0.052651048 -0.049169406 0.06607523 0.060398642 0.0072644777 -0.051301815 -0.031261142 -0.09742154 0.049772874 0.08526303 -0.04067211 -0.09608494 -0.044608586 0.04062745 -0.08678395 -0.025461897 -0.016229406 -0.08060239 -0.06919246 -0.09030407 -0.020526843 -0.05994405 0.037671924 0.11781649 0.08259744 0.09628988 -0.02596083 0.06493225 0.053383283 0.019207709 0.023063531 -0.04483079 0.08381228 -0.029765096 0.07594694 -0.0139207775 -0.0959578 -0.042787217 -0.06699453 0.052226257 0.04521755 -0.0740027 -0.08632104 0.105199575 0.115677856 0.05716622 0.043477952 -0.064432256 0.044622418 0.08089333 0.015251421 0.042031236 0.083941765 -0.05255708 -0.11171619 0.097902365 0.06689874 0.108004 -0.0053093345 -0.12191309 -0.036547396 -0.08954888 -0.05770388 -0.031456806 0.11019276 0.12407477 0.1012526 0.04499103 -0.07027957 0.03994423 0.036598433 -0.011470945 0.10057273 0.029868612 0.001531457 -0.046047766 -0.1222941 0.00886502 -0.040252607 0.067923196 0.053759594 -0.0933533 -0.039009206 0.06942271 0.011042714 0.0494943 -0.04727509 0.038272552 -0.009849689 -0.061589547 -0.041554324 -0.037002295 0.07271513 -0.09100744 -0.06685977 -0.05585951
xc -0.08748014 0.054854564 -0.06234232 -0.16243081 -0.11286827 0.09464189 -0.07655213 0.08766665 -0.08832161 0.1310909 -0.18629305 -0.072305635 -0.0779108 0.12100287 0.09097629 -0.12194054 -0.106227 -0.19431745 0.13308631 0.048492704 -0.18174224 0.14353025 -0.0062964456 -0.12115674 -0.15925334 -0.055483107 0.11793112 -0.17864436 -0.15860882 0.12641399 0.13592294 0.1308595 -0.13380326 0.068089 -0.00022926547 0.05057544 0.12526125 -0.072920926 0.032609243 0.111638576 -0.20415011 0.08288334 0.113686174 -0.1416571 0.13093692 -0.11904683 -0.011983578 -0.11472946 -0.038429055 0.1464023 0.050116148 0.13439244 0.041684985 -0.18115085 -0.1721235 -0.2057903 0.1566114 -0.06462276 -0.06527333 0.07563034 -0.164906 -0.08546277 -0.15816967 0.030253315 -0.120836616 0.18602794 -0.041016877 0.06647473 0.063786104 0.12056396 0.07088304 0.15125042 0.09833138 -0.1425347 -0.14626673 0.13859612 -0.08928327 0.15527861 -0.06860292 0.12521847 -0.07301703 0.04977959 0.10525157 -0.15703353 0.098017186 0.114520915 0.16615914 0.013346987 0.13466673 -0.06273125 0.07666286 -0.15223399 0.12694637 0.036866046 -0.09365208 -0.14022604 -0.1060642 -0.10504568 0.15945996 0.09505363 0.089766584 0.121589325 0.023301912 -0.1003546 -0.096149735 0.08962147 -0.02125665 0.021124402 0.057802767 -0.14935741 0.04277018 0.05118832 0.06332634 0.12109006 -0.011901644 -0.07148799 0.03984998 -0.11060198 -0.15165913 0.07197006 -0.12783699 -0.008881479 0.09875048 -0.05735083 -0.09771414 0.06292133 -0.105499506 0.057625927 -0.116966866 -0.06676596 0.0985436 -0.07213749 -0.12502487 -0.09299426 -0.2129527 -0.11942165 0.12300823 0.15564151 0.04080989 0.09044894 -0.03343255 -0.1303669 0.060395353 -0.16536675 -0.15311974 -0.061898712 0.038744632 -0.027082458 0.16031405 0.069823876 0.09697282 0.030491995 0.13904169 0.12668821 0.15357065 0.14778751 -0.08686356 0.03925673 -0.12725684 -0.103515364 0.16874826 0.03962269 0.07488283 -0.13020942 -0.11420906 0.07449113 -0.10529173 0.15504397 -0.08588863 -0.117303126 0.09117941 -0.1284621 0.08172418 -0.14706431 -0.15808718 0.14671691 -0.0773999 0.19650424 0.07630574 -0.17770498 -0.061015707 0.12808126 0.12913433 0.11389338 -0.10875901 0.14831793 -0.09400253 0.12623847 -0.047991812 -0.07611951 0.053707432 -0.0494503 0.10081803 0.086950205 0.10605572 -0.13956569 0.14975888 -0.05014565 0.064054385 0.06541601 -0.08046973 0.07941389 -0.22333246 0.14771028 0.14408515 0.11473222 -0.17720103 -0.18612078 0.17659031 0.100746185 -0.08807957 -0.14094062 0.09031569 0.09104236 0.1691008 -0.15866421 -0.06964322 -0.075066306 0.0694733 0.042648118 -0.06276922 -0.03209681 0.06686728 -0.11146554 -0.06611011 0.1254305 -0.15900289 -0.1078054 0.056828186 -0.05953728 -0.08019317 -0.082828686 -0.09283104 0.06049354 0.051828038 -0.10173326 -0.16223665 -0.014265779 0.09838422 0.16210438 -0.06893926 -0.09299377 0.109931186 -0.0944138 0.11243997 0.16508532 -0.08751 -0.15661524 0.106426835 0.08430428 -0.028691288 0.11753546 -0.14109188 0.05982328 -0.17245933 -0.13164875 0.037540495 0.08817345 0.009677498 -0.09268281 -0.08705534 0.13041158 -0.05944481 0.034640156 -0.09809289 0.13822307 -0.1355566 -0.05835533 -0.045017507 0.13156846 -0.04881911 -0.15581335 0.12302585 0.07027212 0.11676305 0.06911798 -0.17191702 -0.17183217 0.12252335 0.18956463 0.018741671 -0.08967106 -0.058115102 -0.11964967 0.05117234 0.20476675 -0.13038063 -0.09709172 -0.14115696 0.10738325 -0.098283105 -0.07174288 -0.09745859 -0.08640172 -0.1520253 -0.12419515 -0.098150104 -0.10912974 0.15316436 0.14196631 0.08584397 0.17746608 -0.0035732023 0.12233923 0.09669609 0.027126892 -0.07146185 -0.05995525 0.06266467 -0.12253866 0.072650276 -0.11281535 -0.11544742 -0.060009096 -0.095855 0.11176841 0.06342778 -0.1076597 -0.024628595 0.10588665 0.1080788 0.05661821 0.13518514 -0.09682367 0.03418281 0.18231452 0.19939321 0.15248273 0.17810768 -0.024659194 -0.08836812 0.07255837 0.102456 0.09417968 -0.11358007 -0.09779739 -0.14716658 -0.16552675 -0.06343703 -0.08357171 0.1152699 0.15112783 0.079405315 0.1333081 -0.13498318 0.06095146 0.09796639 -0.050149966 0.0879606 0.08443564 0.028308304 -0.017008476 -0.14025363 -0.09071342 -0.1554087 0.10122923 0.16179028 -0.12739518 -0.10604537 0.11961072 0.025726981 0.11297302 -0.16566423 0.044953886 0.08739783 -0.14323945 -0.04430968 -0.072503716 0.119225465 -0.10707401 -0.1377132 -0.07852437
gg -0.12046996 0.106081404 -0.12123535 -0.13352628 -0.15037948 0.08342524 -0.17890804 0.13367848 -0.10191535 0.09656229 -0.08849837 -0.14578697 -0.063490026 0.04782783 0.104641385 -0.11168095 -0.030014465 -0.1124289 0.12494205 0.091075525 -0.08459616 0.09013455 -0.05841022 -0.06869872 -0.10548416 -0.08160838 0.10624365 -0.096928656 -0.15358025 0.075316176 0.14264807 0.09496032 -0.059476998 0.07998204 -0.11465554 0.14766677 0.034359347 -0.117752686 0.08606033 0.11255725 -0.051167615 0.14613684 0.034894407 -0.087494 0.08760858 -0.059211995 0.111372426 -0.12757672 -0.10397999 0.10614083 0.1533627 0.11022145 0.10538782 -0.12975846 -0.15332729 -0.05480789 0.095096126 -0.1270111 -0.10812304 0.10558503 -0.08298569 -0.13645697 -0.038334902 0.07333064 -0.104091324 0.13824588 -0.110832475 0.13060747 0.100380026 0.11013901 0.10082786 0.058862865 0.069133185 -0.042728994 -0.07791591 0.13006881 -0.03323824 0.06266656 -0.046830006 0.09561627 -0.13744012 0.10931757 0.06886011 -0.044554967 0.14381208 0.0885824 0.1481822 0.040027414 0.06518523 -0.07929949 0.06042785 -0.12171168 0.11472388 0.13437907 -0.06754657 -0.0894083 -0.083025455 -0.08769433 0.07264356 0.105218105 0.0938552 0.10633294 0.14518769 -0.102039106 -0.11785346 0.13622732 -0.10067543 0.06317816 0.12965618 -0.08589397 0.043580417 0.08780088 0.09472186 0.12421576 -0.08201952 -0.06113617 0.024495864 -0.051679067 -0.081162535 0.09659856 -0.12191949 -0.050469186 0.07190707 -0.087880105 -0.08021597 0.12393397 -0.081761315 0.12328898 -0.15017232 -0.10753025 0.09629459 -0.09832202 -0.0988545 -0.1315683 -0.07657676 -0.09802665 0.078596205 0.123170495 0.09034112 0.09834745 -0.056521837 -0.063305505 0.112691596 -0.05877983 -0.097661704 -0.11663821 0.11467874 -0.048524264 0.07518099 0.13627781 0.072417 0.14330909 0.04177975 0.11805856 0.10228448 0.10131225 -0.108264305 0.13275993 -0.13127941 -0.123536475 0.09474773 0.049168028 0.07495945 -0.08934641 -0.075927466 0.04471804 -0.06588984 0.08255061 -0.14236681 -0.066948496 0.08798624 -0.051313173 0.072170354 -0.11297977 -0.09620798 0.047169637 -0.15162228 0.120673224 0.14290302 -0.1048403 -0.12761186 0.1475191 0.1071161 0.09341085 -0.08990091 0.139652 -0.076344386 0.108103976 -0.079571255 -0.04513604 0.086297356 -0.06571758 0.07849114 0.14351536 0.115295395 -0.113596596 0.16499478 -0.046587925 0.06405126 0.15834789 -0.11039868 0.034480646 -0.08952012 0.065394305 0.09164154 0.1475021 -0.05781196 -0.011334856 0.13113423 0.08822358 -0.036179367 -0.117201835 0.13947803 0.17185408 0.05419923 -0.070672445 -0.10026053 -0.12932871 0.10770192 0.114329465 -0.12631969 -0.13181439 0.07859329 -0.08773155 -0.1678142 0.067937694 -0.12059187 -0.10249295 0.12814021 -0.10397301 -0.13390718 -0.13394135 -0.096311755 0.13865387 0.14768098 -0.122678906 -0.046027772 0.14593287 0.11563535 0.07004916 -0.066199645 -0.08689167 0.095522635 -0.12377222 0.14705639 0.10793246 -0.04565037 -0.13080138 0.11416938 0.036735505 -0.13323501 0.07874352 -0.06425438 0.0846493 -0.08452618 -0.013676015 0.056450758 0.09966115 0.09376736 -0.0881493 -0.028928887 0.11259487 -0.124865666 0.07616017 -0.11149473 0.1191468 -0.12169147 -0.077825084 -0.052166756 0.10350466 -0.087751746 -0.07140672 0.13164178 0.1403901 0.118834764 0.04897386 -0.13195859 -0.12207571 0.12948565 0.12413545 0.17037198 -0.08937447 -0.13138993 -0.07894883 0.1452653 0.13120282 -0.055487875 -0.119521 -0.10233041 0.042687353 -0.083905555 -0.08482876 -0.10090755 -0.0040621334 -0.095366925 -0.1121771 -0.09874036 -0.122839086 0.08679654 0.13404065 0.06822654 0.062474012 0.07143454 0.09581126 0.13601144 0.08799129 -0.11122809 -0.115802914 0.08741777 -0.106151186 0.08609974 -0.12112353 -0.10054467 -0.06692743 -0.09654095 0.13845246 0.08097228 -0.13334444 -0.1281806 0.12347493 0.10552493 0.06076727 0.14546773 -0.053172927 0.055137083 0.12554683 0.11936653 0.07518771 0.09606645 -0.11735925 -0.13465734 0.14669818 0.1337649 0.1329925 -0.12564021 -0.050915588 -0.105243415 -0.048942372 -0.10589095 -0.080629624 0.12324534 0.049855936 0.12829256 0.047362678 -0.10644068 0.12522152 0.14003426 -0.12667824 0.15415989 0.07982967 0.12696978 -0.08426033 -0.05407515 -0.15342946 -0.034395296 0.13765283 0.054739464 -0.098601036 -0.046233423 0.06640832 0.1257005 0.113763705 -0.13243136 0.14672278 0.13796747 -0.12961309 -0.09998792 -0.10355928 0.09245435 -0.113426134 -0.08902961 -0.12640455
ca -0.04676392 0.091553465 -0.026365686 -0.10925682 -0.12557603 0.08741529 0.0445027 0.029773748 -0.09099901 0.113243535 -0.08820691 -0.07757535 0.09771578 0.03773208 0.14775786 -0.07139815 0.0031831937 -0.051514085 0.08073843 0.08120308 -0.043052807 0.046124507 -0.09229506 -0.0033194178 -0.07805592 -0.0035578457 -0.09628661 -0.06731803 -0.04594347 -0.025685862 -0.047106337 0.07986119 -0.054036118 -0.02773931 -0.041882705 0.06906341 0.011462283 -0.027287887 0.058851615 0.094287455 0.10805169 -0.032105613 0.024139049 -0.02797384 0.08289774 0.04054608 0.101091065 -0.12951167 -0.059925348 0.032802492 0.0509895 -0.05318529 0.06004523 -0.043493617 0.03228347 -0.053123605 0.06220144 -0.04600093 -0.072562896 0.073774844 -0.028337535 -0.0770592 -0.07650384 0.07190193 -0.0821248 0.0696613 -0.09094676 0.044344507 0.14009623 0.0047485405 0.062821515 0.08794446 0.05330741 -0.06491037 -0.024838706 0.05457968 -0.11953164 0.06729417 -0.13396092 0.039761025 -0.0836722 0.072431244 0.05857317 -0.043174434 -0.03763738 0.050975695 0.09398193 0.06402363 -0.0060998057 -0.050498392 0.028526532 -0.020229828 0.070486024 0.029559396 -0.02747477 -0.022424186 -0.06677678 -0.06453584 -0.02387373 0.13999811 0.07531804 0.0018883635 0.06646351 -0.008044679 -0.13391149 0.11771709 0.072711796 0.13233635 0.017538903 -0.010243881 0.05999068 0.03197857 0.10200746 0.06581302 0.0001652124 -0.025878647 0.088617064 -0.09938116 -0.030290937 0.028558148 -0.10378936 -0.014345385 0.020720212 -0.11166607 0.016779017 0.074291706 -0.005048876 0.082650065 -0.07903101 -0.043419387 0.024231222 0.007337146 -0.107932754 -0.13004449 -0.03145528 -0.026916558 0.0616164 -0.004972952 0.033502568 0.009924095 -0.077943884 -0.06513054 0.0928489 -0.02194354 -0.021449925 -0.026775254 0.07595129 -0.050613996 0.10449327 0.09327595 0.056067936 0.07217135 0.12113279 0.017761605 -0.031468447 -0.0077213403 -0.10971708 0.020529063 -0.043147814 -0.07229418 0.10880722 0.14304547 0.058743015 -0.0322396 -0.04398578 0.092112504 -0.03473276 0.08940095 -0.041835014 -0.008237584 0.031746127 -0.092087865 0.10885132 -0.007603263 0.007508576 0.050346658 -0.09327941 0.1253672 0.04615586 -0.051674515 -0.0637516 0.040561873 0.053542066 0.1045489 -0.15150674 0.12598014 -0.13137971 0.085310504 -0.04320913 -0.061558634 0.104221076 -0.09811097 0.08798938 0.029745793 0.017363489 -0.018532224 -0.097248025 -0.026412662 -0.013005132 -0.01751012 -0.08724242 0.067807004 0.09765133 0.079815604 0.08686467 0.016919123 0.0457552 0.054332998 -0.018727157 0.018831296 -0.082769066 -0.112922475 0.020409532 0.017070577 0.104157925 -0.059882846 -0.08655745 -0.05212573 0.026012124 0.005983944 -0.0764965 -0.07229886 0.09952499 -0.026010383 0.07034516 0.013495224 -0.08507672 -0.1130721 0.100161724 -0.06324193 -0.098163255 -0.04287908 -0.13542305 0.09526168 0.028028445 -0.07019309 0.008093303 0.010873194 0.14243807 0.082827225 -0.08920276 -0.06939678 0.07208973 -0.104036756 0.032325648 0.115273446 -0.11203079 0.016737103 0.1024036 0.054986425 -0.11400395 0.014144006 -0.055308286 0.034562685 -0.0772217 -0.1084741 0.025848283 0.0363434 0.00800463 -0.08581124 -0.07850677 0.07656518 -0.046185147 0.1290301 0.022533104 0.056268662 -0.014898844 -0.0664634 -0.08264686 0.055803984 -0.05402882 0.039178394 0.049227376 -0.012399071 0.038606443 0.06055681 -0.03566753 -0.050690297 0.09781559 0.11993409 -0.059191227 -0.086104944 0.105455056 0.012504415 0.0033981872 0.08917589 0.004896394 -0.040328547 -0.010362207 0.052043993 -0.10374201 -0.09693597 -0.10125099 -0.13431795 -0.008678848 -0.12995939 -0.0014177643 -0.06651354 0.10732328 0.08932595 0.0237551 0.12087134 -0.0897182 -0.0025721386 0.086609215 0.009860197 -0.004759794 -0.072717674 0.104059644 -0.09377383 0.07902741 -0.032523245 -0.057012767 -0.09066426 -0.009557447 0.04469076 0.07662912 -0.08081098 -0.12668009 0.018816082 0.04770938 0.035180274 0.039223786 -0.07925873 0.11066134 0.039419487 0.0015487663 0.060730275 0.10405386 -0.011947333 -0.1298876 0.09132454 0.014779039 0.11017367 -0.050950684 -0.13755867 0.057932805 -0.07311147 -0.09933697 -0.016401356 0.08858675 0.08193872 0.10088765 0.036103085 -0.06644078 0.054303184 0.09051115 -0.00071946916 -0.006860322 0.03218347 -0.017136663 -0.0016730119 -0.060137674 0.058458034 0.004759962 0.0299466 0.0717492 -0.096115306 -0.136427 0.07171552 0.05891694 -0.09557164 -0.05962931 0.108372636 0.0079198815 -0.065697335 -0.09777744 -0.02367095 0.04045442 -0.073651366 -0.050356884 -0.12435342
gc -0.09948935 0.038279552 -0.07993108 -0.019274047 -0.08535413 0.10472536 -0.0076983026 0.02431006 -0.0021323445 0.09116498 -0.075076535 -0.04059609 -0.016394954 0.06720632 0.04862702 -0.0051158112 -0.064005464 -0.06638198 0.0134553695 0.09840586 -0.03455258 0.031737726 -0.056336302 -0.0066173114 -0.013725969 -0.0654932 0.015521621 -0.028384384 -0.012601786 0.03926644 0.062103603 0.08757198 -0.09377893 0.0626229 -0.06919874 0.08076947 0.062296342 -0.049981672 0.039684072 0.09890513 -0.019818673 0.078523286 0.04346722 -0.061365772 0.095399044 -0.044294752 0.046721406 -0.093601696 -0.04969976 0.025085405 0.053674527 0.018921785 0.119813815 -0.048491254 -0.026200783 -0.07403516 0.030153845 -0.07023203 -0.011851112 0.040184356 -0.02011563 -0.060874343 -0.040049214 0.065244995 -0.113628805 0.042380955 -0.024666822 0.060932327 0.06515195 -0.0057101166 0.046368908 0.078364834 0.05110355 -0.071463086 -0.08260525 0.09143647 -0.025173765 0.013987685 -0.10303494 0.07726099 -0.05897739 0.06478268 0.031481434 -0.042139728 0.05279351 0.051125593 0.07675278 0.046364993 0.024127644 -0.06290138 0.04334354 -0.06761846 0.023046812 0.024107339 -0.091063745 -0.068981506 -0.09316389 -0.06496364 0.015948022 0.03111406 0.0027157879 0.042965397 0.107945666 -0.003443088 -0.06684879 0.019876916 -0.052636705 0.09968256 0.047352787 -0.011339641 0.028768374 0.06370311 0.058842454 0.026012454 -0.046476457 -0.03043172 0.023997016 -0.06288678 -0.035366092 0.01164871 -0.106269285 -0.08519263 -0.0003182805 -0.035376966 -0.021794088 0.031238487 -0.0059552463 0.08294551 -0.075270995 -0.0588054 0.039493326 -0.03593836 -0.08892053 -0.08250615 -0.067687966 -0.042002548 0.060730018 0.035032786 0.0023332455 0.03648614 -0.059969608 -0.08537895 0.043939743 -0.017473854 -0.04575736 -0.085644625 0.030192563 -0.057729073 0.018772895 0.08502291 0.009826788 0.019041032 0.092927195 -0.017934913 0.0057280995 0.026271703 -0.059194528 0.08004501 -0.027725479 -0.022350391 0.016037803 0.075479046 0.034852866 -0.06798679 -0.05933125 0.012020356 0.0069808303 0.04510151 -0.00059080246 -0.041555952 0.030196372 -0.056407716 0.043985147 -0.002151491 -0.0120045245 0.061724316 -0.05402594 0.10172133 0.054507155 -0.08645212 -0.025580676 0.057078734 0.100462645 0.06915627 -0.062466517 0.08466057 -0.029655507 0.07952295 0.0012366668 0.0042633917 0.099547476 -0.08370657 0.06314258 0.07422037 0.057968404 -0.06907282 -0.0026467182 -0.011122867 0.062371925 0.04505176 -0.02875696 0.08089957 -0.027432507 0.029272486 0.10295414 0.007005206 -0.012064225 0.02194845 0.011300176 0.021602886 -0.079272136 -0.08640404 0.028508993 0.04865179 0.017590066 -0.057093095 -0.02742531 -0.09239921 0.094955824 -0.028192628 -0.032661177 -0.069980614 0.065117724 -0.03430655 0.044968937 0.020431414 -0.06739173 -0.04357223 0.08816023 -0.044484846 -0.032908123 0.006057785 -0.093159094 0.076801464 0.06272457 -0.060525887 0.013990859 -0.019149898 0.07228483 0.07139434 -0.10137651 -0.07177572 0.0668583 -0.03694015 0.05815347 0.039914753 -0.07362874 -0.053837415 0.017393732 0.08139195 -0.095023505 0.0075410483 -0.040791832 0.09703541 -0.049135096 -0.10880737 0.07311294 0.011381286 0.03753272 -0.06848015 -0.06305766 0.106538326 0.003053962 0.10868868 -0.052645367 0.06294949 -0.07349727 -0.010351279 -0.014653301 -0.0062795077 -0.004325931 0.0032240094 0.054580357 0.0729538 -0.019860934 0.062615745 -0.100324385 -0.028651487 0.09446214 0.047540464 -0.008318423 -0.08086534 0.018630818 -0.011524129 0.07043955 0.009449475 -0.05406467 -0.0012747009 -0.070897676 0.042791337 -0.08310024 -0.040148687 -0.08018146 -0.035615724 -0.054923948 -0.04058634 -0.03524176 -0.032644134 0.018792761 0.027546776 0.009301094 0.105691426 -0.0325626 0.02382577 0.09062278 -0.018066505 -0.022183862 -0.09421263 0.072999656 -0.07779138 0.07719651 -0.06979469 -0.03438622 -0.08082041 -0.033359878 0.030856472 0.035194628 -0.04549486 -0.06752204 0.059127226 0.093903676 0.10523379 0.0074018477 -0.044425517 0.04495968 -0.0029741954 0.06260659 0.07320198 0.1110069 -0.03133289 -0.026021706 0.03742011 0.06308666 0.09836636 -0.015577376 -0.07528224 -0.04057666 -0.09320073 -0.0865196 -0.016572118 0.06410398 0.055520326 0.11580062 -0.0070538544 -0.036258705 0.054357156 0.027847638 -0.01622468 0.039227035 -0.00096720614 -0.040928755 -0.043154735 -0.111220196 -0.065063626 -0.014118208 0.058367852 0.09096495 -0.017037626 -0.02833863 0.058252655 0.09656923 -0.02788896 -0.018612485 0.09991975 -0.02901232 -0.04139751 -0.08848958 -0.08761498 0.095960855 -0.0916636 -0.013661409 -0.035932798
ac -0.0428726 0.11445974 -0.027202297 -0.043364987 -0.03679517 0.0518079 0.040883128 0.10287584 -0.03690616 0.07762055 -0.0575133 -0.026527317 0.042313956 0.08768531 0.111715265 -0.02797183 -0.067354105 -0.1006596 0.1181663 0.0994221 -0.108648196 0.04936666 -0.036838237 -0.0048279474 -0.04488389 -0.09535583 0.010696559 -0.10149717 -0.08384742 0.058399916 -0.007972962 0.08801342 -0.08761928 -0.014731874 -0.0929141 0.073208615 0.017942058 -0.077931955 -0.0022926657 0.05391402 0.047395557 0.023223877 0.11059105 -0.0070295613 0.10050442 -0.07581274 0.12382046 -0.06967909 -0.04288763 0.10224372 0.042852256 -0.016429449 0.116466545 -0.07086374 0.014308684 -0.038702343 0.050178587 -0.098791786 -0.089795716 0.020833036 -0.059054453 -0.049895037 -0.11872964 0.12571596 -0.071537 0.10616485 -0.082267314 0.026319511 0.05865721 -0.01198752 0.03475982 0.039558716 0.12497645 -0.112126775 -0.09531057 0.09176016 -0.047865473 0.10051913 -0.117028266 0.07031998 -0.071959935 0.05253195 0.09368353 -0.014613101 0.042884726 0.0999328 0.08205688 0.12790905 0.07926358 -0.035114273 0.04976715 -0.10569411 0.12832241 0.034694064 -0.019216023 -0.058452707 -0.10299059 -0.09465877 0.002899864 0.095024906 0.09228261 0.061931457 0.090737924 -0.015253982 -0.11159717 0.10182003 0.03884265 0.10580242 0.11011906 -0.106500186 0.010181225 0.078801125 0.09139426 0.01078446 -0.03449045 -0.08198462 0.08008615 -0.13185512 -0.047001194 0.04563928 -0.109671846 -0.018157903 0.0099785505 -0.0512212 -0.05170572 0.09419727 -0.036361028 0.012354108 -0.04152861 -0.056051366 0.11229986 -0.064403474 -0.10427268 -0.058668558 -0.020150168 -0.05342723 0.07956691 -0.026662296 0.087536335 0.08374584 -0.04495252 -0.047341544 0.10195312 -0.05339179 -0.1016641 -0.025882384 0.058802743 -0.045953505 0.100374855 0.064219095 0.046586074 0.11733201 0.05648113 0.09604481 0.044701863 -0.020052485 -0.12640134 -0.0020199164 -0.030218123 -0.033931993 0.1141556 0.085198835 0.06751917 -0.09733499 -0.07120073 0.07960403 -0.031564087 0.035513397 -0.03774112 -0.018331317 0.11206107 -0.11702751 0.056706708 -0.01528205 -0.013217875 0.05836987 -0.10615868 0.1196 0.030385194 -0.050652754 -0.036699962 0.041467354 0.09531998 0.13103388 -0.10389488 0.12740946 -0.06605432 0.012617098 0.00046911393 -0.048172828 0.08621651 -0.078859106 0.09707903 0.079895124 0.054992124 -0.008044491 -0.042530585 -0.062151156 0.07136392 0.06832782 -0.018864412 0.030824993 -0.009387301 0.09552642 0.060476325 0.06727627 -0.016476585 -0.005142899 -0.060852304 0.043157563 -0.0516712 -0.09285925 0.005566026 0.032200716 0.11398744 -0.10234996 -0.074197404 -0.051700886 0.06416208 0.012472504 -0.06811458 -0.1089291 0.12813446 -0.069522254 -0.01958455 0.08570944 -0.09639183 -0.09727188 0.056762192 -0.041573107 -0.09371923 -0.04631904 -0.056063365 0.08092664 0.098792665 -0.01968773 -0.010188152 -0.0031860347 0.073924094 0.035696156 -0.10011689 -0.022197086 0.052816384 -0.096258655 0.004108612 0.02996035 -0.048207134 -0.048114557 0.035877757 0.05694852 -0.045564298 0.0053446596 -0.12961003 0.11758521 -0.09183149 -0.051149223 0.060331106 0.06392427 0.07341897 -0.014346261 -0.07567965 0.039750617 -0.09649571 0.099768184 -0.04928396 0.06545459 -0.013968522 -0.08638593 -0.09830451 0.058085687 -0.0021775572 -0.0005055527 0.021490341 0.020435527 0.059798583 0.12576519 -0.09414338 -0.049602296 0.05506403 0.027797924 -0.0036604558 -0.09453119 0.04995446 -0.09548511 0.056134716 0.08811218 -0.04874969 -0.034505215 -0.069314115 0.050239608 -0.03699241 -0.04753625 -0.10476433 -0.14290346 -0.058767077 -0.08731405 -0.038622547 -0.04256997 0.058342718 0.12281276 0.0492939 0.10047492 -0.0034635265 0.02936513 0.09710652 0.011954784 -0.007824743 -0.052595526 0.1044763 -0.08289467 0.080263756 0.013467062 -0.020029476 -0.09560034 -0.008581639 0.10485655 0.10295179 -0.057021677 -0.12888126 0.07046751 0.07411899 0.08869497 0.05790983 -0.04146364 0.051663466 0.083867185 -0.0070990454 0.051078346 0.06750746 -0.04156702 -0.12691301 0.07054011 0.0433553 0.06658796 -0.08463309 -0.13401148 -0.015774654 -0.09890317 -0.023372004 -0.02244975 0.059399273 0.10241641 0.053029105 0.08741374 -0.07787111 0.10178713 0.06001569 -0.04326236 0.018916855 0.033534095 -0.015989948 -0.04440262 -0.07097789 -0.057836786 -0.0031359058 0.07172018 0.062746294 -0.07323787 -0.045618806 0.053290043 0.104218036 0.023948766 0.008901751 0.046249803 0.04642418 -0.061303556 -0.13392814 -0.11358389 0.080363475 -0.025982643 -0.102962285 -0.0917413
tt -0.06814373 0.15159075 -0.045567494 -0.03246664 -0.05313091 0.11587072 -0.025372105 0.09967772 -0.10869204 0.0801977 -0.1498458 -0.13248447 -0.1295352 0.11478084 0.12804349 -0.1322049 -0.15803699 -0.0714487 0.13150448 0.11582161 -0.06478657 0.067443006 -0.097038925 -0.10570822 -0.05310196 -0.14610599 0.12998047 -0.08573588 -0.0999883 0.100518525 0.11060657 0.06771137 -0.121242486 0.08692969 -0.1284845 0.13087879 0.06864879 -0.15783086 0.14252472 0.078228876 -0.07846958 0.14452007 0.09155033 -0.12754853 0.13805918 -0.17165592 0.14198281 -0.12583637 -0.12214444 0.07577236 0.09405729 0.10999383 0.04523043 -0.051589847 -0.09658162 -0.04717879 0.07698842 -0.08792339 -0.103089996 0.1728596 -0.089149356 -0.1007662 -0.11881539 0.13310231 -0.08713492 0.10884667 -0.07676492 0.12996879 0.031573284 0.069698386 0.084620535 0.13951527 0.07868642 -0.14765808 -0.112805344 0.033282496 -0.11597204 0.09262346 -0.10337425 0.12904856 -0.15692204 0.053706013 0.088620245 -0.07979978 0.059284266 0.12439302 0.05799285 0.15145302 0.096364096 -0.1347695 0.12687199 -0.082386054 0.13543226 0.040423226 -0.12750034 -0.14433125 -0.110651836 -0.035340402 0.06640111 0.058244884 0.13403706 0.12782775 0.08687553 -0.08981272 -0.031506397 0.12250659 -0.11570315 0.110361114 0.11368517 -0.1192916 0.05385125 0.13688457 0.08650409 0.12774874 -0.104165025 -0.14563425 0.13180095 -0.09541362 -0.12193365 0.045120835 -0.04136275 -0.14836872 0.10324691 -0.15076163 -0.13196933 0.113349296 -0.09793579 0.072505064 -0.06935999 -0.0912787 0.14508353 -0.07710637 -0.07464572 -0.11736505 -0.15432294 -0.055927582 0.118169755 0.13348569 0.07441675 0.14255315 -0.08285899 -0.08392662 0.08804914 -0.08765324 -0.12395396 -0.06425421 0.049134154 -0.10330074 0.101371296 0.06425698 0.06854664 0.06526556 0.052409828 0.11217472 0.13753168 0.0949914 -0.0884249 0.09857067 -0.16511549 -0.12117109 0.14802909 0.03652874 0.11870167 -0.124277085 -0.06583426 0.134278 -0.08853819 0.1256903 -0.074072115 -0.1128243 0.105253056 -0.120216034 0.098172575 -0.08862983 -0.04177037 0.14354794 -0.13896298 0.05608087 0.1495223 -0.106141925 -0.07972251 0.05169549 0.12825684 0.07745734 -0.13141668 0.008331353 -0.06609643 0.10441186 -0.12718439 -0.044101797 0.051710676 -0.09670683 0.1118229 0.07184076 0.069202885 -0.112059996 0.057900432 -0.12126961 0.10533212 0.05790773 -0.05009685 0.1434258 -0.111573234 0.060093723 0.089937516 0.04774512 -0.15507239 -0.019520013 0.075178884 0.09182953 -0.115531206 -0.15563278 0.15154287 0.107461154 0.055770576 -0.11941041 -0.06958259 -0.04637076 0.11938658 0.08921297 -0.06650826 -0.09347517 0.08382875 -0.07284136 -0.12800212 0.08622655 -0.09240581 -0.02557074 0.03303853 -0.15334377 -0.08270401 -0.07303817 -0.06613427 0.10818766 0.10702588 -0.099148646 -0.106731504 0.102339536 0.11624397 0.096393704 -0.16220634 -0.11536448 0.11587594 -0.113749154 0.07266151 0.11847106 -0.11604356 -0.12879092 0.14667106 0.056655806 -0.08521287 0.12421782 -0.092073835 0.098638505 -0.089310855 -0.080115356 0.106881686 0.10830971 0.09908263 -0.12289111 -0.13417038 0.07199837 -0.12999526 0.13574304 -0.14801121 0.14663458 -0.09122165 -0.16415551 -0.124772646 0.1350789 -0.11776822 -0.10993045 0.14507622 0.121726185 0.057247054 0.14501505 -0.012023846 -0.13096304 0.1048692 0.041024 0.053172257 -0.124413304 -0.034722682 -0.0867145 0.09789036 0.087925054 -0.054866116 -0.111736305 -0.05996108 0.113172404 -0.15968151 -0.13457581 -0.14681618 0.057455976 -0.12311071 -0.017232167 -0.14834495 -0.14629623 0.04721841 0.08464828 0.09762602 0.08800385 0.14059706 0.111672044 0.09574191 0.15254733 -0.12090292 -0.12249694 0.034590106 -0.07492239 0.124129176 -0.13410486 -0.1452244 -0.03158948 -0.067031235 0.13135675 0.038173452 -0.117292814 -0.07937466 0.08232326 0.07967245 0.16893703 0.1184796 -0.15302883 0.11450282 0.08733206 0.048310276 0.089681216 0.10429316 -0.13296448 -0.1306644 0.0884387 0.12703885 0.08373211 -0.08000996 -0.13754626 -0.15313932 -0.13729821 -0.06795158 -0.13500765 0.097437344 0.030131342 0.12524907 0.0865721 -0.08429089 0.12097043 0.108131334 -0.08669009 0.08370929 0.08499343 0.083929084 -0.1336004 -0.0640384 -0.11933501 -0.13792619 0.13312599 0.059540145 -0.140249 -0.14056638 0.04109276 0.06218937 0.15635568 -0.051773027 0.03440303 0.08721693 -0.099009514 -0.06543445 -0.04701671 0.0635686 -0.13883422 -0.09084767 -0.07390386
ax -0.046676055 0.027645785 -0.0732084 -0.097927704 -0.08169188 0.04732299 -0.12482689 0.07116681 -0.17794295 0.09582674 -0.12751462 -0.09710328 -0.24835405 0.010821926 0.0832665 -0.17465869 -0.026169928 -0.06600602 0.104086705 0.025227888 -0.045140367 0.14085767 -0.09746295 -0.10831821 -0.09995875 -0.17409799 0.18164861 -0.09358085 -0.16949686 0.13304363 0.12843694 0.1306423 -0.073769994 0.18064709 -0.06351475 0.17965595 0.18020427 -0.105822474 0.13984646 0.058543477 0.024574444 0.106676556 0.12666036 -0.020243917 0.0912454 -0.13311622 0.14634196 0.016910015 -0.1623172 0.14977695 0.041159313 0.2121783 0.060265236 -0.076525025 -0.062017314 -0.011428544 0.09526219 -0.034960095 -0.113543116 0.1470826 -0.11425351 -0.13964115 -0.010897982 0.107657306 0.008236995 0.14678827 -0.053081606 0.03733727 0.10432784 0.12562704 -0.06075807 0.0536257 0.12367025 -0.14071128 -0.14596164 0.0011923927 -0.10681843 0.1184754 -0.08240708 0.20262508 -0.14891854 0.1190409 0.08946161 -0.084911324 0.016849486 0.16210368 0.1482811 0.16632801 0.064036675 -0.16627958 0.09918101 -0.14041011 0.18101542 0.13052578 -0.10305755 -0.12709448 -0.0377448 -0.1826213 -0.14530921 0.1378786 0.13507952 0.12542686 0.097287685 -0.1473009 -0.09802007 0.031826094 -0.06334616 0.11875701 0.17183703 -0.08565198 0.16631056 0.064390324 0.10860591 0.12493735 -0.21330862 -0.18651135 0.12696292 -0.07741473 -0.113219805 0.17590158 -0.18177743 -0.1372117 0.15483172 -0.14321224 -0.17347115 0.09236528 -0.12508291 0.10472059 -0.0943685 -0.04924077 0.15803188 -0.21104372 -0.08874076 -0.12571536 0.025581747 -0.17376433 0.109810285 0.079119615 0.16231152 0.13331507 -0.101832956 -0.10708365 0.12898001 -0.085126966 -0.089141995 -0.07241538 0.016403727 -0.21868181 0.0358042 0.13433811 0.14115348 0.10494561 0.033076078 0.09455095 0.1472538 -0.056885198 -0.04656816 0.07876386 -0.011024853 -0.09989852 0.043875016 0.05693363 0.01287032 -0.07394891 -0.16766565 0.032809086 -0.14590077 -0.034701787 -0.05087307 -0.11036319 0.16291092 -0.09072792 0.15239568 -0.025187982 -0.02615423 0.06306416 -0.16184247 0.1168419 0.08553471 -0.0809109 -0.0689791 0.04041312 0.14270523 0.20232895 -0.063539885 0.07487096 -0.07708585 0.030053524 -0.082627155 -0.118253775 0.10064828 -0.15512718 0.06919768 0.087385565 0.121959135 -0.015585436 0.09965403 -0.13868658 0.1671896 0.19002108 -0.09865607 0.06152388 -0.10386988 0.063839115 0.0959797 0.13322388 -0.06977535 0.20412095 0.06295148 0.061858527 -0.14146258 -0.020910993 0.0578498 0.19812633 0.13476823 -0.16360761 -0.115827225 -0.01605725 0.13439213 0.10938265 -0.19335414 -0.15096028 0.08235017 -0.07550897 -0.085719906 0.1336443 -0.1315279 -0.008907294 0.001927648 -0.09331302 -0.03311079 -0.1437152 -0.11534553 0.1517 0.07845469 0.002160119 -0.012693104 0.062643155 0.037238885 0.12149575 -0.0641211 -0.13168657 0.041299507 -0.14327961 0.12971865 0.041754868 -0.029906455 0.07282233 0.16068015 0.044941213 -0.17671065 0.07753081 -0.17195901 0.07595048 -0.13257244 -0.12632424 0.17008321 0.025847202 0.16612685 -0.08280979 -0.15366441 0.14420706 -0.17435607 0.07052467 -0.14382276 0.11697989 -0.044210665 -0.12474756 -0.10926544 0.078428745 -0.116662785 -0.096994385 0.094906345 0.086974695 0.16124345 0.15039636 -0.097531125 -0.08851503 0.16521814 0.10789155 0.2023289 -0.12611844 -0.1490128 -0.18279906 0.0954564 0.13971473 -0.08981982 -0.06986401 -0.045259267 0.10033241 -0.08635583 -0.14498682 -0.14711197 0.08436797 -0.12205898 -0.05550421 0.056239717 -0.09222768 0.13511933 0.030726127 -0.0138738975 0.15637504 0.08298926 0.14025877 0.10025567 0.10983869 -0.08185339 -0.1039824 0.1278753 -0.06789321 0.045313336 -0.07504884 -0.118402936 -0.022319721 -0.08737773 0.036660507 0.17136808 -0.093006484 -0.071075514 0.13718551 0.1180993 0.10382632 0.08530877 -0.088976085 0.112473935 0.18263407 0.109897375 0.11078439 0.20248325 -0.20527051 -0.036127746 0.07162733 0.06612034 0.14030752 -0.15055744 -0.16410224 -0.10454351 -0.14186022 -0.14615853 -0.16508843 0.15501542 0.018166011 0.09377985 0.17210636 -0.05370994 0.008157759 0.17026214 -0.159171 0.12695777 0.09037107 0.10080166 -0.14802912 -0.06225512 -0.051408976 -0.120607235 0.09001413 0.015373122 -0.117021486 -0.048822563 0.012389828 0.09897832 0.16930602 -0.056638733 0.16977601 0.15051395 -0.07049244 -0.18894996 -0.1413913 0.15115102 -0.16857214 -0.12436471 -0.16196397
aa -0.14836538 0.050933845 -0.10931254 -0.1334971 -0.09047798 0.102882594 -0.12641704 0.1287694 -0.08824704 0.105140336 -0.012477871 -0.14071846 -0.10642035 0.14021353 0.028456049 -0.049669843 -0.06991119 -0.07281944 0.09037791 0.05369019 -0.13786212 0.10031329 -0.09664687 -0.10192515 -0.12114109 -0.11829553 0.024130091 -0.113792926 -0.117116295 0.09729503 0.11826491 0.037944485 -0.10413286 0.106745616 -0.08948746 0.049462773 0.11868059 -0.13002332 0.14456663 0.10225079 -0.11187826 0.10225971 0.11565516 -0.081765614 0.07852156 -0.08921632 0.046287384 -0.038977407 -0.0629403 0.09931655 0.12504818 0.16561566 0.06857882 -0.14264336 -0.102502964 -0.14090902 0.13128296 -0.123587154 -0.14591765 0.0895473 -0.12032102 -0.10932034 -0.13027811 0.057091545 -0.093102 0.039058447 -0.10247414 0.069770955 0.104680054 0.08873623 0.07615974 0.027247183 0.117598206 -0.10785786 -0.05760612 0.13333113 -0.117008775 0.11075866 -0.087331474 0.07217958 -0.04962608 0.13208778 0.082652524 -0.15288587 0.11679932 0.06939871 0.08345567 0.11143777 0.15223135 -0.047366425 0.11243765 -0.11477729 0.061856173 0.14685962 -0.075970136 -0.09816916 -0.12097717 -0.15363476 0.21178067 0.10134318 0.11815789 0.113404706 0.05859234 -0.051166505 -0.10533842 0.029795215 -0.14582269 0.11134401 0.0461387 -0.116125785 0.12006575 0.12600389 0.09391132 0.08783577 -0.11709694 -0.037612848 0.11383975 -0.112251505 -0.07771019 0.114592135 -0.08675854 -0.063060775 0.043548264 -0.022830699 -0.12720418 0.07119566 -0.07054729 0.14227167 -0.13720185 -0.15156822 0.13967809 -0.13185428 -0.13925616 -0.0316584 -0.14722377 -0.120283395 0.09001097 0.12884662 0.11201708 0.107414916 -0.09205773 -0.13609803 0.06892312 -0.08671892 -0.08309456 -0.14986607 0.112573855 -0.107498065 0.07660357 0.119362295 0.13078152 0.06559122 0.14776263 0.1303198 0.105597116 0.13138942 -0.078307 0.09986249 -0.08150833 -0.05039984 0.03946127 0.13342401 0.091800325 -0.116552815 -0.09355469 0.14392649 -0.09808438 0.09198103 -0.13894567 -0.12844989 0.04625725 -0.076323345 0.13891236 -0.100564435 -0.12361467 0.05269142 -0.03632997 0.05942018 0.12243375 -0.08137575 -0.13521925 0.15310389 0.09771455 0.052658565 -0.04689262 0.0787697 -0.13443014 0.12486874 -0.10979866 -0.10496515 0.07727383 -0.121296905 0.034091808 0.10068883 0.10716065 -0.03052404 0.14278711 -0.1372381 0.10064563 0.15682754 -0.13401505 0.0286823 -0.19466855 0.0965234 0.059955582 0.13881567 -0.14011264 -0.11360703 0.14578462 0.11168105 -0.0664352 -0.060371704 0.08379404 0.06635936 0.09090738 -0.10797375 -0.13244057 -0.11577427 0.058788326 0.12760068 -0.046275407 -0.018097756 0.10791102 -0.13311085 -0.13138857 0.07608544 -0.08269304 -0.15515317 0.14202808 -0.050470788 -0.11818492 -0.13518332 -0.14792128 0.09535143 0.08905854 -0.12254993 -0.10691546 0.12966776 0.099540845 0.12973966 -0.09076953 -0.092142016 0.08696124 -0.06497208 0.14766902 0.12927209 -0.12103188 -0.15283418 0.041620284 0.14912815 -0.1398282 0.077555336 -0.07550875 0.0878297 -0.09471749 -0.074585184 0.09031625 0.08768619 0.11620864 -0.12399894 -0.09866187 0.090707965 -0.11606346 0.135743 -0.042361442 0.03973364 -0.07710029 -0.12396376 -0.11813182 0.056199025 -0.103489466 -0.08318748 0.09419382 0.0736015 0.08453021 0.009065479 -0.09877909 -0.06580196 0.07908114 0.13807575 0.057629656 -0.109445356 -0.12979811 -0.104422845 0.046998937 0.053454142 -0.16505504 -0.12860164 -0.1361495 0.12263513 -0.099879235 -0.114599265 -0.107578315 -0.19561268 -0.13710067 -0.15601619 -0.09433883 -0.092695795 0.14384405 0.0403442 0.09471049 0.12334557 0.10224936 0.11065335 0.07659827 0.12418696 -0.14099067 -0.096302316 0.10754579 -0.12035192 0.13567708 -0.13709645 -0.1203094 -0.10751255 -0.118849866 0.06119653 0.13177235 -0.12135733 -0.11242447 0.049786564 0.052263074 0.0640248 0.0933374 -0.09990467 0.10745013 0.0224382 0.12388142 0.038826242 0.067327455 -0.13054194 -0.111243166 0.13594013 0.124227375 0.09948569 -0.11292311 -0.12434992 -0.09449076 -0.14027041 -0.14217167 -0.035666652 0.038800295 0.15900594 0.0712073 0.12056023 -0.09839833 0.084805906 0.13151383 -0.14291409 0.12585801 0.12163278 0.12008782 -0.110865824 -0.11350171 -0.13479109 -0.06461602 0.14018737 0.13839394 -0.11279826 -0.05168323 0.11909037 0.13838212 0.044487882 -0.117655404 0.11313094 0.094481364 -0.13941026 -0.09445258 -0.1315046 0.12052512 -0.09507922 -0.025339141 -0.04043919
cc -0.088328786 0.09920934 -0.053870756 -0.036543228 -0.110330254 0.07612288 -0.17192571 0.101194344 -0.0373635 0.024194496 -0.07059155 -0.13094574 -0.104380645 0.082147725 0.1280148 -0.046927594 -0.14416261 -0.046871167 0.11750701 0.09781663 -0.10152959 0.10943902 -0.092600845 -0.10980136 -0.11309624 -0.14672412 0.121246845 -0.1062862 -0.049141634 0.11010479 0.09395869 0.13088398 -0.11915259 0.10020518 -0.098623045 0.12646584 0.05533072 -0.11785336 0.10432247 0.085784435 -0.11336807 0.11695427 0.06534906 -0.12215693 0.118514895 -0.045650773 0.08376844 -0.078913264 -0.15915705 0.105688274 0.11575533 0.10216702 0.14497156 -0.06520281 -0.14255242 -0.02206576 0.05366813 -0.12718792 -0.059825547 0.03841617 -0.13896677 -0.110944204 -0.12399376 0.12485376 -0.06515089 0.13280088 -0.11223226 0.14296262 0.124909125 0.09762928 0.118795395 0.061967358 0.083380155 -0.10495773 -0.1037707 0.09340747 -0.10464678 0.07526908 -0.09047161 0.13247664 -0.07900569 0.1293826 0.102670446 -0.094035864 0.13100435 0.06407808 0.113024145 0.1372976 0.08779415 -0.07904325 0.07799653 -0.11993013 0.09814514 0.13645454 -0.09069334 -0.056923844 -0.083122484 -0.1047636 0.04044543 0.10231202 0.11812931 0.091988206 0.14592429 -0.082317844 -0.13462704 0.1487742 -0.10931767 0.1389092 0.10004869 -0.10725998 0.12638594 0.10334015 0.09459174 0.07526807 -0.042900033 -0.13706797 0.063570976 -0.1130489 -0.12649567 0.14824271 -0.10494146 -0.07810254 0.1228127 -0.119735345 -0.09402138 0.11184876 -0.13914202 0.099432565 -0.0919603 -0.061578058 0.056742188 -0.106202215 -0.08129565 -0.11267522 -0.0842493 -0.036984745 0.08868054 0.07958239 0.091962315 0.0481242 -0.08025931 -0.09123247 0.09086343 -0.106337234 -0.09818567 -0.031410582 0.04212216 -0.09460995 0.06589598 0.045715187 0.1266184 0.10700175 0.115438916 0.04244953 0.11590683 0.09276762 -0.12606254 0.11389136 -0.081146985 -0.14940949 0.12596074 0.02825638 0.048844118 -0.080272704 -0.13645032 0.10520312 -0.076736614 0.11553902 -0.0924314 -0.12083246 0.12222356 -0.08139115 0.052160002 -0.09540891 -0.11598783 0.13088407 -0.12737735 0.13790753 0.17045802 -0.08501818 -0.13493085 0.11301163 0.12002274 0.11108533 -0.11330523 0.1386978 -0.13138984 0.03665969 -0.07233653 -0.13819188 0.14518549 -0.12181243 0.12227927 0.0613453 0.11494218 -0.11747677 0.13393301 -0.0701871 0.11321909 0.119613685 -0.0915273 0.116219595 -0.12327737 0.12715484 0.1031121 0.06483249 -0.028569235 -0.046071988 0.15193439 0.07441967 -0.12776189 -0.033813257 0.102982804 0.1408659 0.09502492 -0.031247105 -0.07948783 -0.105037935 0.13978857 0.14713961 -0.14009951 -0.09531515 0.052199535 -0.06601576 -0.15350111 0.064668596 -0.03613093 -0.065158844 0.09674294 -0.11256395 -0.11313336 -0.1065691 -0.13002414 0.03194179 0.06327189 -0.071509466 -0.10036397 0.15447018 0.05610788 0.10501254 -0.03191765 -0.10192467 0.0702837 -0.1102815 0.08833392 0.10850427 -0.076501355 -0.08777875 0.11273254 0.062159352 -0.11058701 0.078756146 -0.07374818 0.09305695 -0.062150095 -0.11403238 0.14092502 0.12000038 0.12777843 -0.11473071 -0.060685366 0.027599039 -0.1159986 0.08864757 -0.066864125 0.13135475 -0.1260266 -0.052929338 -0.11521612 0.050357234 -0.14444122 -0.063778736 0.14235155 0.10346891 0.056144264 0.06751806 -0.11145769 -0.12943456 0.075677134 0.08521159 0.1511262 -0.06293048 -0.13462645 -0.123968005 0.12771952 0.10965932 -0.1549326 -0.0875075 -0.15399592 0.1281007 -0.116774514 -0.060489364 -0.09493778 0.03294782 -0.14077267 -0.1215272 -0.07841911 -0.10932453 0.054835923 0.12758179 0.154998 0.051264588 0.17294668 0.14567766 0.125806 0.119170904 -0.10511216 -0.057389528 0.13292503 -0.0535648 0.100924924 -0.13593806 -0.102588065 -0.11176784 -0.06366847 0.07987012 0.11384648 -0.122205436 -0.014612248 0.1358528 0.06983202 0.12481432 0.08008677 -0.042433366 0.096728444 0.041397788 0.091916986 0.10368452 0.10528323 -0.103145145 -0.12180903 0.081415586 0.11306689 0.07056653 -0.10496139 -0.13460855 -0.13689712 -0.06931087 -0.05454794 -0.09850343 0.12293507 0.06662512 0.114519954 0.14763092 -0.09045808 0.087600574 0.1144818 -0.15137109 0.16726121 0.16245389 0.095572464 -0.1415203 -0.05841254 -0.09874741 -0.13496144 0.12078399 0.06273105 -0.06213111 -0.12819241 0.13185148 0.14969933 0.080166005 -0.15270536 0.0519617 0.06810035 -0.06520381 -0.07137684 -0.059177805 0.12561348 -0.12611468 -0.10050302 -0.0761178
ga -0.027920213 0.120776564 -0.045345593 -0.065068945 -0.039661348 0.09195383 0.018222071 0.090292305 -0.04410794 0.03475571 -0.077781595 -0.051889267 0.0038166128 0.044467412 0.09013183 -0.07624946 -0.031715732 -0.110868685 0.09251227 0.08652998 -0.07117049 0.012122429 -0.09685819 -0.00878273 -0.025694132 0.012147716 -0.06848266 -0.104820855 0.019470925 -0.012299712 0.00859478 0.1205966 -0.054834187 0.018130777 -0.058346406 -0.0007876478 0.018135497 -0.054627948 0.076235786 0.035950363 -0.02909462 0.019993786 0.044049926 -0.044813048 0.08895322 -0.067243196 0.037899558 -0.090911694 -0.07311938 0.08267921 0.05343535 -0.04412043 0.051457547 -0.03542895 0.0058966274 -0.028817005 0.07161864 -0.10396777 -0.016764395 0.0718078 -0.022472227 -0.07265009 -0.050800215 0.031976745 -0.04436414 0.07849421 -0.10261588 0.0950348 0.11024729 -0.016159432 0.036495782 0.09337865 0.09007501 -0.06509338 -0.051845644 0.054230068 -0.053209346 0.0073724035 -0.049197033 0.03709628 -0.083202235 0.070620805 0.018544586 -0.073030345 0.00610663 0.022521706 0.037452485 0.019014772 0.021307247 -0.036701653 0.07501973 -0.09897206 0.07361443 0.03972716 -0.083898894 -0.067579515 -0.11112089 -0.01377151 0.034202665 0.05871781 0.010415333 0.06587848 0.023146268 -0.064993195 -0.05547368 0.11218377 -0.027132522 0.011630872 0.0024539165 -0.04201315 0.0066163703 0.07651616 0.034881804 0.08243277 -0.05901045 -0.072010934 0.03342763 -0.073694326 -0.02629929 0.03211029 -0.053907916 -0.07056911 0.059551775 -0.090034716 -0.002091104 0.035309225 -0.07384584 0.030203855 -0.10681282 -0.044442248 0.026963405 0.006997063 -0.10951185 -0.02593063 -0.031911846 -0.03466715 0.007900057 0.067115255 0.088147044 0.07215997 -0.09002738 -0.11778045 0.028906547 -0.09012739 -0.027084032 -0.00069246656 0.09693414 -0.10144583 0.10350773 0.037202884 0.07081784 0.08828435 0.07444469 0.017372066 0.009236755 0.052719947 -0.06330423 0.043149233 -0.02528209 -0.038860325 0.05560649 0.063239776 0.09159287 0.0015370176 -0.08757328 0.036674514 -0.019041918 0.05977934 -0.023653563 -0.048683923 0.07878037 -0.02795768 0.05917543 -0.08401397 -0.06015288 0.030407092 -0.019055322 0.04416593 0.09652124 -0.08218148 -0.080212116 -0.012890281 0.03603513 0.096997075 -0.06657519 0.030323815 -0.117803395 0.03343152 -0.014403974 -0.08750136 0.09915017 -0.07972011 0.03669201 0.040053684 0.0453867 -0.036518183 0.02337928 0.009762168 -0.010581417 0.057747748 -0.074243754 0.024986574 0.02208631 0.03501653 0.08089153 0.024110116 0.05214128 0.054137595 -0.051611163 0.036204193 -0.06317927 -0.04144742 -0.012970591 0.003042051 0.09272118 -0.09519117 -0.022672025 -0.057022758 0.047104638 -0.012103854 -0.100994274 -0.08472763 0.07666339 -0.05815028 -0.0018234508 0.057636257 -0.066218324 -0.042851426 0.057866663 -0.07517842 -0.059998978 -0.03926873 -0.032727778 0.06582476 0.03075185 -0.06443623 -0.09100801 -0.047791015 0.09926454 0.0854379 -0.034451395 -0.050043803 0.05457938 -0.08586204 0.06310277 0.087194964 -0.041591235 -0.04168982 0.104594424 0.12624176 -0.039738804 0.014759035 -0.08209117 0.0946151 -0.065096945 -0.07644758 0.06412582 0.08671687 0.05967793 -0.07683653 -0.03641423 0.08566468 -0.07786478 0.038102265 -0.014233644 0.028881082 -0.100889266 -0.06917688 -0.0704236 0.087560624 -0.06959571 -0.05607812 0.013659127 0.08994727 0.058501262 0.11209145 -0.1151623 -0.065127544 0.10541762 0.110553145 -0.04738047 -0.02198303 0.068105385 -0.023973688 0.008830925 0.061108906 0.014690722 -0.06378223 -0.032664996 0.100834884 -0.07859993 -0.09999285 -0.059292786 -0.083702184 -0.054717302 -0.04996051 -0.061526738 -0.025063766 0.03285939 0.03991546 0.0047056503 0.053862926 -0.04852767 0.011420988 0.07984798 -0.0050827097 0.010918267 -0.008800094 0.054523006 -0.062110834 0.042785402 -0.05121779 -0.044279408 -0.04937405 -0.041595954 0.11489896 0.04618888 -0.09950072 -0.065954626 0.040913865 0.06864017 0.11318488 0.03165252 -0.08773411 0.089363776 0.030287497 0.003820039 0.10111929 0.06757606 -0.00025742687 -0.118266754 0.08854143 0.0061573233 0.085996285 0.00015304462 -0.026040994 -0.058631524 -0.08028005 -0.071173 -0.041815255 0.077604845 0.053090412 0.07340097 0.021113798 -0.059084266 0.037589148 0.0942394 0.03729438 0.08293709 0.046248876 0.03879977 -0.019485412 -0.11954025 0.0042240033 -0.06940601 0.049235396 0.02742741 -0.09520983 -0.09282978 0.061765846 0.00511258 -0.053136215 -0.0039670537 0.060507018 0.018642552 -0.061556518 -0.044854287 -0.030656891 0.09509183 -0.07636024 -0.07177092 -0.0794363
at -0.039111417 0.04057371 -0.0815858 -0.051365726 -0.12503763 0.035602167 -0.004388515 0.018147781 -0.10194154 0.07004127 -0.10964032 -0.09607742 0.029282484 0.079972506 0.14108919 0.0034432728 -0.031775385 -0.11672415 0.046253264 0.08748618 -0.039297223 -0.00269653 -0.04127195 -0.0074618524 -0.08020345 -0.06667705 -0.034314845 -0.092213415 -0.0763938 0.050437186 0.04179071 0.09994845 -0.08782982 -0.0038709198 -0.10863715 0.07738847 0.013050233 -0.06473441 0.009792619 0.07110143 -0.0047218837 0.076793775 0.11117266 -0.07514522 0.08964873 -0.028394595 0.052387945 -0.040748585 -0.043469153 0.06926013 0.11479458 -0.037728716 0.09899342 0.011767362 0.007688439 -0.049367152 0.05689139 -0.06117225 -0.048307825 0.09442163 0.037084434 -0.029118583 -0.044397052 0.054580517 -0.07103147 0.018388037 -0.035948172 0.051251333 0.09696544 0.012099629 0.10694763 0.088473886 0.035166305 -0.027892541 -0.050918348 0.064653814 -0.035978116 -0.004867255 -0.08675457 0.07774342 -0.1247041 0.040766098 0.02225129 -0.024973037 0.04362305 0.058186162 0.09947095 0.12227048 0.03433322 0.016130729 0.06960707 -0.06367036 0.06682791 0.030352445 -0.09801997 -0.060390767 -0.12814257 -0.04468426 -0.006042054 0.10549749 0.07915485 0.007916994 0.10904227 -0.000114632494 -0.08118927 0.017003182 -0.012450809 0.13162135 0.072469175 -0.03681704 0.05288256 0.014577877 0.12524469 0.052208763 -0.06626469 -0.054011647 0.09808757 -0.12684664 0.005793385 0.09524462 -0.06324203 0.018492425 0.08485765 -0.10452396 -0.060657505 0.011176468 -0.062907115 0.04297628 -0.05387145 -0.07768403 0.05182788 -0.0424215 -0.13283128 -0.06241684 0.03955445 -0.11356869 0.07881986 -0.01507597 0.09638408 0.014615821 -0.0786554 -0.06283105 0.061646994 -0.068745345 -0.099100955 -0.08051493 0.09262958 -0.04850631 0.10802533 0.102671735 0.053564824 0.07903491 0.12229508 0.072329104 -0.0006803176 -0.009589471 -0.11218635 0.094058864 -0.0011093109 -0.08171536 0.1144257 0.05279531 0.10939693 -0.05328055 -0.020076228 0.1262265 -0.030553749 0.11531735 -0.06383434 -0.048479535 0.057777353 -0.074286826 0.047976345 -0.011836253 -0.07809289 0.03335986 -0.07482843 0.12134353 0.11039536 -0.1377159 -0.0383634 0.036555678 0.04427067 0.07315264 -0.13991898 0.064895004 -0.13362138 0.021805525 0.022509268 -0.07704476 0.098137476 -0.05133839 0.07280391 0.02233861 0.030259423 -0.030339345 0.00085496285 -0.046534196 0.014351752 0.002425426 -0.04646384 0.12240543 0.011691517 0.015426208 0.052106857 -0.010367626 -0.01897118 0.057707094 0.023756372 0.026839593 -0.08170966 -0.011832662 0.0797497 0.038443185 0.118531704 -0.1060399 -0.082801305 -0.042580947 0.081362024 0.04410936 -0.13195996 -0.047970884 0.049039215 -0.016777137 -0.020950971 0.07429695 -0.10930937 -0.10174747 0.047837608 -0.054572657 -0.12247449 -0.054881696 -0.046880882 0.09302341 0.029963199 -0.052535906 -0.036108393 -0.016025923 0.061331164 0.08805425 -0.048123024 -0.05987304 0.06469133 -0.13766143 0.08340327 0.09586217 -0.057344384 0.03967916 0.11752198 0.12141436 -0.08206633 0.08352051 -0.045890626 0.07941443 -0.1458738 -0.07672628 0.043630745 0.10032439 0.03297936 -0.06415319 -0.13308522 0.09978079 -0.005752098 0.13369963 -0.033730347 0.028942646 -0.08142616 -0.03769147 -0.08844181 0.0574949 0.023028584 -0.020657847 0.039383117 -0.009177995 0.06420664 0.073563606 -0.030125024 -0.07364211 0.10271358 0.036125734 0.012419096 -0.08887724 0.054437544 -0.09557736 0.016966121 0.040096227 -0.030825473 -0.08544772 -0.045227185 0.0453333 -0.04984783 -0.05702908 -0.06057432 -0.089999884 -0.05998003 -0.12164196 -0.027193338 -0.051529326 0.028363008 0.08967036 0.03478556 0.08941925 -0.042209476 0.007437811 0.08145849 0.0026405419 -0.0015852483 -0.037940037 0.045872737 -0.06102071 0.11680153 -0.04256588 -0.0742434 -0.14335498 -0.06093913 0.08185327 0.031917688 -0.05646856 -0.122944385 0.08972966 0.12366111 0.052137636 0.019894551 -0.026986443 0.03738385 0.020678079 0.0016532048 0.10076439 0.07845044 -0.00972031 -0.052080553 0.108373754 -0.03182848 0.049049046 -0.08716273 -0.100359544 -0.022648852 -0.04333754 -0.08506894 -0.062101707 0.10029833 0.06072925 0.11183654 0.08566585 -0.11316035 0.11145363 0.019097013 -0.030583972 0.03383506 0.032589626 -0.010421928 -0.07489151 -0.06531033 0.008571979 -0.062698655 0.05679587 0.080776684 -0.079522364 -0.052026886 0.11680939 0.028271122 0.0055994564 -0.018107608 0.09161179 -0.024618521 -0.09169516 -0.10821844 -0.05622257 0.078276046 -0.021121396 -0.09469562 -0.09896462
gx -0.033604868 0.07562326 -0.13331315 -0.17152226 -0.10607009 0.05342678 0.0107176155 0.10473326 -0.15881313 0.108010784 -0.19320275 -0.13319692 -0.122372165 0.12076547 0.084109865 -0.09807625 -0.0721232 -0.03606168 0.1260916 0.047969818 -0.15850385 0.09953711 -0.1310918 -0.13269359 -0.09000996 -0.13145752 0.15230638 -0.09595593 -0.10830858 0.13386372 0.12517358 0.10748007 -0.11865857 0.10821737 -0.16666065 0.1037381 0.09912954 -0.06629528 0.1343187 0.111806124 0.068297565 0.1913282 0.14959621 -0.13114998 0.07233787 -0.096145906 0.12311222 -0.11091099 -0.0676605 0.101708524 0.103964545 0.14907925 0.08400019 -0.1154844 -0.068882644 -0.11804905 0.15073766 -0.045646228 -0.11944775 0.21054861 -0.10268179 -0.13121933 -0.160759 0.08290115 -0.11021353 0.1345723 -0.10283821 0.054951176 0.12325855 0.09620089 0.089660026 0.100705534 0.1505308 -0.03385441 -0.14443716 0.11260646 -0.14581363 0.1014571 -0.09172896 0.08417195 -0.06974937 0.10116043 0.109001495 -0.0816236 0.1592228 0.107426 0.0072469763 0.047508493 0.11128574 -0.09975934 0.057497736 -0.15088592 0.08213315 0.1279472 -0.033317346 -0.051296074 -0.054202046 -0.14363247 0.040086374 0.13508417 0.048040826 0.046709806 0.15574117 -0.053284638 -0.05427627 0.14960717 -0.15516888 0.093597844 0.115191795 -0.14734274 0.10415436 0.04844821 0.071540646 0.058929607 -0.16775124 -0.08182783 0.07405266 -0.08398891 -0.10233872 0.13148135 -0.091443494 -0.121009275 0.109000094 -0.12204507 -0.113731205 0.096320674 -0.10431905 0.11666523 -0.09870215 -0.066920295 0.13360973 -0.053771876 -0.17546147 -0.07630293 -0.11965387 -0.08382831 0.11452322 0.036030672 0.0821579 0.101945736 -0.14555936 -0.08120373 0.12645975 -0.04264752 -0.051635038 -0.105072476 0.11604378 -0.13777985 0.15098336 0.14686455 0.15279166 0.035721876 0.10256267 0.042508822 0.05841729 0.10603455 -0.08147405 0.06383065 -0.032010198 -0.08850931 0.036408003 0.11582453 0.025056042 -0.12468598 -0.18103312 0.06748399 -0.098026484 0.09206256 -0.102074906 -0.023976166 0.06004069 -0.11543166 0.049339972 -0.10665303 -0.17607287 0.07194384 -0.08616393 0.05995075 0.049930185 -0.13467 -0.055819232 0.09964254 0.12830009 0.089140944 -0.036266744 0.035790347 -0.13908623 0.07736397 -0.11896319 -0.15625036 0.09235247 -0.06541764 0.08732201 -0.004113958 0.08684046 -0.07074472 0.066819414 -0.17891984 0.10473598 0.068405956 -0.09249892 0.13997242 0.0140189035 0.062240656 0.10408421 0.09173152 -0.15267423 0.2120098 0.10605321 0.03717657 -0.098883085 -0.13370556 0.17827372 0.14070311 0.11389372 -0.030588746 -0.11376711 -0.050703656 0.088684924 0.16003874 -0.12378746 -0.1710927 0.124126054 -0.08129324 -0.121551745 0.1355493 -0.062308453 -0.08636041 0.043111045 -0.15925607 -0.095323235 -0.13658683 -0.117783144 0.17127982 0.12784582 -0.036814503 -0.06362456 0.095835246 0.037929177 0.14583519 -0.12847319 -0.071811326 0.07561462 -0.0613293 0.11270283 0.08836019 -0.12966482 -0.09030675 0.16948146 0.08084743 -0.14021608 0.052129745 -0.14538534 0.1172843 0.018535642 -0.15200074 0.07776121 0.05676366 0.12994455 -0.09848223 -0.074588366 0.10295474 -0.16024287 0.14137489 -0.04046711 0.048988447 0.07658414 -0.13031161 -0.13514748 0.09590691 -0.16686119 -0.09034139 0.11091319 0.13902904 0.1378847 0.1400544 -0.017502831 -0.09989801 0.04546268 0.06771708 0.106976315 -0.102963164 -0.22097252 -0.13435082 0.15537061 0.051093437 -0.08264449 -0.03724282 -0.0892511 0.027719876 -0.06790644 -0.12285812 -0.092017345 -0.28026694 -0.05185319 -0.1587851 -0.14406803 -0.031312887 0.0591378 0.01465924 0.04299227 0.065589376 0.17757177 0.060735628 0.063282624 0.09561299 -0.07237091 -0.073748626 0.09200186 -0.14811444 0.12493378 -0.051269993 -0.14095129 -0.111355156 -0.1604359 0.029426595 0.11072094 -0.13796002 -0.026156727 0.12430676 0.14838436 0.0991351 0.13096897 -0.13259032 0.04070915 0.07027043 0.047625303 0.13579293 0.11451605 -0.13041697 -0.024540305 0.043366622 0.1324773 0.16445093 -0.09697054 -0.06586749 -0.053422596 -0.068612754 -0.0870494 -0.12733476 0.14225258 0.16514894 0.06336185 0.12330819 -0.07700401 0.098863505 0.13562566 -0.17340805 0.12557168 0.13422917 0.056028184 -0.12355654 -0.09403592 -0.082699664 -0.062340923 0.11670186 0.086821005 -0.075438015 -0.059207212 0.094868414 0.12929688 0.17511345 -0.09756305 0.13784511 0.1222047 -0.090544 -0.14658327 -0.044443134 0.0889306 -0.16139716 -0.10652654 -0.09869308
cg -0.058566496 0.099366054 -0.09381173 -0.020082328 -0.0958342 0.042488433 -0.046665903 0.0073706107 -0.07412707 0.01213996 -0.01898649 -0.07394479 0.024640245 0.06591361 0.042003073 -0.09814993 -0.07911434 -0.09460255 0.06532866 0.061246905 -0.01911048 0.076032735 -0.03730651 -0.020268619 -0.06212296 -0.0050961236 -0.028017342 -0.07969163 -0.057293437 0.06292146 0.035378963 0.009889274 -0.09756464 0.066556744 -0.09510748 0.073826 0.0064030425 -0.0933372 0.07496466 0.09071692 0.015356457 0.08968381 0.07618479 -0.04256347 0.011162579 -0.05634115 0.08767309 -0.05230303 -0.09337249 0.07559295 0.06774861 -0.021505656 0.047828045 -0.02864473 -0.07804743 -0.03916529 0.047081217 -0.046656873 -0.06545117 0.09301548 -0.021795746 -0.035413347 -0.058391392 0.016416183 -0.07640197 0.010779988 -0.065570444 0.050121807 0.023505982 0.04649848 0.09900781 0.043858282 0.02785614 -0.06790128 -0.08948404 0.08746436 -0.028880598 0.053236037 -0.10923504 0.029568076 -0.10165858 0.0872265 0.046083946 -0.03543959 0.0029765698 0.033297304 0.059180807 0.03892894 0.0714462 -0.012782755 0.018451327 -0.064897574 0.012060275 0.066179164 -0.003953457 -0.09326977 -0.040854562 -0.061226238 0.05608007 0.03422846 0.068261065 0.074824564 0.09337612 -0.012686923 -0.04065363 0.031841937 -0.08320897 0.029103829 0.07681638 -0.1003008 0.03880276 0.042037684 0.043911245 0.002424945 -0.07567876 -0.08833267 0.041260213 -0.071185686 -0.013164591 0.06877648 -0.046833504 -0.09427036 0.094278336 -0.104056165 -0.031265717 0.026651768 -0.058479253 0.0050417944 -0.012326288 -0.08580925 0.035511736 -0.012433409 -0.0863221 -0.050000466 0.0062142313 -0.06463018 0.06842709 -0.005928542 0.023791557 0.019915396 -0.107463844 -0.06324551 0.07696326 -0.064776815 -0.07348277 -0.021848029 0.044103645 -0.05125264 0.06451356 0.07870084 0.04927412 0.025450427 0.016766695 0.009126325 0.051939443 0.021239137 -0.011878611 0.04522633 -0.046008997 -0.023936816 0.04198766 0.053059373 0.036941037 -0.021228263 -0.06028641 0.05791799 -0.026000164 0.09762594 -0.018402373 -0.05949094 0.09452941 -0.016533533 0.05160964 -0.012675321 -0.01783925 0.08675628 -0.07420045 0.017777799 0.04574592 -0.05678928 -0.024326544 0.06669024 0.06960361 0.09291788 -0.036855776 0.09271058 -0.034312233 0.023740172 -0.090796046 -0.045129947 0.028528137 -0.04767674 0.061760947 0.09021808 0.077205665 -0.018858388 7.457618e-05 -0.038441356 0.091807805 0.05918858 -0.029215105 0.060274657 -0.03424377 0.06924154 0.08594987 0.0025662822 -0.02066346 -0.007428992 0.015119973 0.08432057 -0.05892077 -0.016958764 0.0024513158 0.012113361 0.023215648 -0.101920865 -0.035476852 -0.073707305 0.10106803 0.058977757 -0.09275417 -0.10900334 0.06547141 -0.061592795 -0.032367148 0.06863772 -0.07561918 -0.022310518 0.06528806 -0.0713602 -0.03805663 -0.09586559 -0.078289814 0.07633427 0.08076159 -0.009902075 -0.036455248 0.028959824 0.056190677 0.08737677 -0.027484534 -0.09077812 0.014053716 -0.09143424 0.009655457 0.074798025 -0.0864884 0.008228131 0.10515868 0.014040848 -0.08598743 0.053347897 -0.062799044 0.011909874 -0.020751258 -0.033142712 0.086600676 0.05528981 0.078012615 -0.10475047 -0.10505227 0.07242667 -0.07320717 0.06529061 -0.020065425 0.055754796 -0.08236205 -0.03638533 -0.0462619 0.03400223 -0.058520928 -0.000675156 0.08930664 0.07761263 0.07508459 0.089717455 -0.091352165 -0.055273436 0.09031997 0.07449516 -0.004923536 -0.10303831 -0.05138581 -0.039785318 0.06267242 0.07028256 -0.014269922 -0.06079167 -0.009735306 0.023161346 -0.07063206 -0.045987546 -0.089669034 -0.034091182 -0.045780163 -0.056547247 -0.08222621 -0.06536961 0.03014009 0.08171944 0.018267313 0.041321166 0.03713833 0.024346352 0.09901781 0.08288069 -0.079496086 -0.08904762 0.07850939 -0.06805508 0.08108906 -0.0407707 -0.09487933 -0.07993899 -0.042384904 0.06513675 0.019171963 -0.021619162 -0.022421643 0.019431416 0.014460005 0.03705008 0.051829875 -0.09074806 0.08331082 0.017184123 0.07007134 0.05137251 0.02920184 -0.058366 -0.025426408 0.09247797 0.057364132 0.05219217 -0.09084691 -0.05476759 -0.036944855 -0.0853886 -0.009864273 -0.019677911 0.06735763 0.03414791 0.020701298 0.06309716 -0.04243699 0.060456377 0.08475417 -0.07317798 0.04168216 0.06558058 -0.013892219 -0.09928689 -0.04063705 -0.06383288 -0.010440154 0.04097185 0.05124913 -0.019727265 -0.010645845 0.02769481 0.012823585 0.054867454 -0.06452485 0.08644137 0.066034056 -0.09539456 -0.018971844 -0.044507507 0.026179282 -0.032165688 -0.078789495 -0.09098716
gt -0.09809758 0.039905787 -0.048625138 -0.05528186 -0.093306705 0.014120956 0.034483325 0.017176483 -0.009932563 0.05388382 -0.10424822 -0.08498113 -0.03226876 0.07044029 0.075872004 -0.035632506 -0.02992127 -0.09151347 0.057634495 0.038395517 -0.04203868 0.023449212 -0.09332869 -0.08322165 -0.053463694 -0.06529807 -0.021703916 -0.06824805 -0.043301545 0.025067337 0.014754615 0.04144617 -0.082013614 0.0603256 -0.07017018 0.05689354 0.013418962 -0.06663418 0.023962462 0.03739559 0.034636676 0.060461063 0.026135547 -0.04305881 0.040152103 -0.034247138 0.033572096 -0.08352278 -0.047476947 0.056835994 0.09478265 -0.043297634 0.08893378 0.0011351855 -0.0013506328 -0.0030317511 0.08554028 -0.042939395 -0.030123983 -0.007025082 -0.04677847 -0.07243647 -0.021420933 0.074288 -0.096773885 0.09977919 -0.03091428 0.09501803 0.07296159 0.0072637824 0.088821776 0.04577379 0.06826646 -0.08812531 -0.091143735 0.08561656 -0.11188424 0.020826764 -0.11105739 0.010730554 -0.0714152 0.07936582 0.050263148 -0.0045416504 0.028780317 0.094534725 0.09032749 0.09979573 0.029833047 -0.0031369168 0.08400972 -0.029665958 0.107864946 0.0053916895 -0.025848102 -0.03336837 -0.11344015 -0.08889954 -0.013355483 0.038176667 0.04515387 0.0058807344 0.08294947 -0.048547443 -0.079591826 0.073475815 -0.017207894 0.07067681 0.068341635 -0.06347422 0.068448216 0.03632651 0.10323428 0.00484037 -0.053250104 -0.074641205 0.057455033 -0.064492375 -0.016178858 0.07675051 -0.071975246 -0.01774846 0.0599832 -0.103598095 -0.07820893 0.037822988 -0.04938055 0.038935777 -0.06379396 -0.027300473 0.07559772 -0.029249184 -0.080009066 -0.024222769 -0.04448591 -0.04494708 -0.006357316 0.053993978 0.10152706 0.005539005 -0.11221578 -0.02948839 0.018824613 -0.07038169 -0.041174665 -0.019887477 0.07200392 -0.02920352 0.067953445 0.071218595 0.02297806 0.047673274 0.09566203 0.05589442 0.05273705 -0.01229452 -0.110894285 0.00398164 -0.053229835 -0.0057495297 0.08835181 0.10932272 0.024155179 0.011723117 -0.010128943 0.024314169 0.0014396408 0.04751296 -0.049558613 -0.009057253 0.05152966 -0.10549655 0.016201036 -0.011310601 0.009755375 0.069580615 -0.049147703 0.11191735 0.10451255 -0.024622485 -0.026993029 0.029675413 0.054225225 0.08732701 -0.026763806 0.03275103 -0.084799215 0.09545426 -0.044596493 -0.051007513 0.053940896 -0.060663674 0.09963287 0.06157865 0.0463738 -0.010814411 -0.0039349524 0.0021360046 0.0012983753 0.0634901 -0.07408479 0.05592058 -0.038932003 0.07298446 0.041753676 0.039994292 -0.01397987 0.10719657 -0.01758596 0.026017064 -0.061955567 -0.013618508 -0.01182366 -0.028545635 0.104359426 -0.059460502 -0.09949656 -0.070676446 0.085811324 0.021717524 -0.075474195 -0.02384516 0.08824323 -0.013802085 0.047475457 0.08802946 -0.08177921 -0.094969764 0.04229476 -0.04967731 -0.11206422 -0.003842683 -0.09219636 0.04857317 0.045738477 -0.00816856 -0.01889459 -0.004522832 0.108429745 0.020856243 -0.037347253 0.002446104 0.076096654 -0.09080503 0.07581833 0.03813179 -0.09173948 0.049734812 0.035749402 0.105774224 -0.056026343 0.0021300318 -0.102646634 0.10282922 -0.052501872 -0.051075485 0.069704644 0.0891808 0.019199044 -0.07637926 -0.033661053 0.0970668 -0.07000302 0.08289935 0.02142638 0.06420762 -0.014344935 -0.0215404 -0.06406976 0.042841837 -0.074272 -0.058358844 0.0012287984 0.03739732 0.032744806 0.118483044 -0.103966996 -0.042214707 0.047798906 0.011785548 0.010505633 -0.010208891 -0.042418033 0.0050372435 2.4239795e-05 0.028388184 -0.0010466268 -0.0582201 -0.06446315 0.10551784 -0.015324164 -0.029286295 -0.09668106 -0.12796932 -0.005923543 -0.00951135 -0.050368182 -0.047380548 0.08015313 0.10928135 0.046897337 0.07075065 0.032427598 0.087214194 0.008588592 0.013598747 0.052761454 -0.01187273 0.11034228 -0.048707437 0.08242521 0.002565249 -0.02577659 -0.11155495 -0.03691243 0.019427959 0.05186558 -0.07096791 -0.10275262 0.05755216 0.024739671 0.083399765 0.057151295 -0.05258373 0.016435346 -0.023745941 -0.0391645 0.05370553 0.08762397 -0.013676456 -0.035543114 0.09398627 0.040547024 0.054566238 -0.010421831 -0.12005288 -0.0016866575 -0.019645954 -0.07328543 -0.03269806 0.09235593 0.07184564 0.11644843 0.07234085 -0.034911864 0.082900725 0.049062267 -0.016693866 0.0696347 0.026060615 -0.0102074165 -0.047515165 -0.023998486 -0.0010885784 -0.045992907 0.030827345 0.029501915 -0.07674372 -0.09610306 0.10979138 0.018188551 0.012857456 -0.01476191 0.092762426 0.051908154 -0.058166474 -0.11066973 -0.032727536 0.041663677 -0.069872454 -0.025536275 -0.10729437
xa -0.1606993 0.1943319 -0.09954341 -0.084180765 -0.11077716 0.092770025 -0.10845766 0.10513218 -0.08156628 0.054578424 -0.058076657 -0.12391807 0.057772283 0.10322262 0.030528566 -0.08480507 -0.2259911 -0.122619435 0.05978032 0.20506367 -0.12675981 0.07604827 -0.094810985 -0.13722387 -0.07304463 -0.0034059572 0.11409896 -0.093067355 -0.027430069 0.053635735 0.09865202 0.17852263 -0.15954678 0.06010203 -0.061556797 0.055520028 0.10775879 -0.1555176 0.101175964 0.13514374 -0.20716593 0.013275031 0.04298222 -0.1546967 0.08272261 -0.08354094 0.09531147 -0.19099137 -0.03947358 0.09311056 0.039775405 -0.10867362 0.20432279 -0.10316941 -0.08014168 -0.08063889 0.063641824 -0.12452408 -0.061888818 -0.020141523 -0.04993571 -0.06207559 -0.06338449 0.0743728 -0.17081916 0.15601517 -0.1680039 0.17145085 0.08897649 0.08276633 0.2162785 0.17959873 0.12881672 -0.14653356 -0.092219256 0.17637308 -0.13729277 0.12528162 -0.146072 0.005961046 -0.07126381 -0.014574782 0.029574895 -0.122987844 0.13027394 0.09296029 0.11715419 0.1280273 0.039837133 -0.08363103 0.10162071 -0.13070582 0.07000492 0.08177691 -0.047002804 -0.07727106 -0.1282023 -0.0110155605 0.14707045 0.09120763 0.06697692 0.120147124 0.12076618 -0.16834663 -0.095840365 0.16527495 -0.07655325 0.0036073802 0.0523509 -0.072089225 0.06650494 0.14365463 0.15359387 0.061352212 -0.027120497 -0.06325635 0.07836935 -0.11584889 -0.12967253 0.1063439 -0.06452421 -0.18293707 0.12100325 -0.12576821 -0.053052414 0.10906126 -0.11621548 0.09698563 -0.014060025 -0.12115775 -0.029806424 -0.05652572 -0.046056475 -0.1387198 -0.19315504 -0.0778351 0.12782146 0.14358063 0.09332015 0.086099066 -0.09163139 -0.14167714 0.10653065 -0.0643031 -0.10410664 -0.0842537 0.16384369 -0.09498643 0.19718197 0.03581526 0.08079647 0.18360758 0.10291736 0.038583845 0.13165957 0.16715458 -0.07787078 0.10873776 -0.1861923 -0.11055159 0.12718253 0.14175965 0.1667461 -0.10987963 -0.086961895 0.04541149 -0.12608512 0.19882685 -0.08022044 -0.14206359 0.07998678 -0.12572737 0.07387481 -0.17691393 -0.122342385 0.2115148 -0.059290342 0.07764799 0.13093963 -0.11713414 -0.13737956 0.123246975 -0.006985432 0.02102502 -0.116319835 0.042582687 -0.04460355 0.105079725 -0.07703851 -0.07060991 0.09979621 -0.042836137 0.12597859 0.11606512 0.13036329 -0.21918367 0.08949258 -0.054313883 0.0822792 0.014101247 -0.10144928 0.13677223 -0.014719592 0.13499841 0.1005505 0.11638162 -0.09896543 -0.07584958 0.15560138 0.15741706 -0.14604136 -0.16227317 0.054113377 0.06554118 0.016118012 -0.02892598 -0.09910291 -0.15174492 0.14234588 0.1499061 -0.055388454 -0.1601216 0.11507291 -0.127969 -0.07040369 0.16318724 -0.14818563 -0.180739 0.15646075 -0.1475802 -0.13606249 -0.101029225 0.037303213 0.04493793 0.09250207 -0.19045374 -0.11176494 0.056427807 0.12791811 0.10587298 -0.045501865 -0.07758493 0.12815762 -0.1243328 0.021240966 0.115753934 -0.14221579 -0.1584638 0.045897093 0.08597178 -0.012919005 0.13959838 -0.0017309084 0.16460839 -0.048562746 -0.11438682 -0.0027791115 0.16699347 0.13556358 -0.11074561 -0.11311615 0.09205708 -0.0146936625 0.045584083 -0.12622483 0.13313554 -0.185932 -0.10296584 0.007202869 0.15500906 -0.11916862 -0.13122788 0.0503092 0.09042028 0.105776995 0.1367389 -0.15776311 -0.11272285 0.031133302 0.10479365 0.071333 -0.017344499 0.06381584 -0.026499383 0.14423726 0.117971644 -0.03512028 -0.16391234 -0.13048927 0.15455283 -0.16757217 -0.106209494 -0.045100998 0.05265308 -0.10930823 -0.13227741 -0.18252686 -0.059542034 0.06697194 0.1616405 0.16362938 0.014299984 0.14962086 0.06725234 0.13162997 0.056727663 -0.14108954 -0.040880736 0.034033164 -0.06449147 0.16261752 -0.056023676 -0.12128768 -0.1657513 -0.0949737 0.17196417 0.03656418 -0.15642397 -0.054090567 0.1026881 0.06737396 0.0941718 0.088750005 -0.18193032 0.1352333 0.13400538 0.08469496 0.12689246 0.0120690325 0.021579348 -0.15624414 0.105735816 0.061947186 0.068328775 -0.08420975 -0.06590971 -0.07118111 -0.03381817 -0.055144418 -0.049754716 0.050595213 0.19799425 0.059385076 0.0077173733 -0.16436665 0.1842638 -0.022210022 -0.0650813 0.11916479 0.12674081 0.13076013 -0.03263351 -0.07090707 -0.15775464 -0.12695014 0.1246634 0.11122453 -0.0879911 -0.1817262 0.13570458 0.0446237 0.08433714 -0.14940521 0.06349699 0.10545725 -0.07174053 -0.07045344 -0.10660011 0.073321275 -0.11309237 -0.14744271 -0.1159674
ct -0.09402024 0.10090801 -0.083549425 -0.07247721 -0.12517929 0.0907041 0.03267728 0.05897538 -0.024417315 0.029377557 -0.045005962 -0.09194681 0.0062902654 0.03200853 0.13774818 -0.05104388 -0.009450474 -0.07957689 0.09933106 0.10886187 -0.113717765 -0.00513864 -0.069666535 -0.044205744 -0.06601864 -0.07634421 -0.050440993 -0.050459925 -0.023452332 -0.008288181 -0.0011614047 0.09404207 -0.05501256 0.046594664 -0.014144847 0.036226742 0.035845622 -0.057278495 0.014933703 0.12049324 0.06370201 0.024095519 0.022377823 0.00037418443 0.10122657 0.037048273 0.06698777 -0.093358666 -0.04234197 0.099241115 0.03463566 -0.016892461 0.119617715 -0.011884839 0.035374526 -0.027195508 0.045047507 -0.116203986 -0.09772552 0.06661136 0.022177331 -0.0055077425 -0.0330462 0.1030735 -0.050367404 0.059411183 -0.10371718 0.09132607 0.039443728 0.005050967 0.103549816 0.11703493 0.06659663 -0.013986789 -0.03666822 0.1188595 -0.1005483 0.058412284 -0.11242777 0.08213625 -0.05500729 0.07418417 0.0803963 0.00551041 -0.012364692 0.08285974 0.07448223 0.06922494 0.0122146495 -0.0226601 0.08281468 -0.012022865 0.03951384 0.004013484 -0.058883738 -0.026007816 -0.036972884 -0.03168447 0.01586079 0.13770129 0.037703596 0.03630149 0.07254396 0.021049796 -0.10729961 0.05561254 0.0454416 0.08675017 0.008839128 -0.014210924 0.054586794 0.05036414 0.052816086 0.0647127 0.00454473 -0.036142845 0.12180513 -0.101593725 0.015902415 0.11576481 -0.05198996 -0.016466562 0.037483588 -0.09725972 -0.03872808 0.05919943 -0.03329986 0.041423287 -0.1018475 -0.03682271 0.068757825 0.028833004 -0.04682369 -0.09365094 0.019100899 -0.077674516 0.057188757 0.035938464 0.02360572 0.023899008 -0.08441944 -0.11735114 0.038588516 -0.05958284 -0.090099044 -0.038947724 0.0410351 -0.11200571 0.058918305 0.060894832 0.01719947 0.1154919 0.082098655 -0.0038342585 0.04690537 0.06407769 -0.08234503 0.056169473 0.03861562 -0.04986739 0.11153714 0.036144737 0.10186378 -0.031527944 -0.03307436 0.065070964 -0.0241736 0.03274568 -0.04139575 0.000235149 0.047053885 -0.12089673 0.046393435 -0.06519046 -0.0026485512 0.011246574 -0.051623635 0.1258076 0.055096734 -0.13300595 -0.02531302 -0.0022855045 0.059761707 0.07679363 -0.071855515 0.08460965 -0.07431261 0.0711129 -0.020892784 -0.034940735 0.03679143 -0.038006697 0.100921035 0.03666425 0.05442731 -0.034852426 0.00472476 -0.031236747 0.044355173 0.00015665998 -0.0869929 0.04473244 -0.019928351 0.021006096 0.085595444 -0.02377953 0.008556111 0.04084394 0.020300716 -0.00043852424 -0.054245126 -0.1127585 -0.004245109 -0.014472169 0.041432038 -0.057168365 -0.062306866 -0.11357211 0.078725405 -0.044083886 -0.06304176 -0.060097598 0.07422948 -0.013331698 0.03034072 0.09733275 -0.06195662 -0.0372022 0.084931135 -0.027677255 -0.12818795 -0.08819968 -0.035346195 0.07606027 0.042594247 -0.05118185 -0.022952043 0.04488226 0.13097146 0.035556443 -0.06374892 -0.069558725 0.03223999 -0.053125724 0.033307787 0.06683937 -0.05357011 -0.036759652 0.044954095 0.08895181 -0.03690808 0.0419395 -0.11335672 0.09048905 -0.06379868 -0.10258185 0.041352145 0.07420657 -0.008509648 -0.07951268 -0.118401274 0.062337857 -0.010639772 0.05257782 -0.06018047 0.014134876 -0.015432874 -0.07425137 -0.027097512 0.058273993 -0.014622492 -0.02367379 0.015865687 0.048366174 0.039566197 0.072944455 -0.10018638 -0.080171704 0.11211716 0.057373483 -0.015340299 -0.062582776 0.03119232 -0.016152078 0.04350062 0.062323797 0.056038078 -0.07793639 -0.033552475 0.056871556 -0.058023404 -0.09453608 -0.053294845 -0.11306051 -0.06766665 -0.061602663 -0.020488523 -0.02825316 0.040569928 0.029840685 0.023657156 0.11799952 0.020677235 0.09194976 0.019266121 0.07299768 0.0041210405 -0.11434094 0.05550694 -0.12636934 0.02571382 0.0138576 -0.028541917 -0.1226439 0.010436735 0.0283824 0.0936613 -0.091582015 -0.12213851 0.06645059 0.033575993 0.046395488 0.06542603 -0.0110780895 0.05604882 0.036331493 0.038991455 0.056534752 0.043119237 -0.06568459 -0.057006706 0.043639027 0.00017779491 0.07782953 -0.023568092 -0.085274935 -0.034367874 -0.09920674 -0.113244124 -0.067441836 0.042051863 0.070970014 0.13794333 0.018892666 -0.12133323 0.12284147 0.02930882 0.0070293127 0.070860356 0.033293694 -0.0012508744 -0.07774584 -0.08860656 -0.020208014 -0.010737179 0.09477455 0.009295734 -0.020456627 -0.06557355 0.10416624 0.043087848 -0.019100701 -0.03280432 0.1049934 0.004656645 -0.008882057 -0.061334655 -0.112930275 0.095128074 -0.067748435 -0.10259623 -0.08788956
