25 372
tg -0.009397477 -0.0030255283 -0.024155697 -0.022801993 0.022022342 -0.016626753 -0.050476845 -0.0034092658 0.0016715218 0.047767173 -0.03275142 -0.044684216 -0.038586546 0.0111242095 -0.07129301 0.01709297 0.030233873 -0.061770234 0.0108434055 0.03567061 0.066027895 0.041732218 0.036920447 -0.06751108 0.04857443 0.01529083 0.025400264 0.06686301 -0.025509434 0.061750695 -0.017912438 0.04851079 -0.04930218 -0.040295944 0.01987086 -0.055417787 0.041525554 -0.01507256 0.0146532925 0.026984625 -0.044249594 -0.07102918 0.0044273194 0.03494824 -0.014212122 0.048710622 -0.03930843 -0.023122566 -0.026663844 -0.023156745 -0.06745054 -0.021618644 0.051335357 -0.0042695557 -0.037970755 0.008573591 -0.010820398 0.008961474 0.004524778 -0.057623036 0.058531635 -0.0143665485 0.0082199285 -0.0317442 0.013363443 -0.015923455 -0.020931827 -0.06442057 -0.015587436 0.026366603 0.032820646 -0.036682323 -0.013448795 -0.0042543793 -0.026258336 -0.0048650494 0.056552228 -0.02503446 -0.057597395 -0.017412638 -0.06056705 -0.021261996 0.011701732 -0.06687525 -0.013923484 0.0084716305 -0.015465816 0.019919205 -0.0052814144 -0.018162454 0.015945347 -0.023895994 0.061261542 0.023401732 -0.0027429198 -0.066626 -0.01723788 0.042163093 0.034531537 0.010093979 0.023013236 0.008450293 -0.007499062 0.045428388 -0.069771856 0.020700427 0.01723233 0.0076067867 -0.031106325 -0.027588531 0.022111917 0.027148012 0.050406933 0.045124874 -0.053017654 0.039428327 0.025292378 0.026335064 -0.0168884 -0.03493138 0.050471418 -0.014251206 0.06777588 0.018619059 -0.025958741 0.014884663 -0.0034221262 -0.029113416 0.033638965 0.0075007123 0.050646935 0.053288437 -0.052390743 0.036947485 0.03980625 0.047882583 -0.0147713125 -0.050737396 0.010275428 0.008314869 0.050279964 -0.01749924 0.025602873 -0.061280094 -0.03934844 -0.023619158 -0.037515588 0.010654389 -0.018896246 0.02021511 -0.071987405 0.011634392 0.022963729 0.04807044 -0.050483216 0.006008238 0.0011718001 0.01716879 0.014176736 -0.036090482 0.040589444 -0.0058868467 -0.0018226819 0.026931705 -0.063563555 -0.007349685 -0.046560783 -0.022677345 0.058147546 0.010522527 0.050109852 -0.038734388 0.021148354 0.06814139 0.01099625 0.069394946 -0.06762211 0.055804335 -0.015988413 0.002972364 -0.022966383 0.045857407 -0.01427955 0.041478556 0.026440883 0.068107896 -0.011080483 0.026931409 -0.050290015 -0.03374516 0.017221855 0.041849256 0.015518854 -0.0561292 -0.02556509 0.0050254166 0.02045912 -0.058196537 0.060674265 -0.041943185 -0.07171029 -0.00029388804 -0.0023862175 0.061702523 0.059916418 -0.049477287 -0.06815554 -0.016397508 0.041244153 -0.005696401 0.04306589 0.00030067225 0.006345193 0.014490548 -0.029074164 -0.058002874 -0.011850986 0.016740754 -0.057747014 -0.015763547 -0.0073359096 0.056322586 0.027047591 -0.01848144 0.013685884 -0.019964363 -0.058913536 -0.042983707 0.01682129 -0.0009006364 0.014714223 -0.010383932 -0.060529605 -0.0288633 -0.018556893 -0.016145075 -0.01982458 -0.04775388 -0.04422864 0.0056608105 -0.020244848 0.05718429 0.05982814 0.013718505 0.052365053 -0.020638933 0.07016073 -0.01715935 0.025098745 -0.042108785 -0.038517244 0.05569243 0.03878966 -0.03099731 -0.061769433 0.05001653 0.01265932 -0.0076799584 -0.012221517 -0.053772327 0.010255893 -0.0045603677 -0.07056822 0.02658215 -0.0013860938 0.010999073 0.053593956 0.053475037 -0.040031232 -0.008552894 -0.009937143 0.06390887 -0.04469558 0.049099836 0.023196107 0.032686144 0.03372679 0.024477119 0.045348912 -0.037067037 -0.007917889 -0.025953233 0.05882352 -0.027378874 0.032001954 -0.0172067 -0.01911187 -0.06992632 -0.0661019 0.015716875 -0.04045421 0.014191478 0.049944155 -0.021772187 -0.010754443 0.018489389 0.010059904 -0.06578941 -0.024669748 0.0076073804 -0.05119836 -0.00714238 -0.021031843 -0.042707153 -0.0261359 -0.010063766 -0.024309466 -0.05799512 0.009673013 -0.05216892 0.012521461 -0.013952124 -0.045534033 -0.012285824 0.00637611 -0.047356043 0.030250901 -0.011919187 0.054095224 -0.0523258 -0.02703122 0.017459916 0.009892438 0.037298348 -0.013327252 -0.06735283 -0.001092174 0.003471142 0.036305208 -0.055900343 -0.008070718 0.024764102 0.006901618 -0.017895715 0.011931399 -0.02567924 0.02261093 -0.0010827181 0.031783372 -0.016867386 -0.05278701 0.0044483915 -0.053917985 -0.030862425 0.04501158 0.032648683 0.056384914 0.031445026 0.015574853 0.052176468 -0.04726342 0.013574219 -0.06384939 -0.015655568 -0.015742652 0.062450517 0.052307364 0.03139319 0.058121327 -0.018671475 -0.0011551 -0.014513411 0.016666068 0.060160343 0.024895841 0.022996858 0.06892188 0.014338291 -0.0014664772 0.0019722641 -0.022219555 0.018058175
tx -0.07590679 -0.04385023 0.048653644 0.08581213 0.039289318 0.054100845 -0.08966058 0.08243265 -0.039324198 0.12662323 -0.089307085 -0.029611757 -0.025211867 -0.024961114 -0.047734473 -0.099506445 0.09754038 -0.07329612 -0.07079932 0.05267586 0.100535005 0.12371471 0.08235139 -0.084132545 0.09971378 -0.11802383 -0.0835937 0.121600896 0.07989271 0.09898148 -0.08307582 0.11071994 -0.13016464 -0.08638747 0.053205363 -0.029264014 0.06825921 -0.11878271 0.10959248 0.084034175 -0.029955005 -0.08824301 -0.07627556 0.10423536 0.07315664 0.05095312 -0.06407721 0.09800245 0.10686127 0.104064375 -0.086410165 -0.05633888 0.10534464 0.11304089 -0.10662139 -0.07519328 0.08317496 -0.11667625 -0.10733604 -0.06532672 0.06567449 -0.07922097 -0.08808508 -0.100301996 0.059183422 -0.13127927 -0.054277882 -0.12784219 0.091274105 -0.119136356 0.037324276 -0.05837642 -0.023280649 -0.12165068 0.06952386 0.044822805 0.12251634 0.077638686 -0.13168825 -0.08830338 -0.038293134 0.08215404 -0.027636765 -0.04808899 0.07161595 -0.044045847 0.08558853 -0.095943116 -0.036304582 0.045225766 -0.039456468 -0.0934 0.0401627 0.07513827 -0.08541498 -0.038261686 0.09735462 0.050149173 0.108510904 -0.03339598 -0.052657254 -0.048161678 -0.041457515 0.105167404 -0.11220438 -0.041881498 0.081074566 -0.03714298 -0.044679172 -0.08087703 0.03406599 -0.11112362 0.08499662 0.040066525 -0.10440494 0.1122106 -0.086770475 0.11698527 0.074255005 -0.06099614 0.12335504 0.055298485 0.043448515 -0.058850646 -0.031128682 -0.09289806 -0.08082446 -0.1312058 0.07898798 -0.10903602 0.07584938 0.113070175 -0.09625746 0.08474374 0.06394883 0.06625499 0.06392581 -0.08978222 -0.06973033 0.034678627 0.031425808 -0.09584469 -0.04830718 -0.0712209 -0.060241975 -0.11608995 -0.12665944 -0.09280665 -0.11631589 0.09430253 -0.038492 -0.078058705 -0.090710714 0.07676541 -0.110390805 0.09976399 -0.117285356 0.019119266 -0.112338826 -0.09026868 0.039609354 0.10145074 0.10980868 0.110401765 -0.075863965 0.042366944 -0.08676 -0.109412394 0.10636607 0.069184266 0.1227943 -0.10607389 0.094862625 0.018558165 -0.044464532 0.116103485 -0.10817127 0.11349451 -0.088459946 0.11218432 -0.043564513 0.09022163 -0.02840477 0.065865375 0.07182879 0.05703383 0.07844512 -0.10410877 -0.035619527 -0.038975168 0.09613614 0.12882784 -0.106501885 -0.1262736 0.12435711 -0.07163224 0.07372777 -0.09837337 0.060723267 -0.07971861 -0.06838897 0.10680384 0.10836146 0.101342976 0.1260349 -0.11122749 -0.044769812 -0.085807815 0.097871736 -0.044982307 0.112343125 0.09137361 0.07885396 -0.05314732 -0.10103966 -0.06438083 -0.11770281 -0.032467786 -0.08855117 -0.1158892 -0.0136411255 0.05189035 0.07359251 0.060696874 0.027343633 -0.035367176 -0.09474282 -0.095876396 0.06937862 -0.12750238 -0.1075165 0.10049272 -0.08397316 -0.06207801 0.10652231 -0.082938716 0.05565398 -0.11779715 -0.06823205 -0.040213395 0.07319228 0.04136524 0.102919 -0.054077044 0.058590703 -0.049257822 0.10664384 0.12014408 0.046917547 -0.070414856 -0.054148264 0.094147645 0.017138643 -0.048758995 -0.033969987 0.11495073 -0.090896234 -0.04342919 -0.057767183 -0.06383115 0.100425445 -0.08036313 -0.090342075 0.07205567 0.05920643 0.09322417 0.07435766 0.10942648 -0.034884643 -0.031308725 -0.10031695 0.09143518 -0.088519596 0.10054367 -0.121579185 0.101811804 0.065615654 0.11095296 0.10797629 -0.08725382 0.106131844 -0.058764737 0.10805501 -0.06267661 0.10645885 -0.10261886 0.03670359 -0.063985325 -0.021529555 -0.12799072 -0.10186398 -0.11483377 0.121880285 -0.052931033 0.09608173 -0.09001293 0.06810743 -0.03933072 0.089100674 -0.122578606 -0.099430524 0.061267767 -0.045216665 -0.027170956 0.08945147 -0.10503934 0.09588079 -0.10234521 -0.07914905 -0.10291505 0.035597112 0.12030461 -0.08810914 0.12881951 -0.06642492 -0.043441422 0.10011662 -0.01099146 0.086419925 -0.076853424 0.08617465 0.029286735 0.036199212 0.081339784 0.04184844 -0.07674574 -0.09251863 -0.05299241 0.03713073 -0.100336455 0.101947196 0.08007102 -0.05000596 0.056353584 0.064448886 -0.03538485 -0.06512074 0.10737616 0.07767858 -0.08908432 -0.0846059 0.08198042 -0.03741674 -0.0929352 0.093539365 0.037682973 0.099622965 0.04488823 -0.10756502 0.04077521 -0.121839225 -0.052149966 -0.11197018 0.07572411 0.08654259 0.08801799 0.09943627 0.08471889 0.1300461 0.032864135 -0.10548084 0.108690284 0.11233461 0.059270088 0.11474405 0.043986984 0.028963838 -0.059974287 -0.09031411 0.11803063 0.11321514 0.028448712
ga -0.012277662 -0.0010673031 0.02282833 0.02894247 0.03387598 0.048630375 -0.046323333 0.046318617 -0.021411436 0.06234432 -0.024934284 -0.04659068 0.029236004 -0.05137576 0.0052102306 -0.047504894 0.043424632 -0.04462712 -0.039758846 -0.038869243 0.046269882 0.014174616 0.006571238 -0.012457137 -0.008345548 0.002799607 -0.007420784 0.047848992 0.021677772 0.038761474 -0.052679677 -0.018352486 -0.041214153 -0.007028884 0.05403137 -0.03522002 -0.0013147619 0.03156306 -0.030344939 0.053974453 -0.03650527 0.024055218 0.018711299 0.047228217 -0.014846989 -0.013963001 -0.041911654 -0.005061508 0.062041294 -0.014620763 -0.059081025 -0.010230846 -0.006513889 -0.027374772 -0.00026786193 -0.023460494 0.053145003 -0.046560917 -0.052403983 0.0087131215 0.0052283774 -0.043160334 0.022243368 0.02414543 0.019370265 0.022271939 -0.02621729 0.008565672 0.001492837 -0.013227787 -0.031022403 -0.013572318 -0.0420987 0.03559395 0.025644977 0.014345712 0.054432295 -0.018030433 -0.015127708 -0.041508373 -0.021223564 0.06237925 0.038119312 -0.03691198 -0.03683449 -0.03253716 0.018639088 0.023039173 0.027300673 0.039799895 0.015334148 -0.038812976 0.038861584 -0.010926864 -0.049214866 -0.05762105 0.030927204 0.0013523155 -0.005909828 -0.032010507 -0.033371497 -0.012860243 -0.00714821 -0.0039987094 0.008966794 0.004868608 -0.026755583 -0.049022663 -0.03488109 -0.0003171082 0.024218915 -0.0074442415 -0.012193941 0.05058345 0.023676047 -0.036090393 0.038360234 0.012817604 -0.013017065 0.03424782 0.05444016 0.001235188 0.055703286 -0.013799776 -0.02139859 -0.027218599 0.007963584 0.016432695 0.005283883 -0.014286291 0.055511385 -0.0116763925 0.021271866 0.032389022 0.048307445 -0.022486381 -0.0127460025 -0.009826028 0.0017955754 0.041550696 0.019962484 0.018660206 -0.032875665 -0.0295896 0.015210358 0.029232236 -0.011703965 -0.0183189 0.028154692 -0.038399134 -0.03796974 -0.04000218 0.016538624 0.055498485 -0.014816793 0.05275027 0.008885614 0.013180853 -0.045058586 0.010055588 -0.03579293 -0.0008032434 -0.024443625 0.039572004 -0.037650738 -0.01450227 0.011353765 -0.054426063 -0.029589986 0.056404855 0.03135729 0.026330888 -0.023685662 -0.011852471 -0.04142209 0.015686719 0.0384462 -0.033788886 -0.046656884 0.031546153 -0.0012799093 0.0019846908 -0.060668785 0.0435438 -0.031230628 0.046212263 -0.028855145 0.038967222 -0.047269475 -0.020834077 0.052495524 0.050054673 0.016849462 0.019597098 0.0036754487 -0.024387741 0.019303866 -0.03712228 0.01522378 0.023214867 -0.030956358 -0.029346313 0.03879703 -0.027955515 0.021215212 -0.044107996 -0.057457954 0.0049449415 0.050561797 -0.017214287 0.06280069 0.037736714 0.009043188 0.030287428 0.012908568 0.0021946495 0.009739614 -0.050522543 0.0076459413 -0.008205328 0.007866098 -0.004888169 -0.0020237165 -0.03398108 0.0216246 0.019871445 0.02951688 0.01442684 -0.013181072 -0.05466409 -0.0344184 0.010163226 0.008341097 -0.024554979 0.00926613 0.035256602 0.02085959 -0.01077173 0.02127418 -0.02917562 0.024548648 0.043918706 -0.02373461 0.01601634 -0.032160446 -0.047255304 0.025437083 -0.0058435937 0.004204528 -0.03559927 -0.0409662 0.024963971 0.0020831726 -0.0059727496 0.019037113 0.03705402 0.02455379 -0.02497351 0.016048355 -0.0068531753 0.03224763 0.019541029 -0.02414537 0.03607302 0.006272388 0.049574118 -0.034505617 0.005137128 -0.019511584 -0.048645403 -0.011930295 -0.021064993 0.011082631 -0.01606704 0.009734619 0.015883144 -0.016176455 -0.028667556 0.05008117 0.0027140875 0.0065209838 -0.020503346 -0.026373956 0.020035023 -0.015746193 0.019008128 0.011990788 0.021062186 0.030460568 -0.027175788 0.036761876 0.021528987 -0.0074438006 0.027534332 0.009977521 0.036622178 0.021492697 -0.045284178 -0.017006746 -0.059279155 0.0073233494 -0.030974356 -0.038579207 0.025049288 0.05637522 -0.016648106 0.0111197205 -0.052311182 -0.06065462 -0.0494538 0.059221614 -0.019893523 0.024604307 0.04368269 -0.05953684 -0.0030634634 0.05793386 0.008244003 0.048506174 0.005057283 -0.0019227181 0.0054421555 0.00092229765 -0.026474543 0.006130154 -0.027826715 -0.009058393 0.016636856 0.032250583 0.016259737 -0.0071085733 0.029316029 -0.052323017 0.028397365 0.05074093 -0.022589937 0.019971132 0.015392091 0.039957177 -0.05451308 -0.04749438 -0.020061534 0.01880129 -0.042928457 -0.00617987 -0.036322042 0.008601255 0.035284813 -0.029202953 -0.008499177 0.01754704 -0.03249791 -0.015907254 0.010550427 -0.033814337 -0.021008091 -0.0012041496 -0.020949276 0.059949216 0.039375294 -0.029028485 0.04817905 -0.00034167423 0.0126657225 -0.03614058 0.029811021 0.028302535 -0.028449625 0.015430238 0.028232943 0.024264695 0.03567923
ax -0.105540864 -0.07480451 0.10403118 0.084825724 0.10447963 0.029446485 -0.102933265 0.117636204 -0.10900996 0.105294436 -0.08846588 -0.08706863 -0.049143508 -0.051550936 -0.09142974 -0.09951988 0.04345182 -0.1164277 -0.028379524 0.04363634 0.029124493 0.0999151 0.11294771 -0.09688341 0.09607047 -0.050193273 -0.11301579 0.09059692 0.104182996 0.09489213 -0.110085025 0.10176256 -0.046351492 -0.07127347 0.08396897 -0.10498608 0.008575419 -0.11648874 0.07245345 0.12097063 -0.033425048 -0.08480525 -0.04393794 0.04523845 0.098422036 0.11356682 -0.076020636 0.040224202 0.116811186 0.022428052 -0.09283008 -0.04266933 0.05617624 0.115144916 -0.116920084 -0.05670804 0.11698148 -0.11057792 -0.08356 -0.030896857 0.023245953 -0.04812241 -0.034158155 -0.0750935 0.12861174 -0.023055827 -0.05833974 -0.09780563 0.058473002 -0.10427601 0.11379535 -0.028194675 -0.09271038 -0.073433034 0.08063894 0.11476452 0.028225366 0.11950692 -0.079598695 -0.11270562 -0.08486505 0.06998169 -0.092871346 -0.11227311 0.06034741 -0.048030242 0.065425426 -0.044294704 -0.09822385 0.12416807 -0.09742069 -0.09524921 0.1129336 0.12185251 -0.07082205 -0.0823613 0.0765977 0.099396646 0.06819362 -0.056566153 -0.11307041 -0.11366207 -0.113678195 0.09636982 -0.10888739 -0.12112194 0.06486287 -0.06210877 -0.06002798 -0.037438355 0.075451255 -0.099608414 0.108110815 0.085801356 -0.11441142 0.1178325 -0.06456771 0.03161357 0.10363159 -0.056099743 0.09956851 0.051451698 0.07325883 -0.10513933 -0.106333025 -0.12754644 -0.08453572 -0.10620962 0.11691366 -0.029811693 0.07417588 0.08016034 -0.03639144 0.026528016 0.10965626 0.12795958 0.019278094 -0.020641904 -0.043517698 0.044438276 0.04966864 -0.032941032 -0.047191255 -0.030675713 -0.10502563 -0.06295966 -0.11063553 -0.058563683 -0.11528089 0.025840785 -0.07250346 -0.059873868 -0.112945154 0.10450607 -0.07653377 0.045170937 -0.07959365 0.08736716 -0.05793836 -0.09070887 0.101113096 0.08570903 0.028719297 0.091912076 -0.10875596 0.08461002 -0.10286967 -0.0940206 0.09101268 0.04426785 0.07397346 -0.09190996 0.084087886 0.09780547 -0.073460236 0.120394476 -0.0681655 0.08004753 -0.08451786 0.0274054 -0.068226874 0.040476967 -0.07130852 0.09566083 0.092927784 0.12406002 0.056210134 -0.081815355 -0.07005253 -0.071796015 0.10748508 0.06521977 -0.032562617 -0.103141144 0.049855296 -0.08602503 0.11793386 -0.09864614 0.052784294 -0.118675336 -0.09358144 0.097662665 0.05107903 0.08211855 0.10225286 -0.054044064 -0.07902056 -0.10024159 0.06968943 -0.06999131 0.11723161 0.114931904 0.10552696 -0.11432285 -0.066047795 -0.08534826 -0.09705458 -0.07566719 -0.062386584 -0.09994649 -0.08945268 0.08342559 0.11889019 0.0859534 0.0726269 -0.1069026 -0.04508866 -0.06993441 0.10903259 -0.11196549 -0.041453797 0.010064221 -0.06522644 -0.0764265 0.05817913 -0.11109849 0.07134329 -0.11700052 -0.099392526 -0.11779491 0.1210454 0.070790365 0.10166008 -0.052451383 0.048241902 -0.06483337 0.085416205 0.044886936 0.07151588 -0.061928034 -0.11543887 0.11378752 0.025793307 -0.042856723 -0.07262135 0.047948707 -0.04932283 -0.050859746 -0.014895663 -0.0796846 0.08403296 -0.059102513 -0.06809444 0.077388845 0.09885187 0.016525224 0.05495648 0.072339356 -0.10863049 -0.08852662 -0.05430957 0.11050454 -0.061986458 0.026389537 -0.06305422 0.10979594 0.048512064 0.09786922 0.066072896 -0.124240756 0.0926808 -0.07875718 0.056698967 -0.09161646 0.09031003 -0.09785637 0.102932885 -0.07343304 -0.05991626 -0.055020057 -0.027537 -0.09297629 0.11489913 -0.056658424 0.122574195 -0.055900753 0.03327522 -0.07667712 0.090522364 -0.08097415 -0.10169185 0.10884208 -0.07736225 -0.05681385 0.07167822 -0.1068991 0.068569735 -0.08106087 -0.09625438 -0.09773734 0.0355479 0.100038104 -0.02754428 0.040903967 -0.09752734 -0.068059094 0.038927194 -0.113935016 0.08449406 -0.026062377 0.04897208 0.0712821 0.08728774 0.020730454 0.103793174 -0.09150028 -0.07111704 -0.054804105 0.0732382 -0.092438765 0.07564408 0.11259624 -0.063188374 0.06513216 0.11670397 -0.10204989 -0.11594525 0.030137088 0.10837829 -0.05283157 -0.10258549 0.09301322 -0.10651091 -0.039112292 0.10451449 0.06618666 0.026049614 0.08770487 -0.111571096 0.031150812 -0.029847136 -0.103189744 -0.03446023 0.1191384 0.05743435 0.05119772 0.08575457 0.048543688 0.08248067 0.06360392 -0.0784233 0.10595557 0.12487554 0.110456616 0.042810038 0.102554575 0.11699012 -0.056283526 -0.052986883 0.05848971 0.038851 0.09235936
gt -0.0061342437 -0.02943648 -0.022615544 -0.023180915 -0.01844904 -0.015853848 -0.029945597 -0.007099796 0.03432696 0.016218098 0.019957405 -0.012755269 -0.05353246 0.023242295 0.020878999 -0.054235864 0.016931918 -0.030558545 0.018127553 0.04182363 0.056465745 -0.0301581 0.0041496796 -0.016996043 -0.022845434 -0.024773717 -0.057496052 0.004224811 0.03581074 0.00051595987 0.017324122 0.047084764 -0.061112005 -0.027265511 0.0015003148 -0.0018640531 -0.016542383 -0.028535347 -0.014452022 0.050026994 0.026746139 -0.01888778 0.0022773917 0.002473067 0.03518936 -0.009214639 0.029379617 0.009586399 -0.011674226 0.054799203 0.00036688958 0.011622482 -0.03201062 -0.012022748 -0.022564601 0.036291696 -0.013332928 0.024782863 0.017169384 -0.008685425 -0.017471371 -0.052299805 -0.0012733135 -0.049969215 0.038906924 0.0014440215 -0.018366897 -0.051696725 0.05254877 0.011128675 -0.012734909 0.019884918 0.027073652 -0.056752056 0.038987014 0.016327402 -0.006788007 -0.032578476 -0.027389444 -0.052085306 -0.0025218513 0.05342665 -0.006757401 0.019879438 0.008154813 -0.059363727 -0.007164531 0.014456052 -0.04682368 -0.02999487 -0.042806976 -0.041109417 -0.010209927 0.0035990218 0.028311353 -0.007041103 -0.02653746 0.034016535 0.017948957 0.027571747 -0.0144106345 0.004866938 -0.0025083958 -0.013603738 -0.034991246 -0.044021934 0.030610153 0.02726367 0.021081248 0.008966674 0.03199603 -0.013260973 0.04226411 0.018836653 -0.017589722 0.023405837 0.021197082 0.003925252 0.010151307 0.02350486 0.012030313 0.008587261 0.012301626 -0.011915101 -0.029489374 -0.061302207 -0.011383766 -0.050270997 0.008866853 -0.0083657075 -0.018421657 0.043166798 -0.01938381 0.038036063 0.008522748 0.056438085 -0.03111774 -0.045200225 -0.026781173 0.016360639 0.03512579 0.010873737 -0.05963848 0.023207245 0.021132274 -0.031194197 0.0057554925 -0.05386493 0.0105816 -0.00598178 -0.04313884 0.01146053 0.034337595 0.017455813 0.00531452 0.058431357 -0.043303534 0.044799 -0.03729453 0.02808516 0.06280797 -0.02121021 0.02176822 0.037181728 -0.03279179 -0.02057585 -0.038956247 0.015752552 0.011029141 0.061449334 0.012431753 -0.037607756 0.02188212 0.051711977 0.014768 0.042251594 0.035692062 0.060602024 0.0042485893 0.03960428 0.019010274 -0.025272429 -0.04805157 -0.030966029 0.04208951 0.05504209 0.02692661 0.022702225 -0.030366044 0.026579617 0.032848936 0.004877634 0.0048408485 -0.0047069215 0.021139193 0.02631476 0.03565527 -0.010091094 0.029627962 -0.04738323 -0.01708318 0.01068298 0.018074434 -0.023773132 0.018528821 -0.013508339 0.024578748 -0.05814138 0.0024075285 0.026520012 0.00035835913 0.05861799 0.057502102 -0.02539339 0.007605538 -0.036966417 -0.050829515 -0.017043028 -0.050875016 -0.057674352 -0.03359633 0.02888135 -0.010429557 -0.012651649 -0.01724248 -0.021109223 -0.05618047 -0.005725138 0.04195185 0.035589244 0.008374056 -0.023456229 0.0054446943 0.009968266 0.0032233945 0.028713688 -0.006570928 0.034600575 -0.022153927 -0.043619137 0.018084276 0.013851904 0.035785574 -0.05511462 0.05474539 -0.02184482 -0.001699809 -0.00044551375 -0.01039242 -0.051053338 0.019918919 -0.00014059094 0.025130697 -0.007939134 -0.04420053 -0.030665612 -0.012054263 -0.056704823 -0.040727463 0.0065251514 0.053803243 -0.0063588168 0.016769173 0.026852636 0.03951472 0.009555433 -0.022356704 -0.01303226 0.009801879 -0.0015369009 0.025050035 -0.023682656 0.014705437 0.033703916 -0.027679656 -0.028624184 0.04197386 0.061369393 0.0395658 -0.025536792 0.029457219 0.016690802 0.018745745 -0.057779536 0.043222778 0.015541559 -0.0008817247 0.027056906 -0.016274296 0.017438047 0.027494887 -0.0011171086 -0.019342525 0.012561082 0.03500294 -0.058316443 0.027802022 0.014540551 0.007858331 -0.026945947 0.024467157 -0.020359201 -0.0012008301 -0.0010654125 0.022903537 -0.013735371 -0.016690407 -0.04775294 -0.057761203 0.00025838846 0.002202101 0.055991042 -0.021471433 0.048524365 -0.026780777 -0.03653788 -0.0324438 -0.0028466957 0.05530693 0.0335311 0.016267637 0.0459876 -0.022817226 0.05255697 0.056067973 0.035562407 0.0039498713 -0.007382828 0.018722257 0.008104083 0.03812548 -0.00027285086 -0.03338085 0.030216549 0.040708963 -0.009581752 -0.0042112684 0.022383334 0.031281833 -0.0010759603 -0.020145893 -0.030438742 -0.041945416 -0.027010918 0.028906196 0.035719622 0.05684904 0.00792098 -0.021775205 -0.009521143 0.00920628 0.018937638 -0.0120199025 0.019439584 0.050203893 -0.031589147 -0.011790532 -0.025531031 -0.018889932 -0.011736023 -0.04138233 0.06082894 -0.0070310486 0.029318513 0.05293273 -0.0015047253 0.030071026 -0.015908815 0.030151483 -0.03577915 -0.035096586 0.048639525
ca -0.02618451 -0.040956143 0.022455022 0.029154994 -0.020782132 0.06915358 0.024014048 0.032302603 -0.06467446 -0.02144226 -0.007313723 0.024505535 -0.023365092 -0.0667612 -0.06625583 -0.041166693 0.024706617 -0.04580465 0.02130655 0.05121762 0.011035549 0.03220726 -0.0070421468 -0.049870115 0.044692017 -0.059664942 -0.055976372 0.059148204 -0.020591235 0.065497115 -0.04377 0.057069995 0.02157786 -0.0047544274 0.03896448 0.0039968924 -0.012500838 0.022840211 0.051738363 -0.009432699 -0.06642669 -0.06263131 0.0064813695 -0.0072192573 0.0304438 -0.0075264922 -0.01352146 0.017705083 0.003720227 0.046200585 0.02061867 0.013046308 -0.00637771 0.0412443 -0.013040923 -0.021297159 0.01785454 -0.029737238 -0.004689027 -0.031504486 0.06359533 -0.039127205 -0.014596517 0.023409016 -0.0041287425 -0.05527783 -0.03518969 -0.06981937 0.0014614778 -0.0074022906 0.00021374536 0.02270641 -0.033672135 -0.006498083 0.027493102 0.03164109 0.05061911 -0.01082835 -0.025797207 -0.031314064 -0.019290501 0.021201286 -0.025011638 -0.061676983 -0.014645897 0.009106975 -0.007970749 -0.0493276 0.0004423181 0.018651707 -0.01995743 0.010739364 0.011646648 0.029776098 -0.04112629 -0.07285203 -0.024486484 0.05769379 0.033058144 -0.036884055 -0.030577369 -0.010417383 -0.06277628 0.034294385 -0.051137466 -0.021543294 0.0026721754 0.017702814 -0.030781297 0.0034925505 -0.027491014 -0.016016334 0.014575244 0.010899989 0.007164916 0.019385727 -0.050791312 0.0077215508 0.049867615 0.009423645 0.06845868 0.028263098 0.013099491 0.01912442 0.003908718 -0.0149016045 -0.024407802 -0.012459971 0.0036355709 0.015494764 0.0080571035 0.032835294 -0.003981714 0.029947616 0.063706934 -0.017990155 0.02240902 0.0049088825 -0.012927298 0.042058323 -0.013724546 -0.01610296 -0.040746946 -0.03409591 0.0147390375 -0.014357733 -0.066681415 -0.031111244 -0.023312664 0.06593738 -0.014808003 -0.053318437 0.0067489645 0.021276338 0.0061838725 0.017209891 0.0068153157 -0.0054260534 0.022307515 0.01332218 0.043734662 0.013901001 0.053012352 0.029805658 -0.048461135 0.00037656951 -0.058371697 -0.035696194 0.005371954 0.009444976 0.01982869 -0.05313187 -0.020084437 0.07166459 -0.03034413 0.034107417 0.022382157 0.022125958 -0.037748717 -0.016629457 -0.07300645 0.018667053 0.0054762876 -0.003341448 0.04548701 0.01547192 0.061656322 -0.055861432 -0.013843325 -0.06966923 -0.0036319366 -0.034140907 -0.027779266 -0.060472254 0.00036919734 0.021190528 0.021278445 -0.019874675 0.070388384 0.015592806 0.010134203 -0.013029582 -0.0051683756 0.052528802 0.012250847 -0.04248314 -0.006224303 -0.05705559 0.0013241278 0.026884813 0.025387663 0.028197534 0.0665403 -0.056831688 0.0051670074 0.023988346 -0.0026610794 0.00033752888 -0.054064523 0.019260779 -0.021881396 0.062265914 0.024931801 0.054885693 0.06078465 -0.0022864435 -0.062729806 -0.021467004 0.02714577 0.026011351 -0.06217761 0.050373867 -0.062639475 0.02783687 0.014467897 0.0029731337 0.057611242 -0.06840908 -0.07151899 0.013484735 0.053494953 -0.02815767 -0.0016945289 -0.03688789 0.057029217 -0.033580214 0.038102303 0.010836808 0.025661847 0.011221589 -0.0009942477 0.019438481 0.058382466 0.006409923 0.027442494 0.014780035 -0.0143510625 -0.05641014 -0.0015398804 -0.061423916 0.029021244 0.0074027525 -0.006345519 0.019466639 0.057001278 -0.019420749 0.052917797 0.018953767 -0.061339393 0.024940457 -0.02223282 0.06210914 -0.011267456 0.05659462 -0.071720816 0.025921857 -0.02364507 0.03276388 0.02653768 -0.049803216 0.039994776 -0.07151024 -0.023285262 -0.0029406059 0.031557754 0.027150614 -0.011401434 -0.06030934 -7.2109106e-05 -0.039416783 -0.06323901 -0.057034697 -0.013205405 -0.056712188 -0.015345948 0.021672988 -2.1471904e-05 -0.009355356 0.026558902 -0.0049917228 0.0043405914 -0.011125179 0.014361512 -0.031772412 0.033228673 0.0052315122 -0.009908356 -0.023644907 -0.007338768 -0.011076332 -0.005090973 0.01128396 -0.06491074 0.013035054 0.006934313 -0.07157967 -0.014242048 -0.0077385916 0.04420355 0.020773908 0.03945473 -0.015155409 0.010587554 0.0030791254 0.0064603356 -0.07306817 -0.016949065 -0.046409223 -0.005481705 -0.065243155 -0.014281638 -0.005073955 -0.027381305 0.06467686 0.04883105 -0.012981987 -0.045201026 0.013781857 -0.015221785 -0.036487944 -0.009046932 0.008846982 0.007126968 -0.0030900436 -0.011160742 0.046338998 0.049758933 0.028911514 0.0049407207 0.020441307 -0.036542825 -0.054479364 0.012333162 -0.016247183 0.051353462 -0.02319022 0.069120556 0.06171375 0.011231351 0.054691624 0.023907745 0.06364674 0.00867702 0.054709207 -0.01607253 0.07350843 0.02745392 -0.046705645 0.017494865 -0.020725453 0.047544435 0.064304896
gc -0.03483082 -0.03102311 0.026241098 0.0069074035 -0.039573193 0.027702931 0.017363343 0.036759984 0.024398413 0.025352169 0.013758805 0.028069641 -0.022712111 0.026661184 0.013337303 0.03326938 -0.04044478 0.008691035 -0.03275416 -0.03506986 0.024056662 -0.027201092 -0.011191834 0.014791977 0.0036211833 -0.007777892 -0.028764129 0.009456672 -0.027407814 0.03237701 0.013318431 0.0095708 0.047263395 0.03659368 0.0018924251 0.038386893 -0.027847279 0.02712107 0.033990536 -0.024233365 -0.014304806 -0.028256714 -0.036517143 0.026597861 0.04095148 -0.018950224 0.030784357 0.04615808 0.0070872083 0.04566193 -0.036895655 -0.027119566 0.0055209026 0.0075844154 -0.042519342 0.006173622 0.006581079 -0.039443813 -0.006390035 0.030431721 0.025323141 -0.011146713 0.02618381 -0.029425895 0.007380247 0.016207483 -0.042895105 0.044141743 0.040088367 -0.021019602 0.036893044 0.043391537 -0.0039134994 -0.0019038543 -0.0033190623 -0.0368297 0.02918407 0.0046930313 -0.017636668 -0.019499898 -0.0045632347 -0.007866215 -0.01325383 -0.046483196 -0.007058561 0.048692275 0.010943007 0.04538553 0.029253986 -0.040991507 -0.028027583 0.0042779073 -0.04493457 -0.010615148 0.0037758127 -0.028993249 -0.030132687 0.009591043 -0.007915102 0.048836146 -0.032580424 0.04680607 8.764118e-05 -0.038471818 0.014144037 0.011021934 -0.010260999 -0.03756715 0.042007003 -0.008738197 -0.021318972 0.027589109 0.034742538 0.014473271 -0.011739623 0.042029772 0.046711553 8.799136e-06 0.033668745 -0.03802954 0.020627532 0.016992602 -0.03744496 0.02034216 0.018777821 -0.03067981 -0.016068816 -1.8142164e-05 0.033265326 0.049279783 -0.015735637 -0.028802587 -0.0047341473 -0.0046583638 -0.046147514 -0.030574966 0.047011722 -0.023295451 0.027068805 0.0060960427 -0.034544837 0.016814139 -0.04362713 -0.021597862 -0.041884076 -0.02884077 0.004616011 0.00639876 0.022178892 -0.029483616 0.041134443 0.040774953 -0.014768291 0.022900354 0.0149955265 -0.008758508 -0.030969143 -0.018382154 -0.020944608 -0.032060325 0.016014602 -0.027024806 -0.016426492 -0.038377296 -0.036530375 -0.033948734 0.03752419 -0.0022266395 0.03212512 0.035752226 -0.029180646 -0.03494128 -0.04159726 0.039559174 -0.020331515 0.028358433 0.007990323 -0.0019025914 0.029127885 -0.04836316 0.013510589 -0.030915296 0.04003754 -0.02470014 -0.023768747 0.026771594 0.047059584 0.032877233 0.026020553 -0.016448878 0.0077489987 -0.027839804 0.022798289 -0.023694372 -0.021191955 -0.0241745 0.01025201 -0.029911233 -0.032248963 -0.04297024 0.013392035 -0.048417486 -0.029951645 0.034272682 0.0039186478 0.039389815 -0.027815271 -0.04022473 0.02303246 0.015281405 0.032226924 0.04507753 0.008934535 -0.018256523 0.02755573 -0.027867472 -0.0034721494 0.036676157 0.022308026 -0.047269143 -0.045510065 0.046434175 -0.00762875 0.006909538 0.04325484 0.037741173 0.039359275 -0.015934944 0.02054656 0.04717784 -0.021315563 -0.03750191 -0.0376526 -0.013378479 0.022002902 -0.021677649 -0.029862667 -0.006293975 0.034143496 0.007474266 0.031807456 -0.010142289 -0.0050982945 0.022795286 -0.04242591 -0.0057721958 -0.0019863471 -0.0005619414 0.029468808 0.03430367 0.018672716 -0.036584616 -0.015221905 0.014479246 0.021146405 -0.018165566 0.04394635 0.04461174 -0.0038905367 -0.014893889 -0.04719199 -0.0057181492 0.022676539 0.009600032 0.008612741 0.03871086 -0.020035446 -0.0032751933 -0.047751963 -0.0372741 0.04419371 0.04468501 -0.041376017 0.020297434 0.014516201 0.036321174 -0.035834394 0.025299694 -0.014305271 -0.040247966 -0.011241101 -0.010241769 -0.03341919 -0.030172551 -0.0064053647 0.010532748 -0.04815185 0.0030817762 -0.038537644 -0.007909261 -0.03761933 -0.042928517 -0.04333022 0.029199008 0.021191921 0.049405847 0.00089870766 0.03826907 -0.017257057 0.008730434 -0.00021979958 -0.044377137 -0.013503622 0.0140081085 0.048192147 -0.016920935 0.0034227148 -0.014198996 0.04006804 -0.040791653 -0.030187322 -0.04277548 -0.042826902 -0.03808912 -0.01532831 -0.048023142 -0.015400507 -0.043129433 -0.023550833 -0.0040697344 0.04445881 0.03142179 0.019468356 -0.014364827 0.008809637 -0.009618282 -0.009458505 0.027908754 0.0042149536 0.033781085 -0.047899198 0.026355352 -0.008695841 0.033259537 -0.0387833 -0.005537629 0.03034873 -0.044155132 0.017304014 0.04511441 0.017979633 0.003605485 -0.016799677 0.048210826 0.049844358 -0.033823155 0.005085446 0.045102153 0.032952372 -0.03171388 -0.045184743 0.033302676 0.0117403045 0.038299266 -0.007584773 0.003218066 0.0052407607 -0.002626311 -0.02974292 -0.003325332 -0.016773619 -0.011160016 0.025770519 -0.02956803 -0.021995222 0.0015420802 0.007031858 0.043230746 -0.04481677 -0.0014137849 -0.04912863 0.00759976
cg -0.054026898 0.0045576016 -0.024095444 0.03217492 0.0131659955 0.038034663 -0.05757591 0.07374571 0.019034589 -0.020833584 -0.040828947 -0.028632885 -0.016676452 -0.019572172 -0.042478345 -0.039327815 0.01897286 -0.0116322115 0.024335504 0.041011043 0.043800432 0.062492035 0.030165995 -0.030507341 0.013991874 0.0028581636 -0.05717665 0.04848252 -0.015899036 0.018032646 -0.048155446 0.0019029919 -0.034678124 0.021610335 0.023127582 -0.01861592 0.048774164 -0.054557074 0.045551676 0.046657704 -0.032448635 0.025102127 -0.011833384 -0.011028643 0.031104967 0.01905217 -0.014558697 -0.009123809 -0.005013698 0.016202243 -0.038984906 -0.05884407 0.057396013 -0.00043921347 -0.041811675 -0.051907 0.04198487 -0.013421271 -0.070052385 0.0073205293 0.023838961 -0.056788072 -0.021184769 -0.06332645 0.045483146 -0.026761921 -0.016298698 -0.03323145 0.038311258 -0.035949327 0.011772685 -0.054485895 -0.04740911 -0.010323162 0.024981758 -0.024709884 0.043952383 0.018091962 -0.024916666 0.02943289 -0.0066786213 0.06649584 -0.00221345 -0.0017141429 0.012410676 -0.056889717 0.015436372 0.018304296 -0.05949084 0.049684223 -0.04086498 -0.028866895 -0.010916227 0.014675407 -0.017714182 -0.010899944 -0.024147164 0.026474422 0.065009 -0.007072615 -0.034904674 -0.0028145064 -0.020079335 0.0065945187 -0.054791573 -0.028996957 0.06488671 -0.026539823 -0.009259972 -0.04073389 0.024551122 0.014529999 0.0005088552 0.0014583468 -0.06494187 0.0032697136 0.0070051523 -0.026494946 0.010866158 -0.03377483 0.0129345935 0.0051047993 -0.022977075 -0.023694372 0.024789384 0.016671494 -0.058842327 0.011229398 0.04673925 0.012981891 0.03629803 0.028156517 -0.055852786 0.00652715 -0.0043463716 0.04829381 0.065476134 -0.02492116 -0.032436524 -0.026347894 0.06768692 -0.013594598 -0.05926314 -0.019055529 0.017975725 -0.058187615 0.019881561 -0.004609975 0.013936596 0.04228625 -0.014304931 -0.03281159 0.0019934808 -0.006093328 -0.049012937 0.061168704 -0.057896063 0.02850307 -0.048073694 -0.06756411 -0.026805388 -0.0051688873 -0.030025583 0.043443505 -0.05949643 0.019823758 -0.014969637 -0.025041126 -0.0062553314 0.0077471426 0.019800423 -0.049548868 -0.0035126598 0.017141402 -0.017375054 0.048640814 -0.05752762 0.035570513 -0.051355984 0.032367207 -0.04763287 0.026417758 -0.030048136 0.0017966612 0.038627516 -0.008652047 0.037023325 -0.0027338194 -0.0536801 -0.044076506 -0.0072929785 0.015366098 -0.022017438 -0.05324925 0.069468714 -0.020382429 0.04373646 -0.029093884 0.022350125 -0.040797308 -0.03681903 0.055123426 0.009382748 0.039441913 0.056607157 0.0029293513 -0.03579517 -0.00745321 0.05097119 -0.044506676 -0.012313403 0.046679307 -0.025477326 -0.018309062 -0.012954527 -0.019914033 0.027981123 0.023701312 -0.03507028 -0.06294106 -0.014020934 -0.0062405756 0.023026379 0.06619771 -0.008604069 -0.0416283 -0.009774592 -0.028258996 0.035014044 -0.019382779 -0.06232554 -0.020288585 -0.048874795 -0.0067743864 0.060882006 -0.06307783 -0.005153779 -0.046862427 -0.012397864 -0.044335946 0.056470785 0.023162454 0.02297193 -0.05027482 0.06797075 0.0072011617 -0.025951788 -0.004481187 0.029685302 -0.059076555 -0.046874363 0.015210959 -0.0072970106 -0.052215055 0.023779012 -0.004524122 0.02775865 -0.03909666 0.015389447 -0.037577327 0.05154383 -0.010535218 0.005943466 -0.011053525 0.03819968 0.05043883 0.06499525 0.028138077 -0.012931256 -0.047663577 0.0036697183 0.014952902 -0.017106634 -0.025143886 -0.043197792 -0.026767775 -0.021761598 0.044073246 0.044254385 0.024481038 -0.02210035 -0.06222956 0.04991996 -0.034713596 -0.013813588 -0.05425221 0.04930109 0.028949793 0.02537747 -0.066657126 0.021836726 0.0034437291 0.07213317 -0.0214566 -0.0017164185 0.020717159 0.06256676 -0.012983233 0.06732408 0.028174836 0.023225086 -0.0065424545 0.0076559293 -0.030032352 0.03592692 -0.049262617 0.0055178613 -0.024095785 -0.057793695 -0.03793196 0.01422462 0.008712642 -0.034595463 0.020960448 -0.03850806 -0.004740838 0.0049771033 0.018806715 0.050675225 -0.014328054 0.055758324 0.046900943 0.012905578 0.01653267 -0.0048765386 -0.05186387 0.012365422 0.005031517 0.053124182 -0.06904806 0.048940815 -0.009733463 -0.05660503 0.047353502 0.004981281 0.010679015 -0.047545552 0.036890496 0.040821563 -0.022570899 -0.02405233 0.010355305 -0.06465292 0.013331164 0.00458682 -0.011228899 0.03955373 0.032845706 0.0044811517 -0.0076797074 0.017705325 -0.04290665 -0.029957153 -0.017451992 0.045627303 -0.0035413834 0.066547826 0.037960596 0.032130115 0.002315678 -0.00559477 -0.010234178 0.00023188052 0.0125273485 0.07116091 0.06503876 0.043481763 -0.006143068 -0.040413823 -0.011885831 -0.029901361 0.045230113
tc -0.030279811 -0.011316215 -0.015560066 0.02314198 0.01661507 0.01731519 -0.025407024 -0.026796468 0.028557893 -0.0018242083 0.039873857 -0.012795723 -0.0019504961 0.037755575 -0.0197622 0.022627883 -0.0113036875 0.004683848 0.015049947 -0.0065358235 0.014645378 0.00057245913 -0.009339202 0.026850913 0.0011414636 0.006538696 0.018359168 -0.038884133 0.006156164 0.04709071 0.01080866 -0.015633946 -0.044207495 0.008277193 0.053466704 0.022781445 -0.012534778 -0.017167984 0.033048745 -0.029653905 0.02537871 -0.04324321 0.0036356603 -0.0061413064 0.017882336 -0.04294764 0.012312481 -0.044167645 0.0030350501 0.0022428385 -0.0124791125 0.037624124 -0.016088432 0.0042564604 0.021358607 -0.017217457 -0.010534603 0.036721434 0.032137677 0.0036789877 0.03634131 0.04562496 -0.025598843 -0.036508117 0.031984918 -0.035701983 0.0060197664 -0.033794194 -0.0017831476 -0.04244408 0.0321293 0.006291291 -0.017893232 0.044151798 0.0099322265 -0.011582299 -0.018630447 -0.017198278 0.040689133 -0.02805068 0.03133487 0.023668414 -0.012357894 -0.030455898 -0.04423642 -0.015668802 0.016180765 -0.02153008 0.045405105 -0.015724516 -0.043696184 -0.015667144 -0.044847332 -0.04065283 -0.03018938 0.04456922 0.043874227 0.0064836345 0.0013942232 -0.0077771065 -0.05503701 -0.02776779 0.013058584 0.048499517 0.02018283 -0.033946276 0.016508289 0.0291672 -0.030936735 -0.026491359 0.034852035 0.0128042195 -0.034680493 -0.019991964 0.02304954 -0.032755204 -0.0031358355 -0.032908868 0.03846053 -0.045327816 0.040756036 0.0009712012 0.031437688 0.0046873055 -0.00039667636 -0.017308917 0.02600514 0.016955914 -0.018702857 -0.010289439 0.025645016 0.021376813 0.037866775 0.024675097 0.03713826 0.022277657 0.048674483 -0.042673532 -0.05410113 -0.014631738 -0.006852701 -0.02492308 -0.03410156 0.033376478 -0.0039493022 -0.01388299 -0.02641247 -0.04177783 -0.023034455 0.018661313 0.0074580596 -0.017737454 -0.028143885 -0.014989639 0.028911551 -0.038128346 0.022268472 0.017535932 0.009252408 0.03648912 -0.031141317 0.038138036 -0.03320116 -0.041821912 -0.012533678 -0.012153921 0.038140517 0.020270547 0.04622473 -0.039666805 0.044677474 0.024458922 -0.011028567 0.033309203 0.016004033 -2.4121695e-05 -0.051063772 -0.042532604 -0.023538629 -0.024526373 0.003628334 -0.019432725 -0.025791734 0.02472333 0.005490156 0.014022248 -0.005166811 -0.021959892 -0.04247247 0.0029193566 -0.018434286 -0.034520023 -0.021580586 -0.050636787 0.034045972 -0.052866872 -0.011796348 -0.023321453 0.04476593 0.010098744 0.026311763 -0.007991193 0.053360924 -0.03766946 0.0018534262 -0.04394666 -0.04665288 -0.04827503 -0.044713918 -0.04738892 -0.040212546 0.031650987 0.035949174 0.030983932 -0.003216322 0.04188766 -0.02813994 -0.026332403 0.03424951 -0.0258468 0.033779778 0.030595236 0.034177158 -0.04300632 -0.01024529 0.02198267 0.0040506376 -0.04761203 -0.027860804 -0.037840884 -0.04039006 -0.0061436263 0.0346667 0.03184045 -0.009113401 -0.048002977 -0.03593493 0.01931464 -0.0268264 -0.051790237 0.054696444 0.0052760453 -0.0063793454 -0.04838928 0.047228925 0.039736796 0.035067596 -0.03751562 0.051643018 -0.012132197 -0.019372469 0.023241214 -0.0011144346 -0.036018826 -0.011343014 -0.019539673 0.0441017 0.0032268078 0.011015516 -0.025110224 -0.016439082 0.016325647 -0.04484207 0.029710202 -0.038903046 -0.008519373 -0.023928097 -0.02281977 -0.01919901 0.013595452 -0.04240213 0.021698438 0.006767656 0.007175387 -0.019237561 0.025959615 0.028229592 -0.032933433 0.04901973 -0.0114094 0.043198906 0.016511157 -0.0015672804 -0.03503771 -0.026209295 -0.026199974 0.007629166 -0.045362193 0.023018543 -0.0036836374 0.003634533 0.01631388 0.026027588 0.032482166 -0.0337924 0.021913322 -0.03466567 -0.024537858 -0.014514004 0.03959724 0.023346543 -0.023346854 0.0039270665 -0.024723152 0.032452926 -0.033409797 0.027651891 -0.0067729303 0.044174064 -0.039089233 -0.005587751 -0.0077076745 -0.04771603 -0.034011494 -0.033075128 -0.020454602 -0.035096906 -0.046353363 0.0369474 0.018930838 0.028356511 -0.015939048 -0.005713955 -0.02559215 0.004378412 -0.0008243994 0.014898273 0.01187624 -0.042030964 0.027633056 -0.004741239 -0.016305445 0.04316193 -0.029359108 0.0053837537 0.006671958 -0.026433825 -0.03507553 -0.0057605 0.038734358 -0.042126726 -0.029520055 0.010768006 0.035677932 0.0394046 -0.017424798 0.038576577 0.004063087 0.0034844805 0.0008725023 0.030755308 -0.03607544 -0.036295 -0.009011989 0.011343832 -0.016763542 -0.015843859 -0.025091542 -0.021909272 0.038838737 0.015327102 0.045553952 0.042006012 -0.022411266 -0.007237908 -0.017769057 -0.0421493 -0.032898523 0.0051601683 -0.012274833 0.021179492 0.030330569
xg -0.090236574 -0.055288613 0.082795806 0.122084685 0.099015996 0.0985417 -0.07550594 0.037200898 -0.07491197 0.087267496 -0.052326012 -0.088244416 -0.047670044 -0.114272386 -0.11449567 -0.03600072 0.100801505 -0.067047246 -0.0658011 0.0749721 0.05638074 0.11007607 0.02346213 -0.07966043 0.12779234 -0.07971548 -0.101944365 0.030064888 0.09837484 0.096419334 -0.11589135 0.0829561 -0.1197233 -0.057902265 0.033536144 -0.12615977 0.034457326 -0.034317136 0.018375583 0.08953315 -0.050695457 -0.043518573 -0.0394613 0.09556683 0.098380096 0.07640466 -0.05274373 0.025942042 0.093352094 0.049908042 -0.08204055 -0.05599342 0.119980454 0.10441386 -0.05376923 -0.09629766 0.096321136 -0.114284776 -0.09373591 -0.12376219 0.058321215 -0.0565601 -0.036643025 -0.09287842 0.08053985 -0.110056564 -0.09559477 -0.1251737 0.12250029 -0.12220578 0.13534062 -0.10078059 -0.059348837 -0.05054946 0.11408332 0.10940981 0.036359213 0.0234645 -0.100358516 -0.08093452 -0.103906274 0.058055628 -0.09007819 -0.0440181 0.106847286 -0.100495085 0.08814394 -0.10926211 -0.04531219 0.12878536 -0.13220575 -0.115972154 0.026555423 0.073394015 -0.07157241 -0.051529665 0.052927297 0.08099665 0.09162818 -0.054720737 -0.122658744 -0.07219285 -0.06080272 0.1205051 -0.12151343 -0.11378418 0.12406329 -0.09921014 -0.062233727 -0.043387264 0.094481744 -0.083492465 0.03615708 0.1270057 -0.117688805 0.078941375 -0.083712146 0.09191198 0.04752154 -0.061540984 0.07554711 0.120699145 0.11942159 -0.07613742 -0.07547526 -0.04062423 -0.07626174 -0.060293417 0.10053628 -0.04480022 0.06929265 0.0853256 -0.090094835 0.1067206 0.071244046 0.098904476 0.07043738 -0.108309485 -0.05016197 0.0939051 0.082478605 -0.12964308 -0.080373935 -0.07011946 -0.10218888 -0.10041137 -0.12856735 -0.05991716 -0.06918435 0.06973382 -0.11753932 -0.049111977 -0.029575333 0.10817219 -0.050701898 0.08310826 -0.045532297 0.115770616 -0.09213535 -0.11390942 0.052686322 0.06313681 0.09056488 0.114321835 -0.06442503 0.10628623 -0.06778012 -0.09468363 0.05719761 0.07706404 0.07563739 -0.110305 0.11640049 0.07049664 -0.073698245 0.053901397 -0.033051036 0.04128244 -0.068430856 0.111017786 -0.032866646 0.042057276 -0.10832207 0.08444758 0.08865201 0.08008615 0.09571602 -0.02716768 -0.07222961 -0.044161208 0.070808835 0.08253376 -0.03991959 -0.061588928 0.05800925 -0.027165016 0.110083625 -0.09555114 0.024357095 -0.11842474 -0.027367003 0.059361808 0.10827399 0.10447553 0.043300413 -0.10532938 -0.09227887 -0.085578196 0.10432605 -0.0669543 0.054929625 0.047700275 0.07597763 -0.09005866 -0.078823924 -0.035448425 -0.10881097 -0.077533975 -0.11486623 -0.06345824 -0.011823252 0.059191763 0.090996645 0.0701277 0.11426444 -0.076085806 -0.10959012 -0.11746775 0.062831014 -0.10986816 -0.066720486 0.06546765 -0.07610606 -0.09793957 0.11172109 -0.07564329 0.092725046 -0.12722017 -0.09189712 -0.09232696 0.112785414 0.12467829 0.09972941 -0.12041647 0.12755458 -0.07308941 0.07712018 0.12562647 0.02631574 -0.038236976 -0.027807236 0.0653603 0.02413657 -0.0805785 -0.091148265 0.10673478 -0.08390262 -0.09617603 -0.057330042 -0.06697784 0.06340333 -0.114593275 -0.11648034 0.0446098 0.11718632 0.054061558 0.13256402 0.09529912 -0.09678229 -0.10615592 -0.10946417 0.050242644 -0.04636753 0.116187446 -0.07705205 0.10079646 0.053937986 0.11446803 0.06366135 -0.071019866 0.06019458 -0.042280458 0.04136401 -0.06657927 0.072949246 -0.03348642 0.06327765 -0.12938079 -0.09257863 -0.09242257 -0.094159305 -0.08353566 0.10244723 -0.05207527 0.056512147 -0.042994995 0.1157971 -0.08468053 0.096924976 -0.030492121 -0.037817612 0.024104482 -0.050154444 -0.066115 0.084148526 -0.052334026 0.035107438 -0.046657242 -0.068554066 -0.10683792 0.09958029 0.07453099 -0.049586054 0.12732868 -0.09442292 -0.01689931 0.105899215 -0.039206732 0.1212081 -0.072059296 0.09917168 0.030982183 0.099513955 0.1242009 0.1290477 -0.09579233 -0.061795026 -0.094169684 0.105301484 -0.11530314 0.06815127 0.042634215 -0.12445168 0.12473911 0.03696383 -0.10799227 -0.094323404 0.037879854 0.052006926 -0.064967364 -0.043478042 0.097615935 -0.03184323 -0.033302445 0.10461054 0.04589003 0.05239806 0.11826647 -0.045620877 0.0761721 -0.098710574 -0.0697658 -0.061216887 0.085050076 0.05376132 0.06220284 0.046396583 0.07990921 0.09944708 0.12291434 -0.0804139 0.09610787 0.043566596 0.03700246 0.06683033 0.052409355 0.11778949 -0.051885277 -0.114679396 0.071559854 0.06776867 0.10378357
gg -0.08871801 -0.06162961 0.11153298 0.041824266 0.035465796 0.099684075 -0.018032286 0.100149974 -0.12157116 0.08166416 -0.04988393 -0.059377268 -0.07240594 -0.101805 -0.084980525 -0.04214275 0.11459963 -0.09343888 -0.088035576 0.0889862 0.09073857 0.06795136 0.053219117 -0.115549736 0.12513028 -0.06909969 -0.067352 0.08053809 0.073510215 0.06607321 -0.035505366 0.112029515 -0.123500764 -0.093632415 0.0426932 -0.05100179 0.09581049 -0.06978075 0.077809386 0.06220406 -0.08812459 -0.06436013 -0.06954809 0.10904926 0.10638631 0.12930834 -0.04932738 0.11390365 0.07651777 0.0520992 -0.10673609 -0.101639934 0.065208234 0.09242342 -0.09257562 -0.024571074 0.055971805 -0.09296593 -0.05233029 -0.07893929 0.03727617 -0.049226724 -0.06189366 -0.1063304 0.029280324 -0.06225033 -0.03713146 -0.06236292 0.09986971 -0.09751905 0.11638025 -0.05110169 -0.11594524 -0.057403814 0.026914006 0.08153981 0.101300985 0.0722482 -0.060799055 -0.10574713 -0.10894032 0.10668574 -0.1091008 -0.10470416 0.04273901 -0.07361448 0.089148894 -0.11662731 -0.08417856 0.032436613 -0.087435484 -0.064717196 0.06044946 0.061681062 -0.10862348 -0.07140478 0.06351627 0.07186532 0.048212964 -0.08931605 -0.05690798 -0.026460703 -0.10977464 0.115764745 -0.11462347 -0.09044248 0.049194 -0.028908845 -0.03538627 -0.13017431 0.099933006 -0.05890179 0.041083418 0.11983321 -0.09043723 0.10175211 -0.0444588 0.07163623 0.12197075 -0.09279839 0.032324985 0.11769256 0.06222936 -0.08218979 -0.11412854 -0.10901152 -0.078563355 -0.07572483 0.0810396 -0.10971919 0.08573939 0.018460697 -0.10773911 0.1126475 0.0939746 0.067544 0.06946209 -0.10821983 -0.032594427 0.100496195 0.060264267 -0.12974796 -0.119192265 -0.11346326 -0.080538705 -0.11559076 -0.07378594 -0.054668583 -0.03430268 0.07689919 -0.10833729 -0.05645264 -0.10494036 0.089862555 -0.10637521 0.038569663 -0.052880168 0.099464536 -0.07512442 -0.10931427 0.04524555 0.037695345 0.059912976 0.062236276 -0.10736006 0.051245343 -0.10502622 -0.067649014 0.03511638 0.09987311 0.060335737 -0.10557756 0.05495939 0.10760539 -0.08899413 0.09497815 -0.028387317 0.040570308 -0.07521203 0.0386673 -0.028607279 0.058817856 -0.05664264 0.072910786 0.06716768 0.045780763 0.123662576 -0.0851616 -0.06316189 -0.041190416 0.03171778 0.04526007 -0.081770115 -0.11052892 0.11822262 -0.10326252 0.07930547 -0.0506918 0.10725278 -0.114689484 -0.11317227 0.10901362 0.10033279 0.09023534 0.04140273 -0.07395561 -0.10893452 -0.03662505 0.10252382 -0.10470036 0.11144412 0.1170793 0.10345939 -0.059242874 -0.112432525 -0.052000433 -0.0470314 -0.067284144 -0.095785335 -0.09698597 -0.10477317 0.12226963 0.0602174 0.10749619 0.098803006 -0.06521828 -0.10900932 -0.07353139 0.12347298 -0.11740068 -0.12051533 0.0800309 -0.12505552 -0.040204827 0.075560875 -0.026851602 0.03685411 -0.092605315 -0.06779621 -0.12833713 0.10521017 0.098408766 0.04099863 -0.10058127 0.07109193 -0.042724486 0.10720009 0.0385843 0.10031484 -0.08700436 -0.08591032 0.08173742 0.055118766 -0.07811403 -0.067087404 0.094670646 -0.0255931 -0.103403166 -0.06259909 -0.057002556 0.10193201 -0.06541131 -0.111342825 0.054891862 0.08065669 0.033281755 0.08281895 0.1054775 -0.090981446 -0.06753189 -0.10708919 0.09768802 -0.09542978 0.1122291 -0.118636854 0.069431536 0.111993894 0.029504685 0.07901564 -0.100608766 0.086358406 -0.09472208 0.039203852 -0.03030908 0.0744452 -0.03488574 0.07580455 -0.07551965 -0.058928743 -0.048681594 -0.044420257 -0.10434689 0.07987097 -0.09740272 0.08676958 -0.1095088 0.033546258 -0.12756194 0.116325505 -0.1216666 -0.10026971 0.04408982 -0.07401716 -0.10436828 0.06810959 -0.04074009 0.07497525 -0.046181332 -0.100856945 -0.11392309 0.11812629 0.11390286 -0.035644643 0.101007305 -0.079276256 -0.033515297 0.0920165 -0.08173828 0.03984379 -0.106381275 0.052909162 0.1088311 0.038372252 0.08306571 0.12596859 -0.05985785 -0.103173696 -0.11473941 0.033272035 -0.0838557 0.09997159 0.10863768 -0.12477631 0.043237653 0.06476464 -0.033814617 -0.07620918 0.07790474 0.112683505 -0.10342996 -0.1257914 0.10141589 -0.10737673 -0.10827106 0.121228255 0.03651082 0.06964135 0.08773012 -0.089705795 0.06937175 -0.1233804 -0.1026901 -0.13033928 0.08693669 0.025919845 0.10842899 0.049998514 0.06428608 0.0934584 0.07632149 -0.11841617 0.053090595 0.042333126 0.022720994 0.1067775 0.08984999 0.050092954 -0.0594242 -0.05410365 0.0320781 0.021726202 0.059696715
at -0.0140269315 -0.05309636 -0.00572271 -0.0056403475 0.043714166 -0.015255604 -0.044993263 0.033614963 -0.003531021 0.033006143 -0.011229106 -0.012966191 -0.006156037 -0.015997026 -0.07307731 0.0059487894 0.06385397 -0.009885164 0.011031139 0.014598655 0.0077977134 0.07100378 0.0645428 -0.015484777 0.032323077 -0.05148749 -0.039457224 0.047302343 -0.0043045464 -0.021142589 0.0060987435 0.005545966 0.017694697 -0.029981531 -0.009872713 -0.022217415 -0.014277044 -0.014680235 0.009885234 0.023663877 -0.03370094 -0.032207455 -0.065205574 0.021282556 0.06891284 0.017358245 -0.06722995 -0.012085316 0.070160724 0.033815954 0.0063429866 0.021914106 -0.009379355 0.037209965 0.017001037 -0.04349066 -0.018148001 -0.041056603 -0.043085024 -0.048557904 0.00077219045 0.013347993 0.01873004 -0.050159357 -0.009685851 -0.065185785 -0.031537823 -0.020509822 0.07793214 -0.00093695614 0.023863543 -0.014196182 0.018155875 -0.021087708 0.050310206 0.064453766 0.045925424 0.05172469 -0.031358525 -0.02344135 -0.030374495 0.05210794 -0.048049673 -0.05040619 -0.01314297 0.020010194 0.032955773 -0.0377495 -0.036082618 -5.0929317e-05 0.009364624 -0.052419223 0.045819473 0.06833879 -0.03412173 -0.040352587 -0.019200912 -0.016069813 0.064022794 -0.054419167 -0.036081634 -0.057040684 0.010926962 0.01290021 -0.00743834 -0.013159179 -0.009238289 -0.068950966 -0.038092423 -0.03458706 0.035396934 -0.043226648 -0.0035420205 0.01114718 0.02523426 -0.0020076018 -0.0071106926 0.065675564 0.0391618 -0.045360945 0.06362842 0.03231467 0.039481 0.010459945 -0.073755346 -0.0050692693 -0.05865636 -0.0134252515 0.012332659 -0.05984328 0.071324825 0.05987413 -0.06365253 0.03767778 0.0559362 0.029484509 -0.0011876932 0.0039577363 -0.03825608 0.0051291143 0.04135777 0.0060149306 -0.04392005 -0.07024932 -0.048360284 -0.007221281 0.011752894 -0.036151733 -0.043140657 0.040850043 -0.005213101 -0.0593802 -0.03362662 0.056401525 -0.015570909 0.02680416 -0.07286131 -0.011327804 0.008548786 -0.04633173 0.031843096 0.010754798 0.0013218677 0.006044091 -0.0043872776 0.019387964 -0.04676127 0.004768796 0.05583219 -0.0073855733 0.04966701 0.013757477 0.033464573 0.0156160155 -0.04077653 0.060789246 -0.037269514 0.045083236 -0.057636976 -0.013547368 0.020985361 -0.016084755 -0.027135635 -0.016252032 0.016292194 0.06834128 -0.020649986 -0.029611768 -0.039924126 -0.04842878 0.005709683 0.018472793 0.010989762 0.008114539 0.06634513 -0.011533098 0.07439325 -0.06052921 0.011682466 -0.066711605 0.012268921 0.05604372 -0.0032446983 0.060640905 -0.010565733 -0.027453853 -0.0437394 -0.03908598 -0.017754724 -0.037657082 0.028617926 0.05102364 -0.015837928 -0.06299546 -0.05972612 -0.07096636 -0.04112063 0.0021982617 -0.027360762 -0.0729108 0.002638935 -0.0053906655 0.048016377 -0.0048657926 -0.019783549 -0.013150965 -0.015545729 0.0013031461 -0.012144987 -0.0047268276 -0.013836212 0.03088215 -0.0525448 -0.005784012 0.0035556466 -0.07485285 -0.014806674 -0.06451546 -0.0031772866 -0.005082055 0.058342338 0.05954323 0.019419037 -0.03173764 0.05130925 0.021303924 0.07319585 -0.008743578 0.0653149 -0.041816596 -0.05964019 0.06866543 0.003874233 -0.0027721059 0.024331432 0.004648603 -0.017606566 -0.06843224 0.0015798167 0.015410431 0.07014634 0.0031720595 -0.06742153 -0.019190984 0.028478008 0.00618925 -0.0047895326 0.05309581 -0.0048740697 -0.028748084 -0.0039119525 0.015269097 -0.06262023 -0.007068869 0.019565508 0.05168739 0.072582304 -0.009086823 0.059856623 -0.0035883274 0.029307086 0.0070041534 -0.00853333 -0.044362262 -0.016232591 -0.028609006 0.06393073 0.019403074 0.027259862 -0.047892313 -0.062593155 0.00023409433 0.022545192 -0.030452184 0.054797545 -0.06071242 0.02511127 -0.019571288 0.014034945 -0.010197752 -0.041978274 0.008251853 0.00999113 -0.039334193 0.022951068 -0.07171779 0.026187487 0.007927457 -0.016538246 0.007773811 0.061279967 0.022639345 0.01798168 0.017707698 -0.036827836 0.010890308 0.0035001046 -0.03004045 0.010678243 -0.024803793 0.034148075 0.05250348 0.00071710785 -0.0043768967 0.0027622841 -0.008847243 -0.025687758 0.0118146045 -0.016087132 -0.008515269 0.07361278 0.03925882 0.018957809 0.008905791 0.06173109 -0.066276655 -0.0063337185 -0.023233835 0.029723896 -0.075687155 -0.04178793 -0.017329426 0.01755495 -0.045261677 -0.0021554546 0.07240059 0.015595729 0.07222135 -0.0018988288 -0.006812024 -0.0679075 -0.018341057 -0.022307862 0.032318424 0.07190082 0.047534965 0.06697322 -3.907393e-05 -0.01877067 0.07366234 -0.021171596 0.04869308 0.0050990153 -0.00016727427 0.059621785 0.018833697 -0.016698414 -0.04345311 -0.0062098764 0.047208935 0.06325748 -0.0011472163
xa -0.11664651 -0.035190944 0.10388723 0.03171601 0.12206131 0.076566234 -0.017745292 0.083264895 -0.10857328 0.07103786 -0.086767554 -0.0819487 -0.075245276 -0.122898206 -0.12995306 -0.11057654 0.06188332 -0.12992133 -0.09377474 0.08026372 0.07118682 0.041863166 0.10594886 -0.07400051 0.12570433 -0.07394138 -0.083532825 0.11589077 0.02713322 0.09945786 -0.09636724 0.042691264 -0.11881521 -0.054728843 0.06951338 -0.0751076 0.009510718 -0.09340712 0.020767443 0.076316 -0.05878101 -0.1020773 -0.081641555 0.030197462 0.10728273 0.11656843 -0.07502542 0.074507155 0.009990763 0.10497197 -0.12856284 -0.0414091 0.10253134 0.056145273 -0.03869317 -0.111724146 0.052018106 -0.09410458 -0.045593753 -0.09076602 0.08977663 -0.048262123 -0.059213102 -0.073937334 0.097688064 -0.062227804 -0.049782746 -0.074991345 0.041086324 -0.12472777 0.07030907 -0.05668682 -0.070521496 -0.06806405 0.095270544 0.062414795 0.046326898 0.12536244 -0.040303744 -0.03595046 -0.03678251 0.059645995 -0.059043113 -0.0862022 0.034719713 -0.08807439 0.04241362 -0.12302231 -0.049478587 0.10084715 -0.08217459 -0.06490339 0.022975018 0.06916555 -0.07053662 -0.04389136 0.09617164 0.08730641 0.08066283 -0.12282654 -0.107672185 -0.039420478 -0.08321383 0.03672807 -0.054870665 -0.12813452 0.12975459 -0.12208406 -0.09005679 -0.10860757 0.051189665 -0.10324149 0.0922218 0.10521404 -0.08474588 0.09355318 -0.102682225 0.044409018 0.12719099 -0.044012256 0.07081534 0.09165789 0.11189364 -0.036681365 -0.07549512 -0.080044545 -0.06682109 -0.047523268 0.12673582 -0.10216959 0.055765253 0.04518272 -0.10166515 0.090836145 0.084763445 0.036958057 0.056117468 -0.07470596 -0.0389386 0.12271867 0.021285089 -0.10489345 -0.110093914 -0.08205211 -0.07125772 -0.12803286 -0.1040979 -0.053836867 -0.070299774 0.10104594 -0.052964028 -0.09647768 -0.05394673 0.043559562 -0.098338924 0.05449663 -0.110122174 0.08984827 -0.033116326 -0.12246573 0.12153458 0.047179464 0.058753766 0.12265835 -0.12815337 0.03607455 -0.09259921 -0.07625293 0.09345936 0.039833073 0.13098422 -0.11783963 0.060825545 0.017025601 -0.10849053 0.07915342 -0.05062124 0.10892977 -0.07324652 0.09795383 -0.067220815 0.104062386 -0.08380802 0.087359 0.07954849 0.06728764 0.10823773 -0.01044362 -0.059332557 -0.04786092 0.08870417 0.03987123 -0.10530488 -0.06321766 0.05690246 -0.109965354 0.03710179 -0.10877174 0.055047605 -0.11784897 -0.106322244 0.1155326 0.04423829 0.07291116 0.029777832 -0.0530595 -0.11256253 -0.028662913 0.04648658 -0.033360917 0.08517262 0.100833155 0.040279143 -0.12052077 -0.035903245 -0.053205498 -0.11040045 -0.058593597 -0.13205166 -0.07509139 -0.10886112 0.12677948 0.04843109 0.12416144 0.049934983 -0.079019584 -0.037122436 -0.04941763 0.08147797 -0.070899904 -0.08374369 0.046711657 -0.09525364 -0.11784294 0.10725248 -0.06957058 0.03072876 -0.0994714 -0.09672648 -0.10419758 0.11035114 0.049959227 0.08098168 -0.042586565 0.10922494 -0.10015217 0.04635013 0.09081392 0.11240912 -0.037119295 -0.042581923 0.10379292 0.008776914 -0.11681426 0.007405995 0.11200322 -0.098837845 -0.07516214 -0.057477005 -0.049313165 0.08213407 -0.11361863 -0.031277053 0.08357567 0.092652515 0.076449044 0.10484627 0.0673689 -0.11892633 -0.032426994 -0.07541601 0.09357959 -0.13102646 0.07983883 -0.124307565 0.043840192 0.10911992 0.12452799 0.11125662 -0.12566556 0.08385199 -0.050844055 0.03463812 -0.11857448 0.06942818 -0.0494385 0.12959866 -0.052966136 -0.07406046 -0.0954013 -0.066503175 -0.09616819 0.083617315 -0.112886176 0.084692396 -0.10009919 0.07104359 -0.12658538 0.097215936 -0.117849894 -0.032817125 0.07675844 -0.059784353 -0.12120232 0.07503449 -0.10617869 0.09541133 -0.05566796 -0.09942468 -0.034932703 0.08340987 0.11707814 -0.03245316 0.13115814 -0.050636142 -0.07971372 0.10795916 -0.030357508 0.06611828 -0.05498395 0.06502117 0.057485078 0.065398164 0.106165856 0.068502955 -0.043056726 -0.106479496 -0.12965485 0.128262 -0.050261233 0.051826905 0.030394739 -0.07021004 0.06321938 0.05331237 -0.08498666 -0.07740797 0.11265063 0.11801903 -0.059258714 -0.11427244 0.043153293 -0.053224456 -0.09648774 0.10930454 0.12065224 0.08852241 0.114417784 -0.110193826 0.03235721 -0.118284054 -0.10334286 -0.056130372 0.04384132 0.118115954 0.10173022 0.08594549 0.10687371 0.09671918 0.1277637 -0.093935356 0.114528716 0.09851436 0.090473816 0.07763194 0.028527983 0.054622997 -0.049937062 -0.11773888 0.12664002 0.116925165 0.041600626
xx -0.09556533 -0.01762478 0.08904291 0.08285959 0.09213998 0.09112926 -0.031561304 0.082897246 -0.02868252 0.09583334 -0.056759372 -0.04618408 -0.06440144 -0.07745007 -0.02683629 -0.0377276 0.095421344 -0.0784323 -0.063266836 0.063716955 0.0336892 0.0732025 0.03495292 -0.07672581 0.025512904 -0.050765187 -0.029184336 0.06985962 0.045551896 0.057868768 -0.08454348 0.06285121 -0.05414035 -0.08161726 0.020817593 -0.044400044 0.10480536 -0.058089975 0.04728257 -0.019020364 -0.092567705 -0.009644293 -0.0969146 0.088646114 0.0334955 0.0121319 -0.088035986 0.02626466 0.040659104 0.05377459 -0.047477275 -0.06457867 0.066502675 0.050618213 -0.084499456 -0.08699138 0.096793815 -0.09733282 -0.091334075 -0.070964746 0.072492145 0.019775694 -0.053377952 -0.022240166 0.094981685 -0.08212574 -0.087789126 -0.015076183 0.07480228 -0.05720483 0.031003611 -0.09546961 -0.046766616 -0.079981975 0.06473294 0.097135514 0.05705649 0.0038466547 -0.07659411 -0.092065096 -0.021872548 0.01692587 -0.03614486 -0.08691874 0.07405477 -0.045567967 0.053787455 -0.083991386 -0.00055752357 0.032015413 -0.07696702 -0.041262336 0.028038895 0.059140123 -0.09415138 -0.10765025 0.08918756 0.022851711 0.08070015 -0.082193196 -0.024985248 -0.10479071 -0.03319056 0.014944006 -0.047142506 -0.056370076 0.09871783 -0.0059020724 -0.016950658 -0.007887905 0.026425876 -0.029496148 0.08416285 0.08445379 -0.061692216 0.039175525 -0.050520487 0.027907643 0.014277039 -0.039459717 0.0471783 0.09119665 0.10128149 -0.06375492 -0.07773324 -0.066500716 -0.03534727 -0.023391267 0.0921881 -0.027609836 0.048300065 0.08605524 -0.050818853 0.009636251 0.1024487 0.08284274 0.016060999 -0.09811055 -0.026775625 0.046656363 0.0031566406 -0.012995837 -0.09178737 -0.07518304 -0.035383437 -0.07682152 -0.06456485 -0.04895998 -0.044092067 0.055710778 -0.08506814 -0.04108099 -0.1130699 0.036498453 -0.017224671 0.095002525 -0.0009494897 0.06339934 -0.03456581 -0.0060823984 0.05387181 0.09639509 0.036179453 0.024784165 -0.062938124 0.059223853 -0.08798464 -0.08515096 0.054469727 0.0623676 0.034235172 -0.049678646 0.10349019 0.08668178 -0.066113874 0.019989498 -0.08731503 0.08516312 -0.10625947 0.043674596 -0.031093854 0.064124055 -0.005404716 0.010121452 0.084358506 0.008213803 0.053513102 -0.07642272 -0.042837404 -0.04413003 0.08081108 0.08662649 -0.017493969 -0.04391636 0.050974365 -0.11007142 0.083103165 -0.0329136 0.03174818 -0.053461134 -0.10604204 0.030543813 0.017878167 0.044763718 0.050208196 -0.092675835 -0.09879071 -0.021932766 0.04200004 -0.019553516 0.11130604 0.033320963 0.028214598 -0.034202497 -0.066554226 -0.08939047 -0.06954741 -0.038202956 -0.03543917 -0.10550734 -0.08795476 0.07027604 0.034411985 0.07407758 0.11059146 -0.060239214 -0.015600225 0.001763277 0.03529923 -0.024777737 -0.09593555 0.019418828 -0.023248306 -0.0145945195 0.10148358 -0.03872952 0.024263889 -0.036529273 -0.024384528 -0.09290799 0.043071195 0.07209583 0.051127344 -0.049068175 0.04034472 -0.03558577 0.07846745 0.041909106 0.08618051 -0.023252781 0.007003989 0.074540906 0.004849311 -0.08058799 -0.02887803 0.03225702 -0.04033108 -0.092307374 -0.0030450663 -0.023840234 0.06671627 -0.037766576 -0.028769135 0.038424622 0.0562395 0.0012529243 0.094572425 0.023252219 -0.082840905 -0.020543894 -0.0134358695 0.09370208 -0.062427506 0.00959368 -0.0032424815 0.012240814 0.022269286 0.09705469 0.040948488 -0.0058308025 0.1071334 -0.07707623 0.07793783 -0.017571084 0.05723169 -0.033959612 0.07840262 -0.01781752 -0.054770187 -0.09775909 -0.0760171 -0.023047367 0.092802435 -0.06043627 0.022720966 -0.044395983 0.011406289 -0.05553247 0.053079236 -0.021100422 -0.02198471 0.0025284407 -0.039193608 -0.0995633 0.05461694 -0.059021737 0.07536515 -0.10753272 -0.015068429 -0.0394867 0.06334731 0.06245646 -0.08447008 0.021015916 -0.013877912 -0.089880556 0.06672572 -0.06257486 0.099312216 -0.027662443 0.015623268 0.043687332 0.0967109 0.08787789 0.039461054 -0.05638768 -0.042598248 -0.08510044 0.039968293 -0.030087348 0.102011435 0.0967982 -0.027794667 0.010665556 0.10730179 -0.025201978 -0.028287275 0.030152341 0.054306354 -0.10113434 -0.02845807 0.032473516 -0.0069108433 -0.087897524 0.01872504 0.11036356 0.07970904 0.05994946 -0.07975937 0.077619165 -0.050870262 -0.023650855 -0.077105775 0.07724372 0.07128992 0.0122545725 0.013811714 0.05284756 0.0405684 0.04660477 -0.027019052 0.059116993 0.07104579 0.029795252 0.023790983 0.013738692 0.05401663 -0.03053432 -0.05069596 0.07973073 0.038129695 0.10257706
cx -0.0497241 -0.12033058 0.09418995 0.11583392 0.053273346 0.09720917 -0.10676455 0.08584511 -0.076118514 0.0793866 -0.06338463 -0.10979042 -0.11815542 -0.08117621 -0.079995036 -0.121454075 0.05024744 -0.09942329 -0.107678875 0.10797712 0.13112383 0.10210367 0.104457706 -0.06615162 0.1112614 -0.042261474 -0.044988558 0.12408326 0.054847647 0.08142077 -0.08864941 0.093195796 -0.11829053 -0.027825896 0.07131445 -0.09059014 0.08384964 -0.059772663 0.048761953 0.11377114 -0.035825945 -0.108868346 -0.059894465 0.04632855 0.12574495 0.037647024 -0.090919554 0.09867656 0.0889762 0.0985675 -0.10055014 -0.09525856 0.10285791 0.10524883 -0.11709842 -0.06411478 0.04953917 -0.09391102 -0.090950884 -0.050715268 0.11318864 -0.11605707 -0.089356124 -0.026167287 0.116140954 -0.106474705 -0.09577483 -0.09282751 0.044479243 -0.11411934 0.035071906 -0.08989148 -0.075649135 -0.032446336 0.1216364 0.12356769 0.058956858 0.026669817 -0.049805485 -0.08152203 -0.041612152 0.03673245 -0.040866267 -0.08149911 0.093030974 -0.10785939 0.027291276 -0.05125973 -0.06046418 0.084388226 -0.08340083 -0.114306904 0.09300255 0.061059494 -0.12066088 -0.058605682 0.13193835 0.124501005 0.12812944 -0.09319917 -0.10964764 -0.07213397 -0.07916033 0.086226724 -0.09942019 -0.09958379 0.050144378 -0.041407254 -0.10135574 -0.045132376 0.05246801 -0.11764016 0.07065186 0.118403114 -0.06628069 0.09192481 -0.0674123 0.042115785 0.035485897 -0.082917206 0.038628355 0.102648206 0.051219296 -0.097305976 -0.06284998 -0.103960544 -0.09749941 -0.07685616 0.04297348 -0.043786403 0.07670462 0.09844615 -0.041746575 0.027238255 0.07815821 0.052085176 0.033952106 -0.03227453 -0.07281927 0.06109808 0.108398765 -0.06796496 -0.09391612 -0.07799734 -0.094724506 -0.0869275 -0.0459291 -0.066758975 -0.035851344 0.12202444 -0.0626855 -0.12853713 -0.06828588 0.06323414 -0.073252596 0.03054794 -0.040662292 0.036522448 -0.11178024 -0.07312388 0.03221412 0.040161744 0.12292321 0.07954726 -0.11802604 0.11518848 -0.038526565 -0.04848065 0.054528616 0.09734267 0.03458977 -0.03948777 0.106302455 0.065238364 -0.062052973 0.049229488 -0.12654206 0.041483797 -0.08263858 0.0638651 -0.120584205 0.11355332 -0.03937212 0.06848229 0.116770856 0.070514604 0.06358784 -0.10612257 -0.10839239 -0.10156275 0.09012677 0.12956038 -0.07050846 -0.09388647 0.08557472 -0.08663058 0.09963401 -0.025143318 0.108871475 -0.096709445 -0.10180853 0.02832009 0.12019234 0.118429765 0.080700696 -0.09533292 -0.10593766 -0.018685827 0.10740378 -0.11091805 0.11892987 0.039239272 0.030219391 -0.08843451 -0.11577182 -0.09160014 -0.12679516 -0.071384124 -0.0412978 -0.074685566 -0.019183638 0.11462923 0.04352253 0.08323573 0.05273671 -0.027655832 -0.073722154 -0.12540397 0.061768927 -0.12342128 -0.047017347 0.029795457 -0.08142824 -0.03328636 0.087229095 -0.07362074 0.119445734 -0.08806663 -0.07321611 -0.12745842 0.07118179 0.08100785 0.03735226 -0.03233207 0.06667691 -0.11432289 0.05466287 0.09168801 0.06390064 -0.12292958 -0.07256077 0.07472779 0.042143334 -0.052754812 -0.05702909 0.08585759 -0.10391619 -0.06847157 -0.082827814 -0.03103841 0.053260688 -0.071388096 -0.06442466 0.12964934 0.1078921 0.11586725 0.11070258 0.041400447 -0.037735704 -0.12178705 -0.05560482 0.04994698 -0.1261177 0.0742814 -0.11355929 0.08673086 0.10637831 0.0538519 0.12082684 -0.10249734 0.117618315 -0.08179844 0.03104795 -0.104364924 0.08107445 -0.106997415 0.07614606 -0.06924617 -0.10326234 -0.044380747 -0.09158112 -0.1024156 0.049268443 -0.06621431 0.11695672 -0.048239306 0.09397272 -0.0569561 0.065107696 -0.07507676 -0.12918638 0.114496246 -0.12951435 -0.089532875 0.09858473 -0.09516199 0.06652677 -0.042898715 -0.058747586 -0.12317739 0.046016835 0.038823437 -0.11909475 0.09724131 -0.11619231 -0.08900077 0.06010498 -0.06080524 0.11217268 -0.07575977 0.04544496 0.06324938 0.06990645 0.11010724 0.048958547 -0.03466446 -0.11769574 -0.07294477 0.09017752 -0.038739964 0.07924069 0.08029106 -0.047810104 0.05040404 0.09647503 -0.039545182 -0.1139163 0.092877604 0.08584536 -0.026669238 -0.12876315 0.038117856 -0.09908188 -0.12843995 0.12284698 0.09940108 0.03390129 0.11562788 -0.032389026 0.06917953 -0.082121015 -0.030673847 -0.07452336 0.09435412 0.100417875 0.1190313 0.06318177 0.1076519 0.039173443 0.044443857 -0.044704143 0.121555224 0.061046004 0.11495475 0.09226922 0.043233227 0.11866752 -0.06474136 -0.1159157 0.10016697 0.06086072 0.066655226
cc -0.08421492 -0.11215248 0.028970757 0.054534864 0.10876758 0.032592673 -0.08909775 0.051745005 -0.096575946 0.07775309 -0.037233375 -0.05226341 -0.0809803 -0.087158486 -0.045388 -0.070638955 0.106193826 -0.04152305 -0.029958183 0.06986963 0.12677601 0.1063136 0.08708777 -0.08673729 0.09946314 -0.045252126 -0.07000226 0.040463913 0.09064829 0.105124354 -0.093869165 0.118869066 -0.03976833 -0.034803744 0.09035837 -0.12470676 0.041904088 -0.117135264 0.093201935 0.02744038 -0.08640238 -0.081792295 -0.09321864 0.09306144 0.10767915 0.07647307 -0.07231134 0.0933185 0.045187406 0.0984438 -0.11099617 -0.097163044 0.06254754 0.110178016 -0.097183265 -0.096161425 0.098606125 -0.07255804 -0.067515664 -0.04006618 0.09142132 -0.06978155 -0.029754948 -0.044717353 0.1075846 -0.036965493 -0.1275821 -0.10087458 0.06598514 -0.11893368 0.03170551 -0.04356837 -0.07586869 -0.030849665 0.09468355 0.06110867 0.088685684 0.078096375 -0.1043585 -0.058058903 -0.10245122 0.11532898 -0.12319319 -0.12366995 0.08735773 -0.039984554 0.083975814 -0.049413204 -0.1290874 0.10638174 -0.065861106 -0.083183974 0.074000336 0.11429471 -0.07328697 -0.080660954 0.097985834 0.07064422 0.061717365 -0.10580358 -0.026308756 -0.063823424 -0.021529425 0.09451069 -0.10843513 -0.09749048 0.03831347 -0.096627966 -0.13262299 -0.04838163 0.023712937 -0.07669862 0.08862484 0.09100499 -0.0451562 0.077655874 -0.04984005 0.121651545 0.091473125 -0.10070135 0.081146695 0.10374945 0.032563355 -0.03172219 -0.060678974 -0.121495225 -0.07064816 -0.08916861 0.103713155 -0.114460066 0.13231948 0.08019045 -0.03953787 0.11043989 0.10134674 0.11454221 0.0946064 -0.084345825 -0.088315584 0.12220966 0.08882771 -0.036970846 -0.034560427 -0.11759399 -0.105615966 -0.10080464 -0.07838405 -0.08726866 -0.057172365 0.08645269 -0.08937947 -0.12403176 -0.10208425 0.04234591 -0.092503 0.08053546 -0.12592982 0.097124666 -0.06475468 -0.091649264 0.10739194 0.1260867 0.044015132 0.07582746 -0.10705887 0.08832201 -0.06641118 -0.016646165 0.08082795 0.035493046 0.09400901 -0.1099732 0.11766183 0.09366049 -0.105338246 0.061297756 -0.04554945 0.056900352 -0.03901807 0.061067317 -0.10733979 0.08716057 -0.079535626 0.05198568 0.037868064 0.12538096 0.06898906 -0.09125685 -0.044679075 -0.055670295 0.046414502 0.071474865 -0.03714721 -0.09735399 0.12027316 -0.030485986 0.12652439 -0.10811622 0.07744228 -0.09167522 -0.097925626 0.08723125 0.10127919 0.038707443 0.06239287 -0.033833783 -0.09164906 -0.0702111 0.08856702 -0.1325675 0.07574399 0.06912714 0.112534255 -0.031605717 -0.061432175 -0.109156325 -0.050699163 -0.069349214 -0.12806684 -0.07918102 -0.037463427 0.10101227 0.101969816 0.11877808 0.06788423 -0.1170952 -0.090420745 -0.084406726 0.124167904 -0.089572646 -0.09340516 0.084166415 -0.042132214 -0.111034475 0.048431046 -0.09257944 0.11284195 -0.08222219 -0.10525665 -0.06886909 0.10787789 0.06361364 0.03659388 -0.09535524 0.072968155 -0.091985 0.041810356 0.038065013 0.10623051 -0.08922505 -0.0752906 0.08542932 0.059099462 -0.09472791 -0.06555799 0.100036755 -0.060018204 -0.056918 -0.08126842 -0.11840302 0.027820397 -0.062825 -0.109736666 0.09901876 0.028259445 0.106107906 0.06677012 0.12575431 -0.08811655 -0.064758524 -0.046207823 0.04897724 -0.09005907 0.09673721 -0.075068705 0.10218443 0.08810396 0.0795056 0.08147411 -0.11236567 0.1058156 -0.062883586 0.09251606 -0.0658809 0.104258224 -0.09214857 0.12449255 -0.12792714 -0.09109011 -0.11724749 -0.090459615 -0.05250823 0.046904355 -0.08816753 0.05805148 -0.056972317 0.12205853 -0.03193546 0.059355717 -0.07542586 -0.0384152 0.09458001 -0.117883876 -0.12057178 0.056466814 -0.04899513 0.12622812 -0.025244955 -0.11702905 -0.10980589 0.050798193 0.0349138 -0.071051836 0.03329744 -0.086402975 -0.11498029 0.034331415 -0.094737284 0.07617153 -0.047457177 0.058804795 0.042720113 0.12691438 0.08601578 0.13056417 -0.05142026 -0.060583837 -0.07010242 0.122020535 -0.09125591 0.11097439 0.054661993 -0.06667965 0.07317417 0.0748064 -0.12344414 -0.11578522 0.020390185 0.054467395 -0.0693168 -0.10218166 0.10031528 -0.021553379 -0.10813088 0.06555402 0.071856126 0.061286572 0.11078908 -0.118186004 0.11618709 -0.043651234 -0.055959206 -0.077317744 0.073727734 0.08035386 0.0913771 0.10627778 0.10850788 0.1250175 0.1149502 -0.09132574 0.05618023 0.09308512 0.08384366 0.036360007 0.096138604 0.09137531 -0.10507001 -0.10478858 0.061924726 0.07593277 0.022051848
gx -0.08207587 -0.09642437 0.09869616 0.078294955 0.06854615 0.09897767 -0.06385145 0.12858064 -0.03562427 0.11015073 -0.05259531 -0.0975322 -0.095090926 -0.10875542 -0.061910987 -0.106623195 0.10241558 -0.112568736 -0.09711947 0.082853384 0.036730383 0.08695261 0.115978375 -0.12993583 0.043044604 -0.082187 -0.03851324 0.07623503 0.065064594 0.018848013 -0.12023359 0.10873942 -0.12724993 -0.07328685 0.12698835 -0.053652 0.086662054 -0.038744383 0.10503387 0.06936803 -0.11259668 -0.07719507 -0.13309304 0.05767044 0.050493583 0.04150317 -0.060462654 0.05897366 0.111395456 0.07024755 -0.071260214 -0.109762795 0.11909453 0.08448007 -0.10956391 -0.056149866 0.07184384 -0.025181169 -0.12704784 -0.083448574 0.09978205 -0.12648275 -0.118070185 -0.1200672 0.036138706 -0.07166895 -0.055109497 -0.060519606 0.080492474 -0.11095072 0.1170589 -0.08589497 -0.05387028 -0.06269395 0.031165142 0.084907904 0.033748392 0.090783805 -0.12514608 -0.09163484 -0.058292724 0.03784167 -0.11398161 -0.102568164 0.096517645 -0.03721158 0.11331956 -0.07965035 -0.041384734 0.10929606 -0.070605524 -0.07780159 0.08311351 0.05121547 -0.11345009 -0.09437006 0.06987662 0.051658597 0.06780594 -0.04953316 -0.07657626 -0.06855363 -0.056602966 0.0558231 -0.07039974 -0.0956399 0.11609936 -0.11222425 -0.04363691 -0.038544305 0.08338694 -0.09900884 0.12256962 0.07079406 -0.09122739 0.04318087 -0.11224627 0.04996733 0.06603284 -0.12412604 0.08206383 0.09284476 0.11435641 -0.10407378 -0.09149592 -0.08727281 -0.031288598 -0.04508375 0.07349953 -0.05343962 0.08137469 0.10906099 -0.11795143 0.11808357 0.07811425 0.12707499 0.071721934 -0.057521407 -0.11491753 0.09229321 0.050822504 -0.065094955 -0.1296509 -0.124479726 -0.10263195 -0.069633625 -0.10199948 -0.034598317 -0.11139398 0.06485562 -0.12580015 -0.121625304 -0.039207365 0.0450904 -0.09818324 0.062243998 -0.07489877 0.04347306 -0.035484828 -0.06019014 0.11645638 0.07052275 0.10383286 0.051399276 -0.09996987 0.12045664 -0.114997916 -0.104873486 0.10088128 0.05911669 0.0698136 -0.047677685 0.06387796 0.116400525 -0.043069124 0.053581033 -0.110807024 0.10148693 -0.052814037 0.0859958 -0.06348269 0.05086466 -0.059423372 0.07487098 0.11494718 0.08977844 0.08735062 -0.052034788 -0.07612138 -0.08789415 0.09413297 0.0397143 -0.11076982 -0.11875162 0.06763825 -0.044873256 0.086350925 -0.10197565 0.033993665 -0.08360325 -0.083475985 0.054071344 0.116173826 0.045806408 0.06642826 -0.11277846 -0.08640234 -0.059987158 0.093472466 -0.04118003 0.06275461 0.08511172 0.08418268 -0.08598393 -0.11428502 -0.0880302 -0.1099857 -0.06292708 -0.048431825 -0.110967755 -0.07853307 0.1170918 0.101379715 0.113656014 0.06975971 -0.09111114 -0.08393484 -0.08247474 0.043187976 -0.12539148 -0.1060146 0.0538924 -0.09952907 -0.09343377 0.07400383 -0.039441705 0.051762246 -0.060045555 -0.026108837 -0.11190518 0.056962572 0.0713492 0.095350996 -0.0936526 0.09738657 -0.08373853 0.083417445 0.117781274 0.08094521 -0.041414548 -0.0366659 0.088956766 0.06724029 -0.11624439 -0.05025692 0.065545686 -0.10113069 -0.10455638 -0.035480954 -0.123811975 0.091190785 -0.03392628 -0.06915694 0.11603452 0.115665875 0.05222598 0.09985764 0.061889492 -0.041990276 -0.09462503 -0.052436747 0.03825328 -0.08604651 0.09002686 -0.10161926 0.08789993 0.12340403 0.027844282 0.08392738 -0.1108532 0.10001201 -0.08900517 0.06538594 -0.06803686 0.037183892 -0.053818513 0.050461825 -0.09980415 -0.08278158 -0.08029815 -0.1301902 -0.105621286 0.051263735 -0.100076556 0.035743997 -0.027679646 0.11992938 -0.061256476 0.114983805 -0.063651875 -0.08428669 0.105001375 -0.08551696 -0.053510632 0.045556225 -0.089280166 0.11873795 -0.04662494 -0.038467154 -0.055885106 0.1306016 0.036958583 -0.05869837 0.047060527 -0.030562341 -0.091026366 0.046637703 -0.018939367 0.07740685 -0.062826864 0.024378624 0.10968809 0.047331102 0.03234951 0.11310694 -0.07401311 -0.105494045 -0.07017663 0.03379712 -0.07002819 0.11468008 0.084712386 -0.047369286 0.09507307 0.12174601 -0.050697736 -0.06605316 0.027269712 0.11061559 -0.1090621 -0.09743495 0.11420072 -0.073113725 -0.08668099 0.07242684 0.08319333 0.09392179 0.07322909 -0.073681444 0.10803927 -0.064486936 -0.082695976 -0.03752151 0.05169754 0.042822175 0.09190433 0.10374035 0.10954261 0.080120094 0.087361686 -0.07876425 0.10721997 0.09087251 0.07343708 0.09487876 0.08478728 0.12017227 -0.11770815 -0.06913039 0.059257817 0.040710054 0.09107552
ct -0.031545714 -0.025209349 0.031355735 0.024911232 0.026969992 0.052043755 0.0077096797 0.024167879 -0.010395321 0.0643969 -0.0408567 0.016761525 -0.006468925 -0.02345631 0.017823344 0.0017693473 0.049682666 0.027590718 -0.055397343 0.0072013307 0.06821417 -0.027208481 0.052819997 0.0069246055 -0.022964682 0.0053905062 -0.05374216 0.06809947 0.047332242 0.051582396 -0.060932793 0.049767252 -0.05929769 0.029815111 -0.018896794 0.002636158 -0.029261222 0.0033691593 -0.023603521 -0.023365455 0.0011870711 -0.016047245 -0.05192505 0.015248734 -0.006908512 0.03167745 0.0105994735 0.00078383065 0.01974873 0.06584884 -0.0013772538 0.018917793 0.026348647 0.065023206 -0.06432281 0.010128826 0.06455575 0.007453017 -0.0047598444 0.02259826 0.053871207 -0.0050977734 -0.06387373 0.008540187 -0.018977268 -0.05722416 -0.053664804 0.019263223 0.00801408 -0.05458009 -0.019877084 -0.028776865 -0.052016795 -0.052689858 0.06425139 0.07033863 0.0075278305 0.028770112 0.015666293 -0.03433767 0.027447851 -0.02098826 0.017726088 -0.040268153 0.0041865413 0.0023591144 0.038016662 0.017743424 -0.06497246 0.064152755 -0.053340502 -0.011021924 -0.025647573 0.055778675 -0.0008758444 0.018067554 0.031354744 -0.012781755 0.0031732274 -0.06429291 0.022473006 -0.0017610128 -0.020125842 0.046657097 -0.054654706 -0.055227716 0.0119309295 -0.012450694 -0.033191934 -0.06795132 0.029981356 0.008415816 0.018598204 -0.022588607 0.027163347 0.07114774 -0.008331462 0.01717975 -0.009024042 -0.057853695 0.020524204 0.071741275 -0.021062508 -0.018936945 -0.051755134 0.023948828 -0.013330588 -0.042663045 0.010716463 0.017750483 0.019290004 0.059579268 -0.04772649 -0.023500051 -0.02632725 0.038111318 -0.0047843247 0.00796065 -0.07260427 -0.024297176 0.012851901 0.02277685 -0.03339745 0.01935208 -0.026628554 -0.038289513 -0.006495984 -0.04604016 -0.015974091 0.06023403 -0.018358033 -0.04356045 0.015635654 0.07125293 0.025890125 0.070018835 -0.038722616 0.06431677 0.030064445 -0.0042691613 0.014249436 0.04203088 0.016322136 0.0009085829 -0.0024371406 0.025740448 -0.049918808 0.026634682 0.014539714 0.051563233 0.015933616 -0.061989594 0.02694578 -0.0038874242 -0.052992817 0.012520221 0.027146764 -0.00029189338 0.0077580214 0.03999176 -0.0615894 -0.021375226 -0.06441416 -0.0017343536 0.047171623 0.035837714 0.028390206 0.0016508764 -0.058425803 -0.021236615 0.04135428 0.032418612 -0.05675124 -0.015180638 0.048662804 -0.01758903 0.0529047 -0.030766118 0.031286508 -0.041100197 -0.0052495254 -0.007980102 0.039258365 0.03169627 0.03504055 0.02669801 -0.06044288 -0.063250765 0.046746533 0.0065198834 0.055992 -0.009919325 0.023702485 -0.026365131 -0.058475908 -0.065728106 -0.03227822 -0.01163697 -0.04208793 -0.009743867 0.024277348 -0.0061814813 0.033567186 -0.016698869 0.05874295 -0.05515766 -0.05458225 -0.045035042 -0.0012645707 -0.05085975 -0.053705152 0.057502646 -0.050078437 0.00025186694 0.018290168 0.020573523 0.047799397 -0.008029045 -0.010261136 -0.04689018 -0.008985203 0.028866993 -0.022635965 0.025560642 -0.012101024 0.01095621 0.07291412 0.03255998 0.055885825 0.006029017 -0.026369745 0.044023804 0.020416103 -0.046741836 -0.059217095 -0.025150605 -0.046873964 0.014222918 -0.013384394 -0.07158201 -0.014452731 -0.027938347 0.014064896 0.019858994 0.0005701147 -0.0012262263 0.06539985 0.009487376 -0.058489148 0.0033194216 0.010135375 -0.019785559 -0.019410165 0.037528392 0.016397564 -0.017312659 0.022793632 -0.0052010976 0.0030477883 0.016426614 0.02843389 0.013512945 -0.0018514586 -0.01605949 0.03805475 0.021188887 0.02364028 -0.058734715 -0.03837292 -0.019899465 0.02080195 -0.07220054 0.05789827 -0.03283162 0.024057541 -0.01558678 0.04447543 -0.07149916 0.063135974 -0.058467925 -0.06076017 -0.011563653 -0.05300574 0.023593899 0.062264957 -0.05287949 -0.009559694 -0.035072424 -0.034615543 -0.052452188 0.071445525 0.0643324 -0.01266468 0.05948108 -0.014212971 -0.0549229 0.055440754 -0.03047397 -0.028306214 -0.012778415 0.013740144 0.03708113 0.029640723 -0.011298808 0.06022058 -0.0004187151 -0.008895228 -0.026625492 0.04405637 0.0049713687 0.0524625 0.05842102 -0.06321015 -0.026410721 0.065233916 -0.05505904 -0.0038011563 0.04938867 -0.009216328 -0.009777317 -0.06065291 0.043273557 -0.05792351 -0.034680426 0.019137427 -0.0050001205 0.030874468 -0.013104184 -0.06094632 0.06700902 0.0018673646 0.029274259 0.02539049 0.010031633 0.06450266 0.02047263 0.0112251835 0.05074697 -0.022460435 0.0062735346 -0.014918092 0.022550425 0.03086473 -0.004359868 -0.004303267 0.030585261 0.0059210504 -0.065437384 0.006051012 -0.007153815 -0.011587053 0.06859922
ag -0.022958016 0.014259306 0.0712816 0.03864614 -0.025776038 -0.013458742 0.02508725 0.027711479 -0.045267466 -0.004655957 0.027098045 -0.06979683 -0.068830036 -0.060433768 0.0027778465 0.006733183 0.026206091 -0.051119268 -0.005058133 0.002782964 0.07256611 0.065121025 -0.015339711 -0.07457325 0.038064294 -0.04558634 0.010856776 0.035931412 0.029901484 0.002022941 -0.045363396 0.026657859 -0.055182673 -0.012454118 0.007300808 -0.04972937 0.010650652 0.019736372 0.049453083 0.04316675 0.009324633 0.011182634 -0.013033064 0.061473083 0.024140166 0.05136121 -0.044665594 0.0007642971 0.008565538 -0.013227296 0.015196474 -0.003054934 0.03972138 0.022361217 -0.0025760038 -0.017735241 0.0069259326 -0.064278655 -0.029727733 -0.01397493 0.009589405 -0.017327845 -0.043874677 -0.04567912 -0.023420518 0.010238562 -0.001928887 0.010502147 -0.019130997 0.016071217 0.020492928 -0.06942845 -0.046784986 -0.060922943 0.031092612 0.0028697145 -0.0018864684 0.047731474 -0.0024351587 -0.06083665 -0.02417925 -0.023073964 -0.058334395 -0.033529572 0.06782256 -0.06959499 0.03996517 0.005796084 0.02542716 0.047135085 -0.022459859 -0.053661168 -0.0005677942 0.026234426 -0.06379573 -0.014543084 0.06810623 0.06486238 0.019063272 -0.050444912 -0.047759425 0.010794288 -0.051585734 0.014170544 -0.0041400064 0.023466844 0.02596414 -0.04001756 -0.052941076 -0.069461755 0.040034037 -0.0036419902 0.04537873 0.059982754 0.030361926 -0.003845492 -0.006590514 0.061943207 -0.016750962 -0.018072011 0.06690972 -0.0015807868 0.040680096 -0.04119054 -0.014520277 -0.058810957 -0.04025726 0.015047558 0.009076165 -0.023568982 0.07067089 -0.01018736 0.010380785 0.013451397 -0.012054874 0.0037597045 0.033432845 -0.034660462 -0.057003856 0.00082537625 -0.013359875 0.014032116 -0.042652845 0.013221283 -0.036363248 -0.06948988 -0.008422971 0.02545385 -0.014391181 0.059065275 -0.050400883 -0.04273236 0.011112019 0.06655878 0.01418722 0.05307308 -0.07507925 0.06579917 -0.023349173 -0.02292688 0.03528468 0.04684061 0.019649874 0.048213243 -0.010511486 0.008048299 -0.013712609 0.012230919 0.064496405 0.035943966 0.04475606 -0.014898734 0.0550216 0.045155175 -0.037319485 0.06799081 -0.06509387 0.024889667 -0.018904218 0.049328815 0.008581297 0.016413592 -0.036158413 0.043830615 -0.009222874 0.0034825592 0.058924217 0.0014669911 0.0030687682 -0.03523065 0.007169984 0.066268235 -0.056324556 -0.07399847 0.024400696 -0.014190899 -0.009517315 -0.02873328 0.030464469 -0.016568882 -0.009985088 0.060478285 -0.024235822 -0.012636147 0.0148950005 -0.02353059 -0.008216686 0.010132482 0.07252989 0.019885827 -0.021686139 -0.018593509 0.018886961 -0.042198908 0.016812483 -0.019886939 0.009973814 -0.022596598 -0.038911156 -0.018190699 -0.064078666 0.031266462 0.04024014 0.046680514 0.03266005 0.015630795 0.018469164 -0.04324079 0.06294122 -0.030905342 -0.06601315 0.049184218 0.020738674 -0.05835281 0.008950276 -0.0037643618 0.0122291 -0.01992552 0.011803117 -0.044538766 0.042551536 0.046088696 -0.02252469 -0.058559567 -0.011700401 -0.04735281 0.052863467 0.007830454 0.012497174 -0.06979917 -0.06520963 -0.016728213 -0.038833566 -0.02724257 -0.058844753 0.07238792 -0.04561971 -0.016615864 -0.005930838 -0.020282693 0.013185407 -0.07387069 -0.02885054 0.005405261 0.0065913466 -0.0050781136 -0.0042401357 0.064172 -0.04279298 -0.07167668 -0.034821782 0.027326029 0.0037706497 -0.024855658 -0.019673726 0.0057509933 -0.0008329115 0.011564458 0.044281002 -0.039743774 0.057541538 -0.049297918 0.06622189 -0.007277547 0.07428288 -0.04967615 0.04319015 0.020286808 -0.040017728 -0.03371139 0.007279267 -0.02150343 0.013980507 -0.014322892 0.007096655 -0.050537292 -0.014074907 0.011096966 0.02898539 -0.027675012 0.0157533 0.058876514 0.0242777 -0.0051689125 0.0062174327 0.024273193 -0.01496544 -0.048921682 0.0053570066 -0.0058320016 0.02425037 -0.021096887 -0.029632201 0.021826688 0.024190154 -0.03228107 0.026459532 -0.03964034 -0.0063255294 0.0063082553 0.031821024 -0.0146451155 0.0103138285 0.065370835 0.023755427 -0.054053824 0.029243791 -0.036043834 -0.0018196646 -0.051661223 0.012083559 0.034677472 -0.031890303 0.019230178 0.037253376 -0.022420643 -0.0006187596 -0.025716487 0.047375217 0.023488006 -0.0011060894 0.04542293 -0.06528362 -0.038650926 0.06317845 0.06289968 0.033441484 0.04293991 -0.03220188 -0.01495637 0.015746461 -0.06269734 0.009280623 -0.011541451 -0.025270635 0.032903828 -0.0004786006 0.0711921 -0.013823011 0.07385116 0.021844909 -0.018552866 0.06384881 0.027363071 -0.009510535 0.022322295 -0.003062198 0.011221484 0.022792729 0.038164496 0.010432455 0.024948688
aa -0.028513908 -0.11619756 0.09624721 0.11856411 0.12214854 0.08968216 -0.09322085 0.114598855 -0.10156944 0.11510065 -0.0930073 -0.11188003 -0.07984557 -0.020419158 -0.024125041 -0.06631154 0.07921763 -0.033306204 -0.103196956 0.0974934 0.08384549 0.081673615 0.07205609 -0.04153527 0.048060223 -0.08166706 -0.116927914 0.033959717 0.106764875 0.08888368 -0.09026013 0.10625299 -0.119616784 -0.105702005 0.12655109 -0.050611086 0.00946463 -0.10169834 0.074734 0.05169312 -0.1173759 -0.08834831 -0.10958751 0.06275238 0.071957305 0.048297375 -0.10654055 0.10487432 0.08603785 0.10840842 -0.06320329 -0.04927466 0.103188545 0.0829555 -0.08887137 -0.08286764 0.0734375 -0.08990797 -0.106672615 -0.10320464 0.09361566 -0.052239597 -0.110564925 -0.100375034 0.072153464 -0.0799789 -0.043807965 -0.044103388 0.10362653 -0.058196172 0.0894129 -0.11467876 -0.09419062 -0.09531862 0.08674366 0.08030043 0.08731616 0.09201543 -0.12181579 -0.07549113 -0.060826592 0.12080205 -0.029607821 -0.11036701 0.049717106 -0.05104675 0.010964267 -0.07620257 -0.12535912 0.04596454 -0.04394176 -0.039871536 0.104701936 0.11532575 -0.05224467 -0.11714263 0.07621281 0.12103032 0.096766844 -0.105258934 -0.106572516 -0.08908281 -0.08488296 0.03708787 -0.032380883 -0.080132 0.09822433 -0.05921234 -0.12779139 -0.08742393 0.034203835 -0.045096 0.10248317 0.07715148 -0.061524834 0.09046974 -0.11054258 0.11466187 0.030855501 -0.06921426 0.08403923 0.07856506 0.10293263 -0.098258406 -0.04915039 -0.11893924 -0.09409192 -0.08821094 0.060110465 -0.07961244 0.12510064 0.11484477 -0.028896302 0.07001181 0.08908659 0.046233043 0.07578411 -0.10699359 -0.11800668 0.036231164 0.0991934 -0.089704864 -0.11712865 -0.035405993 -0.023313561 -0.034100424 -0.08674761 -0.056249656 -0.06280214 0.06886512 -0.08075484 -0.043636877 -0.077003114 0.07701956 -0.022279302 0.08019629 -0.09572397 0.09146409 -0.03709904 -0.06441239 0.06931636 0.040996667 0.10629871 0.03324234 -0.108191215 0.08416241 -0.07631656 -0.0794764 0.037784096 0.098558545 0.060762487 -0.084393606 0.031490937 0.11482753 -0.071431726 0.11536535 -0.104685195 0.067736745 -0.10469072 0.122975715 -0.07983967 0.11195 -0.09499732 0.07714685 0.10066283 0.08317009 0.05381034 -0.088459395 -0.10372543 -0.112021685 0.07688038 0.08689886 -0.12579758 -0.06764226 0.07484171 -0.052549314 0.059827413 -0.102033414 0.10977849 -0.07779781 -0.10731422 0.023709664 0.036598615 0.11844412 0.0819479 -0.09676632 -0.08275473 -0.026784115 0.058060784 -0.0389602 0.123911865 0.043587126 0.104783185 -0.11752195 -0.07126036 -0.053017426 -0.11370839 -0.083222896 -0.11971984 -0.044634823 -0.093981035 0.0582591 0.107089974 0.12543733 0.10310749 -0.055817932 -0.10285087 -0.10042618 0.07425704 -0.077480756 -0.02636624 0.035674546 -0.059861954 -0.0558946 0.028023714 -0.07629331 0.10050128 -0.09316182 -0.06096889 -0.1102349 0.069259875 0.04037777 0.06121304 -0.12796043 0.0862439 -0.05476729 0.078239806 0.11167083 0.06475113 -0.10359926 -0.09731748 0.11617879 0.061432887 -0.09856359 -0.0681952 0.047380604 -0.05769684 -0.07355203 -0.065756805 -0.076367795 0.08985726 -0.108943224 -0.0799165 0.07119307 0.078947045 0.07491785 0.054528244 0.11406772 -0.118878305 -0.08277447 -0.06019336 0.092385836 -0.06962299 0.099369526 -0.082177006 0.04395075 0.055868518 0.04821779 0.03730767 -0.052148946 0.10225123 -0.097430445 0.10788562 -0.09883287 0.07634407 -0.1052226 0.11916592 -0.07831664 -0.08191369 -0.12121145 -0.09326358 -0.10481892 0.10555633 -0.066201426 0.03449065 -0.006882085 0.07678539 -0.10281485 0.103386626 -0.059473537 -0.12216422 0.07981338 -0.08567932 -0.08492925 0.10618226 -0.09162889 0.11822645 -0.088968545 -0.09626062 -0.031630576 0.100676164 0.09344208 -0.102722324 0.0844695 -0.08565153 -0.0835524 0.10065292 -0.10632091 0.06374546 -0.0977309 0.11332478 0.06882055 0.09479646 0.072188824 0.10667552 -0.09676293 -0.1014588 -0.07069955 0.08859146 -0.107747674 0.11874281 0.072987124 -0.029590352 0.12565567 0.09859061 -0.12396277 -0.082530364 0.1154594 0.12412487 -0.10800081 -0.10556225 0.07091026 -0.10844181 -0.07725997 0.030634511 0.07945905 0.05363358 0.11643923 -0.031967103 0.05342821 -0.09287683 -0.10474569 -0.08257911 0.07828406 0.0995529 0.055248737 0.093533315 0.0846208 0.10592446 0.05016534 -0.05752558 0.06146154 0.06436731 0.015895559 0.08314454 0.085930094 0.06291094 -0.059761714 -0.041549835 0.10329809 0.10216104 0.10663978
xt -0.021254426 -0.04420925 0.121876925 0.060907364 0.0796988 0.03889784 -0.04733981 0.11329887 -0.11486365 0.10902979 -0.069007486 -0.121547244 -0.104423925 -0.11645432 -0.11234435 -0.043214772 0.068182796 -0.04771028 -0.047533847 0.07746238 0.1308773 0.096707225 0.030158974 -0.066926055 0.10041013 -0.084714785 -0.032316133 0.122192845 0.08885567 0.10984448 -0.07800828 0.07962132 -0.05597775 -0.029472359 0.08355045 -0.107546955 0.06256507 -0.053017844 0.051403623 0.057066135 -0.045965686 -0.031803407 -0.05069042 0.027140072 0.096951425 0.09733371 -0.0707237 0.06643379 0.01916664 0.024946092 -0.051546164 -0.06703038 0.046973668 0.059326477 -0.042106953 -0.118106 0.041807998 -0.0389715 -0.08880174 -0.074283905 0.11438259 -0.12499208 -0.033274196 -0.048570193 0.09439493 -0.091190934 -0.12282526 -0.0854515 0.08672138 -0.064615645 0.033488326 -0.07624692 -0.063073255 -0.09075264 0.099985614 0.10568047 0.07919571 0.061921433 -0.06909056 -0.043455657 -0.046300057 0.03307441 -0.1019292 -0.11096814 0.104031615 -0.101547375 0.06085557 -0.06254274 -0.06915878 0.12746258 -0.11228132 -0.06448314 0.11972128 0.053621422 -0.1212843 -0.051265948 0.08417394 0.11794072 0.0656784 -0.043082293 -0.033089682 -0.042848613 -0.043314856 0.11240006 -0.1226455 -0.02847102 0.11416479 -0.10753202 -0.06884704 -0.10867826 0.070165165 -0.033440728 0.10959022 0.11646771 -0.035948526 0.062064577 -0.057693142 0.114954434 0.11595725 -0.10903079 0.07799173 0.077560335 0.07635405 -0.11009704 -0.061394077 -0.069792524 -0.09373977 -0.081321515 0.10339901 -0.040136263 0.055471268 0.115902215 -0.1008214 0.037658058 0.08574114 0.11878071 0.11345943 -0.07111687 -0.10335519 0.053783283 0.116341785 -0.050976783 -0.10492928 -0.121537514 -0.07106407 -0.13143401 -0.117464066 -0.08731409 -0.041499738 0.088828266 -0.13175075 -0.11562627 -0.07236431 0.026878644 -0.112085536 0.07721338 -0.06230717 0.12423442 -0.103920996 -0.052704982 0.119283974 0.11578183 0.039169468 0.12608501 -0.119438164 0.048017625 -0.11377139 -0.11081425 0.10874466 0.08119541 0.10889054 -0.101514794 0.101219214 0.037965707 -0.057800263 0.07200182 -0.070492916 0.06554538 -0.091591544 0.053629093 -0.107028805 0.031116858 -0.0846527 0.1012365 0.09228775 0.050904583 0.089223996 -0.030011402 -0.09110357 -0.08707689 0.04043958 0.115937114 -0.1306454 -0.08931967 0.12509713 -0.08687572 0.07518843 -0.045244344 0.10855789 -0.04118003 -0.10293854 0.121854946 0.13015883 0.06296262 0.10902042 -0.024347167 -0.13119484 -0.094335675 0.034438126 -0.078283906 0.035491183 0.10917276 0.078039356 -0.08085162 -0.07851833 -0.11036425 -0.06446439 -0.037992086 -0.04861039 -0.07885718 -0.07205807 0.06664724 0.081540175 0.07914021 0.115515344 -0.047193773 -0.10228487 -0.11103505 0.068232596 -0.11736829 -0.03195215 0.077542365 -0.12397551 -0.110333785 0.12021385 -0.11612333 0.07222819 -0.069136925 -0.033463635 -0.1086201 0.04440591 0.038284067 0.101862565 -0.046673313 0.068427026 -0.092702605 0.109619476 0.050725643 0.078537144 -0.058033068 -0.09213047 0.07976801 0.09984722 -0.08927611 -0.09841548 0.026818488 -0.09399883 -0.11861887 -0.09341149 -0.12016071 0.07299375 -0.03360885 -0.06603417 0.049783174 0.050494082 0.105826855 0.054868065 0.040864494 -0.05464577 -0.06389081 -0.09807824 0.021425124 -0.06989171 0.11118521 -0.07085635 0.12273352 0.122227356 0.08482646 0.08161677 -0.040337928 0.09022287 -0.030567579 0.047590535 -0.07867507 0.055843506 -0.07269174 0.051316567 -0.0898845 -0.0869783 -0.039470423 -0.115554154 -0.09865947 0.028018493 -0.09114473 0.05159162 -0.071082294 0.11398153 -0.10476261 0.05849792 -0.107272595 -0.07204469 0.085036166 -0.07285042 -0.077472106 0.09510956 -0.03178608 0.092322975 -0.08209678 -0.08400874 -0.04873582 0.032196555 0.119041674 -0.12200494 0.05008877 -0.095713206 -0.08369021 0.101219796 -0.04031647 0.027131421 -0.06386349 0.057409108 0.10543812 0.041414883 0.051902946 0.043902792 -0.07941459 -0.08812089 -0.098684825 0.103142485 -0.051626332 0.109409146 0.048054554 -0.118961915 0.087804586 0.06842233 -0.117693394 -0.097282365 0.11856182 0.04803911 -0.04331412 -0.04477913 0.098471604 -0.044871517 -0.053395394 0.042647194 0.12167311 0.115226686 0.1016203 -0.087700516 0.050960295 -0.032726005 -0.08298757 -0.11846861 0.04755698 0.09976606 0.10443478 0.030173533 0.08957682 0.07844236 0.107756086 -0.027282462 0.11257619 0.069046065 0.0873263 0.094590046 0.06746303 0.05504301 -0.07709762 -0.09300148 0.073578864 0.07935027 0.029005935
tt -0.08992397 -0.040904548 0.068986505 0.083790466 0.055712797 0.10744907 -0.06559433 0.12481026 -0.10059833 0.107944176 -0.089415796 -0.062093705 -0.100708716 -0.121984206 -0.10525795 -0.09239582 0.057851616 -0.121097386 -0.0788974 0.08692316 0.11582563 0.038721878 0.07454174 -0.051084787 0.040274154 -0.11936634 -0.06845528 0.11142303 0.10515405 0.101378374 -0.035125695 0.033456184 -0.08797494 -0.07128529 0.06377747 -0.09793774 -0.005700935 -0.11434863 0.0980901 0.09332174 -0.12319201 -0.121664405 -0.101550594 0.08869372 0.045476064 0.06448691 -0.0997267 0.088596225 0.0766042 0.10958739 -0.05918418 -0.08110695 0.05636614 0.10374674 -0.111744106 -0.089730434 0.110380664 -0.0779842 -0.08876076 -0.09098384 0.032845944 -0.10182167 -0.081707165 -0.10140257 0.06930911 -0.089559674 -0.08972161 -0.07578372 0.09816093 -0.06706508 0.040181566 -0.11224286 -0.09605348 -0.11991362 0.11583386 0.08353183 0.11281981 0.0840118 -0.02714325 -0.0990582 -0.10810092 0.12068238 -0.09229905 -0.11494511 0.087884404 -0.11672863 0.07131984 -0.11168321 -0.061877657 0.072831556 -0.096934855 -0.13544385 0.043499094 0.10493766 -0.049591072 -0.09842766 0.060094163 0.042000525 0.040196043 -0.07997414 -0.10330768 -0.100018606 -0.10138602 0.123109445 -0.04577911 -0.026998684 0.08681429 -0.100670926 -0.05102373 -0.10053534 0.0045152567 -0.056671657 0.11315658 0.026775826 -0.03765604 0.079839796 -0.021330738 0.09626877 0.07818829 -0.092618264 0.0815262 0.088346854 0.06429937 -0.07938 -0.10631795 -0.033620276 -0.03535548 -0.03885918 0.04084628 -0.07201889 0.08032565 0.03620107 -0.09389857 0.061317094 0.04640774 0.07576177 0.09534264 -0.050946884 -0.12460937 0.097347096 0.104017526 -0.09292215 -0.08705071 -0.055976827 -0.11829482 -0.06346436 -0.10688708 -0.11276639 -0.087741405 0.06390968 -0.08948998 -0.036744587 -0.09229748 0.11255139 -0.091816925 0.09455227 -0.08114869 0.09327287 -0.11058461 -0.06117403 0.10708269 0.10084531 0.10812792 0.06254303 -0.118587114 0.10951641 -0.101733744 -0.109707125 0.056306086 0.10047092 0.074502915 -0.07216727 0.056349415 0.06283464 -0.10919153 0.041652534 -0.087764315 0.11212827 -0.06466811 0.0855491 -0.084460296 0.09957535 -0.07918582 0.07199886 0.08784802 0.06323467 0.113309495 -0.074033946 -0.045704108 -0.07894931 0.1219931 0.06328229 -0.052929882 -0.051866174 0.032700434 -0.11812104 0.09951794 -0.09941556 0.04501578 -0.039001253 -0.05970587 0.096743755 0.10801755 0.05268976 0.10671147 -0.114587575 -0.07756368 -0.10441838 0.10164022 -0.1016092 0.071639486 0.06507778 0.028232789 -0.042426605 -0.077641584 -0.086924575 -0.042618867 -0.06042974 -0.055614315 -0.1109663 -0.074913844 0.09753882 0.057329785 0.05064042 0.11338823 -0.105974644 -0.04038634 -0.09443376 0.09094552 -0.058013637 -0.06944564 0.07702272 -0.118017815 -0.101600476 0.040052187 -0.100832574 0.09206019 -0.09168847 -0.080799475 -0.09091689 0.066869386 0.061937653 0.12817208 -0.07757814 0.08395525 -0.03905701 0.084523134 0.085460074 0.09479908 -0.09853578 -0.074953355 0.030073822 0.035506435 -0.09271835 -0.07840844 0.08799489 -0.08670384 -0.12048142 -0.075784564 -0.09553459 0.11138314 -0.102961764 -0.096533835 0.10590554 0.09775357 0.07241408 0.12520204 0.071377665 -0.08131063 -0.11607619 -0.06545819 0.11252346 -0.06983024 0.023684489 -0.075406626 0.07800387 0.07970567 0.0794827 0.10455262 -0.0635223 0.12219823 -0.112763844 0.062427264 -0.058010828 0.099457435 -0.10780288 0.12683257 -0.05520291 -0.08761045 -0.068684 -0.057097528 -0.03568457 0.05920789 -0.06487755 0.108102664 -0.008615083 0.1095816 -0.07087919 0.03440156 -0.09568737 -0.092473894 0.09965642 -0.12067088 -0.045944516 0.08291178 -0.07798553 0.029631129 -0.08262327 -0.05712603 -0.123406366 0.111815095 0.04626794 -0.08136577 0.06159681 -0.100079514 -0.09657848 0.10262662 -0.111320294 0.044500172 -0.0734342 0.0944816 0.09800893 0.04566175 0.10701724 0.058624692 -0.09919713 -0.04254351 -0.09460393 0.03317098 -0.05184519 0.026435459 0.075292185 -0.11098566 0.08049813 0.069097556 -0.069952086 -0.071055844 0.06338903 0.047336735 -0.10461891 -0.09807759 0.08934792 -0.066182315 -0.11245542 0.09499393 0.1074189 0.111572094 0.06556654 -0.044829033 0.06406903 -0.059703484 -0.085036635 -0.11369665 0.10145671 0.055781122 0.09197589 0.10218462 0.1083107 0.065659404 0.063649975 -0.057728354 0.06499677 0.083705865 0.11406615 0.07522516 0.12016807 0.05669489 -0.09970238 -0.0954815 0.045826238 0.0696508 0.06907404
