25 372
tg 0.03551155 0.057119057 -0.118826896 -0.14263842 0.0119697675 0.040813766 0.23196684 0.014033504 0.032090366 -0.02373461 0.011045181 -0.09425195 -0.097108305 -0.098673865 -0.014271988 0.1984118 -0.110204965 0.024658814 0.24501841 -0.07887002 0.055769645 0.14113453 0.06947607 0.05489469 0.006650251 -0.03875136 0.08460543 -0.074596815 -0.08474307 -0.072825 -0.056815073 0.20877422 0.006322502 -0.07660844 0.031244189 -0.16340163 -0.13609034 -0.24068412 0.2096185 0.16682239 -0.034575272 -0.11595911 -0.12541111 -0.10783074 0.13447197 0.0761041 0.05751495 0.08969977 0.1402396 -0.23372176 0.13801435 0.1747757 -0.15432951 0.117715575 -0.040670168 0.022927513 0.14342998 0.18277112 0.0966531 -0.15245067 0.045486864 -0.026076198 -0.16334856 -0.055225328 -0.022789463 0.16650736 -0.1756789 0.1665132 -0.15995212 -0.031508204 0.08523928 -0.13842082 0.03774523 0.14299753 -0.0014143268 -0.060854398 0.011890275 0.031660646 0.18286605 -0.23620415 -0.035112362 -0.12189326 0.21369481 -0.07791543 0.07857058 -0.04432219 -0.19059695 0.110278964 -0.00078794983 -0.19996715 -0.10415449 -0.14004552 -0.026118003 0.11894915 0.13761406 -0.13226599 0.02892911 -0.09867705 -0.07538392 -0.19607516 0.16394036 0.017411463 0.062324192 0.016073987 -0.047309626 0.059527263 -0.017748058 0.056951366 0.0069516515 0.21983266 0.0821289 0.11115409 0.03339056 0.0006819645 0.09540894 -0.1415657 0.07973635 -0.08070262 -0.11359896 0.038412172 0.16079448 -0.07900062 -0.03542683 0.03340612 -0.017019324 0.15349516 0.12017224 0.14884093 -0.02331612 0.016711986 -0.023351604 0.13839233 0.23409437 0.08581957 0.13253535 -0.17846438 0.01463778 -0.08622569 0.15235707 -0.19188169 -0.0994587 0.00055175787 0.17757726 0.06300089 -0.023739077 -0.13094462 0.08912659 -0.037508447 0.17994124 0.07763381 0.081906274 0.002955366 -0.0023230035 -0.22872473 0.0628118 -0.22449414 -0.06321451 -0.046687517 -0.06941132 0.19047675 -0.17310189 -0.06824668 -0.063613914 0.15385137 0.11226317 0.046121757 0.058703717 -0.06647022 -0.18043183 0.07444247 0.17801985 0.02257095 0.17734823 0.17984924 -0.1805005 0.029817693 -0.020516613 0.21160845 0.10197323 0.245192 -0.045239374 -0.04721242 -0.15966766 -0.06033012 0.054881554 0.09992839 0.06469616 0.10700379 0.050475635 -0.14532894 0.13352744 -0.090736166 -0.03981433 -0.04352235 0.07298555 -0.033016656 -0.039796136 0.09582652 -0.1549992 0.092240945 -0.23376678 -0.18779032 -0.0005825983 0.15134354 -0.0012640995 -0.0741748 0.13717237 -0.0026159226 0.17806837 0.14733155 0.23961653 -0.13037986 0.012962778 -0.11923002 0.027264396 -0.06163467 0.1416655 0.03035223 -0.16882077 0.20366633 -0.21300869 -0.06235757 0.0038163671 -0.09107258 0.037893616 0.1264365 0.14513399 -0.18936685 -0.08273508 -0.017259788 -0.09412265 -0.065485485 0.044856343 -0.19155848 0.08314537 -0.010873548 -0.04307315 0.077339225 0.16651794 -0.023372447 0.06994946 0.035835795 0.02701303 0.15434179 0.024757864 0.15677743 0.20812882 -0.06795626 0.034417875 0.106096834 -0.104487754 -0.14612994 -0.16614212 -0.028675472 -0.13552536 0.14693317 -0.09746313 0.2253104 -0.0018835245 0.16291338 -0.04962906 -0.019542783 -0.1438416 -0.08898553 0.04522915 -0.084881894 -0.038957234 -0.058036447 0.08848117 0.017147528 -0.11619465 0.1839549 -0.07845313 0.17612736 -0.008490013 -0.22161354 0.08519066 0.16868368 -0.13276695 -0.017399956 0.19189112 0.0834988 0.1705834 -0.06978916 -0.013385349 -0.07968765 0.026873466 0.24746498 0.21721832 0.16621152 -0.04628843 -0.03006942 -0.0062774625 0.046082217 -0.05648676 -0.004254131 0.07975302 0.016629422 -0.014120532 0.12412313 0.09388393 -0.08944834 0.024609996 0.14509603 0.015142039 0.09232697 0.12669572 0.17793387 0.017776806 0.028211737 0.07451017 -0.17609192 0.08802153 -0.08360986 0.043480705 -0.009927079 0.13875166 -0.11214206 0.09152307 -0.25531682 0.05604836 -0.13619265 -0.07904216 -0.14845489 0.1046812 0.08578394 -0.2284211 -0.13255784 0.086294435 0.0024475527 -0.036578815 0.07762884 0.018154215 -0.071206525 0.036673162 0.17779364 0.1641495 0.00948675 -0.242889 -0.0076581854 0.1391912 -0.016399076 -0.06847403 0.2158189 0.035954706 0.036078945 0.019885713 -0.14628437 -0.20153591 -0.007493048 -0.076756485 -0.18388973 -0.012034929 -0.054953877 0.02068113 -0.20140156 0.18723089 0.052765645 0.020798923 0.12736346 0.08030913 0.014416181 0.14355278 0.019376451 -0.21191108 -0.09389897 0.08714646 0.03000092 -0.03273446 0.15676543 0.17516518 -0.06365188
ag 0.06168726 0.06663122 -0.20866281 -0.10979896 0.025847467 0.049211893 0.19084963 0.074360065 -0.0019214153 -0.047859076 -0.13835701 -0.06236787 -0.08194182 -0.11234742 0.15419465 0.23977551 -0.15934947 0.07337751 0.26204416 -0.1516243 0.10238696 0.09570177 0.028538931 0.057837624 -0.01609781 -0.045805264 0.07047849 -0.10446806 -0.04886432 -0.051919084 -0.103239305 0.17882442 0.034388576 -0.069652624 0.015100596 -0.14022864 -0.1689506 -0.27858296 0.29619455 0.19386522 -0.07782814 -0.13375713 -0.069042295 -0.09933354 0.11378506 0.110732295 -0.011508638 0.08904152 0.09555824 -0.14688292 0.11355668 0.15499622 -0.23074596 0.12773901 -0.049361974 0.012369026 0.071922846 0.07641459 0.059863232 0.005861217 0.021138042 0.019466437 -0.19711597 -0.032302275 -0.087427706 0.20589928 -0.23049214 0.25624955 -0.15646937 0.031245558 -0.10680498 -0.17286907 -0.035185978 -0.0053735403 -0.03286203 -0.1254196 0.05302693 -0.012359679 0.14242858 -0.12302524 -0.06691615 -0.18302347 0.07421393 -0.03804697 0.07350214 -0.08972922 -0.09283895 0.18653071 0.043626208 -0.26746532 -0.11838502 -0.25184494 0.013359841 0.18662362 0.2135563 -0.049269106 -0.04433105 -0.09724412 -0.11716971 -0.21361114 0.05510679 -0.017721845 0.038733885 0.08140326 -0.12405609 -0.029252464 -0.20454618 -0.04477664 -0.028304093 0.18701014 0.011098445 0.14670733 -0.053213555 -0.022618132 0.06509395 -0.15787154 -0.043078355 -0.09066798 -0.13475664 0.101570316 0.15457326 -0.12988055 -0.025384447 0.015387261 0.03961468 0.19390039 0.029542662 0.12516421 0.03578542 0.049069103 -0.07393961 0.096106686 0.21883123 0.16290668 0.16612354 -0.22784221 -0.088925526 -0.044668674 0.09983659 -0.15328822 -0.076301545 0.031067574 0.19025014 0.14413142 -0.09660634 -0.13525462 0.11849325 -0.035759065 0.027548492 0.0690303 0.16936919 0.036881898 0.08559767 -0.18914099 0.06007397 -0.28213805 -0.0047283964 -0.007746066 0.074674964 0.17002209 -0.015461637 0.06923554 0.0046582827 0.19003311 0.084130034 0.08065981 0.053688858 -0.083063416 -0.14685333 -0.0015238698 0.09912766 -0.10988485 0.20235212 0.16006635 -0.17107952 -0.0041406024 -0.03579001 0.15078142 -0.0403617 0.2451349 -0.102921814 -0.02001368 -0.091511406 -0.081555344 -0.018389849 0.12197208 0.095161 -0.026410066 0.107462555 -0.0730125 0.08605214 -0.14989479 -0.0031435597 -0.043972954 0.007893172 0.115255654 0.0038786049 0.040560875 -0.10419659 0.0023781282 -0.10256826 -0.16731371 0.017567044 0.10721999 -0.13027191 -0.06829955 0.19571218 0.087006934 0.19194129 0.20101695 0.112163655 -0.122074865 0.045678813 -0.07556294 0.21674606 -0.030659791 0.13136934 0.017724864 -0.060300995 0.16013856 -0.14903644 -0.03280498 -0.008034153 -0.075485125 0.007582593 0.06804024 0.15983576 -0.16217555 -0.16078515 0.04624449 0.024269508 0.0053187637 -0.039992213 -0.19048806 0.1633839 0.045730326 -0.08587861 0.098859854 0.19450094 -0.03847046 -0.032674458 0.08814177 0.067369856 0.2087825 -0.051505737 0.2106995 0.21654923 -0.01096975 0.09366001 0.12279805 -0.07104463 -0.20331648 -0.1043109 0.07807232 -0.03547455 0.1458298 -0.18054199 0.196168 0.07823447 0.08448791 -0.12077825 0.057667803 -0.1632176 -0.08899988 0.033905283 -0.03045485 0.10429245 -0.04732234 0.13504863 0.04684224 -0.14407457 0.305818 -0.1231291 0.018745936 -0.06194124 -0.20851873 0.15698919 0.19068508 -0.116463125 0.003094264 0.1460119 0.00899606 0.11580825 -0.018067354 -0.054381467 -0.18424086 -0.13116921 0.24399233 0.08898838 0.18703078 -0.11614012 -0.045124102 0.019886592 -0.015135529 -0.08630737 0.014915763 -0.0026283525 0.025236987 0.014833707 0.08605306 0.08038326 -0.04231983 0.06582397 0.21778935 0.07148922 0.092368215 0.254677 0.2201016 -0.05934555 0.068978816 0.12864476 -0.16551812 0.13272841 -0.07645286 -0.046167184 0.07390533 0.15014438 0.0039273226 -0.059183683 -0.1958051 0.018615168 -0.130854 -0.035923168 -0.20125343 0.0921706 -0.02054748 -0.24436311 -0.0867921 0.06824572 -0.08515758 -0.10641247 0.08135932 0.0697717 -0.08763034 0.04057488 0.20965603 0.12944634 -0.034487758 -0.12278204 -0.025469385 0.23853323 -0.05561077 -0.0303292 0.102406174 0.08967512 0.04628266 0.07252124 -0.14764588 -0.14509308 -0.051364094 -0.08491707 -0.26997095 -0.057418115 -0.076704755 0.13402528 -0.17550492 0.13738023 0.18711114 0.030468091 0.08596841 0.25462392 0.010878836 0.1736905 0.01729788 -0.21940726 -0.114321195 0.00406821 0.08890104 0.04724564 0.21551327 0.19744189 0.004476491
xc -0.0067260615 -0.06818781 -0.16996701 0.08565003 0.14986125 0.03157409 -0.09116462 -5.9871672e-06 -0.107363805 -0.107739635 -0.089097 0.03488056 -0.10307436 -0.106032066 0.10544746 0.09332135 0.11054952 -0.012782088 0.11615938 -0.034749426 0.100133725 0.15716624 -0.028798874 0.08461173 0.103725895 -0.11533695 -0.16968153 -0.054253776 -0.10964545 -0.14722133 0.19009101 0.15149929 -0.020897677 -0.048474953 -0.09011002 -0.06376027 -0.12726548 -0.18754551 0.16954377 0.0030166502 0.061082184 -0.15334655 0.053732377 -0.018715415 -0.14532886 0.13456376 0.10392606 0.10184847 0.16637377 0.0020042232 0.12837486 0.12849145 -0.022580944 0.0017742 -0.08312854 0.038213816 0.12536193 0.14941561 0.06019027 -0.11517878 0.18539554 -0.050937768 -0.050401095 0.12378805 0.11433346 0.16629024 -0.123069234 0.10176694 -0.07779204 -0.13108648 0.038518295 -0.07592207 0.068875834 0.0478403 0.09192212 0.018491419 -0.015449035 0.14861003 0.0818747 -0.10773988 0.002787772 -0.13810991 0.02367704 -0.06683137 -0.20598868 0.08549835 -0.10963 0.07329371 -0.1824369 -0.16026476 -0.024841543 -0.019567596 0.09017769 0.074977815 0.06572613 -0.07875628 0.13292406 -0.089800335 -0.044069067 -0.10749942 0.10256535 0.03586733 0.11586418 -0.09500357 0.013536364 -0.10698707 -0.12832162 0.014251238 -0.20685013 0.14310026 0.073092796 0.17336883 0.14852242 0.10904927 0.17414658 0.08046889 -0.022262765 -0.13360636 0.089673266 0.16636427 0.12031335 -0.09598332 0.060810506 0.05309957 0.039006516 0.117437 -0.120488435 0.01917293 0.031011691 -0.10674652 -0.16608332 -0.1695674 0.05509246 0.035509806 -0.032213844 -0.11328048 -0.034852277 0.18128976 0.100778274 -0.12096722 -0.0848872 0.011020372 0.11386445 0.043992046 -0.22473028 -0.08110983 0.014247807 0.069235764 0.09732752 -0.12483299 0.1450204 -0.16597031 0.08209237 -0.15314768 -0.078273855 -0.17042132 -0.008481592 -0.12703249 0.03367626 -0.0047977143 -0.17331937 -0.08775582 -0.17384182 -0.031465266 -0.078198686 -0.07691266 0.12898904 0.05489619 -0.035948813 -0.08168117 -0.06143438 -0.04443657 0.087699786 0.097073145 -0.12626736 0.19969891 -0.0944473 0.04101294 0.16060029 0.055738773 0.17248252 -0.06437976 -0.014923714 -0.17725901 0.10364714 0.11415618 0.20116603 0.036553606 0.107028715 -0.13478367 -0.055783227 0.17912726 -0.016323876 0.087435715 -0.03913871 0.1600359 -0.062409718 -0.10912807 0.025481086 -0.15029219 -0.11755973 -0.13582772 -0.14167155 0.01246804 -0.07147592 0.071140245 0.084169984 -0.0557183 0.09379251 0.035409506 0.09422119 0.12500912 -0.09358333 0.1706551 0.0717515 0.14858426 0.13090944 -0.10906514 -0.08259125 0.14103007 -0.14624092 -0.07478601 0.02593624 -0.14659406 0.13030954 0.06226833 0.08974423 -0.13221572 0.0058705513 -0.19622824 -0.05272588 -0.18607502 -0.087285824 0.010779301 0.15771858 -0.19596608 -0.11744421 0.053201906 0.0062014633 0.13521144 0.09373567 -0.06141685 0.015914116 0.017713517 -0.11989834 0.13129258 0.08503057 -0.1072669 -0.13947126 0.08821067 -0.14449726 -0.04575045 -0.15247266 -0.10879073 -0.13140684 -0.021410063 -0.13297284 0.063798994 -0.11962855 0.21113437 -0.09845894 0.11575182 0.006479692 0.11033334 0.03179623 0.108295634 0.13036862 -0.049955226 0.031766694 0.14253055 0.06533757 0.07992843 -0.16206655 0.04565864 -0.0639926 0.06861888 -0.14059931 -0.11108984 -0.10387686 0.10648094 0.15070407 -0.0504257 0.07473168 -0.02234292 -0.10701791 -0.14826785 -0.22429799 0.16601168 0.12501267 0.050631903 -0.12545203 -0.093330316 -0.17670025 -0.077823654 0.012994126 -0.010111611 -0.12387163 -0.039747357 -0.124796435 0.059597574 -0.073292054 -0.075587966 0.052093722 0.035974875 0.1083066 -0.02675985 0.16520374 0.068787165 0.02147884 -0.09257747 0.117208 -0.10090051 0.09717837 0.11334356 -0.04881727 -0.15771742 0.0146871265 -0.044025462 0.009109577 -0.06760879 0.09188406 -0.033675566 0.12505105 0.04959919 0.102006875 0.1386207 -0.17643848 -0.07461664 -0.22661659 -0.12777819 0.102049716 -0.087700285 0.012801848 0.11073427 -0.04226562 0.046552308 0.028185293 0.15989715 -0.06841262 -0.06290744 0.12716922 0.15835743 0.09705391 0.0493912 0.15756623 0.057157654 -0.11115111 -0.066929325 -0.044175323 0.09793171 -0.07500163 -0.039347015 -0.012155906 0.24018243 0.09487713 -0.037769116 -0.071104065 0.059591115 -0.08660325 0.1417355 0.044765025 -0.044606943 0.10919093 -0.058129143 -0.08020265 -0.15856083 0.22243743 -0.11420955 -0.044939782 0.18506931 0.047430705 0.10208317
ct 0.09681614 -0.030455742 -0.19209921 -0.031451907 0.030716714 0.051538546 0.25622362 0.009597778 0.02115262 0.02876486 -0.06355357 -0.0047905636 0.005010798 -0.07345227 0.16447137 0.17377485 -0.10742312 0.07042706 0.16759132 -0.0826012 0.070530616 0.07729194 0.057248466 0.0973997 0.07216034 -0.05537855 0.06581788 -0.11642105 -0.12698525 0.04256191 -0.08844723 0.25120223 0.009124334 -0.06905832 0.058273323 -0.1692908 -0.17307894 -0.24657868 0.27691132 0.0771784 -0.026183914 -0.16941962 -0.09537396 -0.10449627 0.11271367 0.18593381 -0.004558639 0.053940944 0.14324468 -0.23547184 0.13765444 0.26894665 -0.2549638 0.1903374 0.014560619 0.04600811 0.100971356 0.016439054 0.10627318 -0.023650082 -0.031157903 0.031488515 -0.18908347 0.009843631 -0.050764866 0.19996499 -0.24752617 0.2948221 -0.1827284 0.0019052722 -0.20347509 -0.17823654 -0.054835584 0.09804762 0.0047712685 -0.034170374 -0.021158172 -0.03334532 0.10141226 -0.17827354 -0.011922911 -0.20857862 0.111650266 -0.119878866 -0.00826572 -0.08312353 -0.18000226 0.13034683 0.10577976 -0.17856681 -0.08996736 -0.18240969 -0.02703728 0.23361938 0.16437076 -0.11630155 0.019204993 -0.15123765 -0.11993715 -0.19473316 0.08953057 0.049844474 -0.0040774527 0.098618954 -0.097366184 0.022406723 -0.12213809 0.020123044 -0.0023046006 0.20479955 0.046741016 0.0989142 -0.012291732 -0.061812527 0.025749655 -0.17664069 -0.017500523 -0.05508232 0.012444463 0.05323785 0.20792495 -0.020047836 -0.055289228 -0.10636534 0.020054255 0.13750006 0.06115165 0.18613832 0.06610806 0.006506053 -0.043632556 0.022265418 0.22476126 0.037582505 0.08947134 -0.17198 -0.08996562 0.006522598 0.010401686 -0.11681789 -0.17925295 0.063641965 0.16293587 0.08959256 -0.0063518663 -0.08955647 -0.00078466587 -0.056631472 0.084679 0.04245898 0.05458569 -0.012790679 0.120813824 -0.25386626 0.055303056 -0.25350046 -0.119436346 0.08004414 0.07844536 0.28350744 -0.028786097 0.04393526 -0.017010076 0.069044985 0.109782696 0.0889566 0.03248014 -0.008875588 -0.21519151 0.051886566 0.13763794 -0.11658835 0.26315838 0.14979766 -0.19573992 -0.016185064 -0.021200653 0.1763672 -0.015012146 0.19211121 -0.05408524 0.01925259 -0.17939909 -0.15521643 0.021001862 0.1342446 0.07454707 -0.017533462 -0.0006366409 -0.018487241 0.056322053 -0.12839161 0.090784535 0.0050175064 0.030257536 -0.010998131 0.030402474 0.040543776 -0.0769302 0.02255745 -0.07386209 -0.17258267 0.0082479995 0.100537755 -0.20509377 -0.035373643 0.16409391 0.09329463 0.19881068 0.170709 0.19953461 -0.11575417 -0.045029223 -0.06624808 0.05678864 -0.038031645 0.18159506 0.014906356 -0.12321199 0.17497265 -0.18740322 -0.06841568 -0.06690524 -0.03782349 0.01669579 0.09948523 0.03894174 -0.10845803 -0.047610655 0.004932239 0.03191997 -0.024390418 -0.06587585 -0.19883354 0.09692979 0.046263285 -0.008634169 0.13245869 0.09547688 -0.033395823 0.121214494 0.044167496 0.035246108 0.22961795 0.004504582 0.15446584 0.10496854 -0.00150183 0.053252365 0.13415053 0.058369767 -0.14335534 -0.084900275 0.07683856 -0.08910813 0.16449583 -0.23183066 0.1368196 0.07307465 0.13772175 -0.12376248 0.06902259 -0.18290167 -0.07257117 0.070793636 -0.03209314 0.04511091 -0.09811096 0.17800623 0.023655724 -0.12292588 0.31239498 -0.07328344 0.09150572 -0.06655262 -0.18187052 0.13241208 0.23382063 -0.19186443 0.03527621 0.21736571 0.036424585 0.13732626 -0.0013093756 -0.036065366 -0.19491677 -0.1533892 0.21953815 0.110341124 0.21861695 -0.13970788 -0.1876464 0.060849193 0.009166095 -0.012798666 0.07199932 0.016507939 0.06944735 0.0465561 0.014876527 0.08331227 -0.01736728 0.03866916 0.20487204 0.15439199 0.10809247 0.21776076 0.23316574 0.007302472 0.03324705 0.1148814 -0.19463429 0.04216574 -0.117163405 -0.05035426 0.08284823 0.14258215 -0.046959765 -0.050201554 -0.22338796 -0.040352054 -0.08865309 -0.059692074 -0.10303616 0.15453094 -0.07444493 -0.20057009 -0.19394705 0.062460903 -0.0045365226 -0.07880703 0.12484377 -0.005143572 0.018655444 0.0068247453 0.12935594 0.23235749 -0.06250528 -0.19472995 -0.04165583 0.3035841 -0.035200723 0.035999283 0.09688684 0.058189753 0.028560238 0.04533312 -0.14152502 -0.12251002 -0.109390005 -0.21264666 -0.2589746 -0.08109275 -0.11254557 0.07474456 -0.17662263 0.11995186 0.22121295 0.0025835126 0.1044938 0.23238973 0.03252056 0.18175702 0.004507259 -0.22506995 -0.13639665 -0.0052626394 0.036005378 0.00077773357 0.22576706 0.1762115 0.0002195137
xg -0.15412594 0.055700663 -0.09927187 0.0711874 0.023301728 0.106332175 -0.030589348 -0.14077432 0.005791121 -0.077668406 -0.028797299 0.13358875 -0.044244424 -0.091212034 0.088742666 0.10756974 0.106714755 -0.096119165 0.13776617 0.09678404 0.07005622 0.029035801 -0.13321844 0.14382254 0.07307442 -0.008115766 -0.025240215 -0.17014614 -0.1500846 -0.1801885 0.21546936 0.029460518 -0.07004835 -0.08681054 -0.16825938 -0.16121238 -0.07151003 -0.19851105 0.024474118 0.055016004 0.15527955 -0.1882237 -0.16471145 0.012051659 -0.052656513 0.12305384 0.12458148 0.16303761 0.052468587 -0.16315657 0.10843826 0.07088118 0.006080212 0.08989311 -0.12672092 -0.12456439 0.1693647 0.18592224 0.16874808 -0.07817239 0.07470268 -0.058985308 -0.17399491 0.07267887 0.07728422 0.16608976 -0.18534337 0.18968429 -0.19858965 -0.05581547 -0.004077015 0.00317064 0.1243781 -0.008553613 0.0659474 0.12367009 0.07742669 0.23947197 0.20054215 0.0008856134 0.058488157 -0.17451748 0.1311169 -0.074656874 -0.11350823 0.07090431 -0.1067198 0.03964623 -0.12734033 -0.055820603 0.05526879 0.096751824 0.08854201 0.04288179 0.19716868 -0.17566913 0.04819637 0.0015359647 0.02486694 -0.14508228 0.13719726 0.1276717 0.0467103 -0.093672164 -0.08145871 -0.039689157 0.0077087027 0.09676791 -0.13776559 0.16709487 0.017908819 0.15843906 0.054076754 0.072326034 0.1023148 0.09600906 0.102137074 -0.056187566 0.036034495 0.1570047 0.07419443 -0.099920936 0.1313807 0.1794184 0.10718921 0.15856625 -0.21311893 0.038228355 -0.066234946 -0.053633366 -0.08223025 -0.055604342 0.103123404 0.100170806 -0.0941383 -0.09976198 -0.01466537 0.08882845 0.11754745 -0.0368805 -0.07504624 0.054509513 0.16871765 0.05475803 -0.15849714 -0.079648696 0.1078936 0.06571622 0.057023823 -0.16519044 0.056682833 0.0024965652 0.074052304 -0.20914392 -0.012851515 -0.05930426 -0.0663651 -0.11672473 0.013248445 0.11572957 -0.13200146 -0.13994946 -0.08535388 0.039097432 -0.06524389 -0.024136992 0.20269665 0.15528116 -0.14012383 -0.18983401 -0.043224808 -0.072477244 0.13451636 0.13626213 -0.02315019 0.06610307 -0.10419278 0.122520916 0.09528809 0.1709085 0.119469814 -0.04088131 0.069231115 -0.008222346 0.086974956 -0.043462798 0.09392447 -0.042196203 0.16006856 -0.16312604 -0.14957406 0.117711775 0.1938614 0.11209652 -0.14580642 -0.054780412 -0.09492964 -0.03267417 -0.05154678 -0.08811796 -0.041137163 -0.11102574 0.054481756 0.12985931 -0.045613255 0.12829284 0.16692793 -0.10969478 0.096709184 0.09853901 0.09838372 0.10607134 0.022745665 -0.018183269 0.14695378 0.08032214 0.03428444 -0.117943145 -0.17048226 0.159924 -0.14196968 -0.14304072 0.022035053 -0.052417554 0.13310303 0.034571223 0.123994574 -0.022602629 -0.051743608 -0.020624323 0.10808318 0.07475154 -0.21385984 -0.032267593 0.12668088 -0.17115861 -0.15080492 0.13668229 0.122391514 0.15247679 -0.0069744894 -0.0677721 -0.13562587 0.07445688 -0.073341615 0.027657622 0.06302618 -0.113704085 0.0113061555 0.11460779 -0.041029856 0.016055983 -0.052112557 -0.05520628 -0.036219902 0.18833742 -0.002246564 0.14104125 -0.09779397 -0.05701216 -0.055204675 0.044485934 -0.116327226 -0.01679642 0.16248366 0.012911624 0.14804244 -0.11343296 -0.06190409 0.088126116 -0.08858644 0.12273051 -0.041914295 0.099274114 -0.060060818 -0.16845822 -0.13993558 0.10904176 -0.0655759 0.090552315 0.1306314 -0.08283283 0.073982514 -0.11359239 -0.109704055 -0.08576083 -0.0594978 0.014347009 0.1448049 0.06230742 -0.07511637 0.04362212 -0.06133402 -0.12844133 0.017063387 -0.123605736 -0.07822263 -0.014939335 -0.1198112 0.18627158 -0.09161586 -0.14371641 -0.11579201 0.06533997 0.028444199 0.1154844 -0.036285 0.13559572 0.08885784 -0.021569196 0.082842186 -0.103469394 0.10340657 0.06828957 -0.17708048 -0.17721687 0.068987325 0.08869728 -0.014337231 -0.16432746 0.0977261 0.012319843 0.16573106 -0.16835195 0.055050403 0.15139042 -0.22254205 -0.038828 -0.1144264 -0.034146704 0.069497354 -0.09885908 -0.13916971 -0.023592375 -0.037654154 0.13585788 0.19649242 0.082845055 -0.11016284 0.022684012 0.11102119 0.12335513 0.12703419 0.04729891 -0.0068976246 0.19680458 -0.062073875 -0.13880388 -0.097767755 0.067901075 -0.016237263 -0.035153393 0.04141529 0.20334159 0.11339379 0.10993009 0.021646032 0.033721354 -0.17615306 0.06965031 0.16024463 -0.056164805 0.085359216 -0.1300404 -0.065356895 -0.10263083 0.16488844 -0.14866413 -0.079995245 0.15292284 0.05735555 0.03198466
cc -0.116744794 -0.04076131 -0.11005155 0.10957651 0.13075691 0.020292444 0.046968386 -0.14814334 -0.12368372 0.02999307 -0.03888353 0.035212964 -0.03630596 -0.058744263 0.08722706 0.0909505 0.10734611 -0.11119665 0.10014646 0.09343902 0.084998086 0.06488505 -0.14498425 0.08865177 0.07773636 -0.12986015 -0.12780754 -0.13895641 -0.052330583 -0.075748175 0.06269955 0.08407025 -0.11823389 -0.09414951 -0.1321426 -0.050465606 -0.06715995 -0.102153465 0.17458731 -0.028343722 0.0891734 -0.12821281 -0.0583656 0.018113846 -0.17356272 0.105792455 0.08319884 0.067983285 0.14092699 -0.12917928 0.13700536 0.10605655 -0.038414825 0.08691803 -0.14044122 -0.085225224 0.124841996 0.097966745 0.095181316 -0.05489877 0.08637981 -0.09913768 -0.036655672 0.115965575 0.16420598 0.075848624 -0.08119144 0.037666917 -0.10537083 -0.05218077 -0.057152074 -0.11237374 0.12454262 0.12688011 0.13387232 0.077320844 0.11647557 0.03496909 0.098816685 -0.064792514 0.055110484 -0.11825049 0.12919252 -0.025490047 -0.16421032 0.07840172 -0.054533016 0.15711573 -0.121057525 -0.039473146 -0.14810926 0.10483482 0.06606081 0.08388521 0.050505687 -0.19067042 0.03494769 -0.115600504 0.041201465 -0.14643975 0.111293055 0.028657261 0.12027228 -0.17078617 0.007904263 -0.09882235 -0.024838315 0.13526599 -0.034401234 0.11738352 0.12588681 0.031342722 0.14464684 0.13805862 0.07902643 0.064772144 0.095939696 -0.10327183 0.07083302 0.13765514 0.07727466 -0.08343155 0.065744504 0.040118072 0.04178791 0.05158944 -0.09678414 0.023111876 -0.15337458 -0.049713414 -0.0851522 -0.12081137 0.04422107 0.025577446 -0.13743453 -0.07526332 -0.07045591 0.10707475 0.10616692 -0.046627823 -0.13548331 0.09272659 0.064793505 0.055010058 -0.08043484 -0.123435214 0.019011391 0.1176193 0.04938893 -0.15834694 0.08869376 -0.16600814 0.053127762 -0.064669296 -0.15172927 -0.1024894 -0.15232784 -0.14565101 0.02178696 0.072690666 -0.1058211 -0.06456537 -0.1087573 0.037967987 -0.09867411 -0.06694346 0.08684648 0.121517874 -0.076751955 -0.11865988 0.1354039 -0.116117634 0.11248048 0.04630564 -0.05155997 0.08863762 -0.07177059 0.02577979 0.073251285 0.015198614 0.19655584 -0.06827736 -0.16119094 -0.08893176 0.13665475 -0.012587838 0.050478075 0.09712374 0.03902234 -0.10431595 -0.12978078 0.08197161 0.036897916 0.057819195 -0.03458703 0.068453416 -0.056820035 -0.11570009 -0.08598436 -0.018866908 -0.1262489 -0.10513097 -0.08273665 0.17176433 -0.082363226 0.19087291 0.07461047 -0.1523589 0.09291269 0.004884453 0.09501266 0.1412005 -0.09757325 0.07449823 -0.0005918991 0.08042986 0.12560089 -0.1296148 -0.11316595 0.12249045 -0.096557274 -0.09833037 -0.10771859 -0.06799743 0.077387705 0.025526438 0.087074995 -0.122908734 -0.008641435 -0.039355993 -0.05012248 -0.17486557 -0.14466922 -0.045789007 -0.009967347 -0.05555474 -0.035069622 0.08504687 0.06967624 0.1363055 0.14544237 -0.13181378 -0.09026058 0.09787012 -0.10044147 0.091761 0.034534324 0.024116766 -0.07301571 0.08237431 -0.078333326 0.15508151 -0.09455207 -0.030461144 -0.027085703 0.02118971 -0.14629775 -0.00520756 -0.094681874 0.042317275 -0.13474187 0.12588309 -0.1268702 0.08570995 0.013069707 0.12872535 0.10016049 -0.11840058 0.10177701 0.024020376 -0.072808996 0.092527196 -0.00903781 0.029846024 -0.13330194 -0.12275623 -0.11797379 0.08043874 -0.13202393 0.115145974 0.0691542 -0.08146707 0.10638191 -0.076008484 -0.048478592 -0.112203844 -0.0326018 0.11040156 0.13311762 0.065734684 -0.067740954 -0.1337152 -0.11468464 -0.072418205 0.091018036 -0.07320698 -0.10863805 -0.09492286 -0.13772555 0.11725619 -0.13823846 0.006012159 -0.14753222 0.04711349 0.0528904 0.08398043 0.042484332 0.02059287 0.1610811 -0.12912722 0.103943706 -0.07061825 0.15233736 0.10438864 -0.057033136 -0.12595576 -0.004114892 -0.06728656 -0.15403937 -0.1437262 0.11749582 -0.070657134 0.11835285 -0.084231175 0.13297239 0.048607547 -0.054463115 -0.10239817 -0.16051988 -0.039405692 0.07028179 -0.07326318 -0.15915713 0.08849252 -0.089796804 0.062670834 0.13713923 0.08194909 -0.07475064 -0.086208336 0.02213169 0.1299298 0.09824426 0.0239728 0.07941866 0.15467964 -0.09431751 0.024290709 -0.123734154 0.07491824 -0.093343936 -0.07638363 0.10224346 0.08870163 0.03256554 -0.06166429 0.090261824 0.032479815 -0.14834394 0.158667 0.040946018 -0.064029016 0.120643385 -0.13212079 -0.07384538 -0.1058434 0.05330181 -0.1403866 -0.13135384 2.1424872e-05 0.114876285 0.09240275
ca 0.14223881 -0.022469327 -0.16468832 -0.10641267 0.031916697 0.0020883274 0.32236093 -0.038755413 0.034706246 0.011055591 -0.07102785 -0.06888624 -0.086984836 -0.042592794 -0.050059665 0.24721108 -0.14877656 -0.004122935 0.19212607 -0.061735414 0.097640544 0.13477725 0.06343431 -0.014815401 0.026232572 -0.017806342 0.1148034 -0.025887605 -0.1232605 0.0671921 -0.1887765 0.22095157 -0.02089043 -0.094279006 0.061886966 -0.17722653 -0.12885909 -0.24557823 0.29947096 0.18398103 0.032465305 -0.13711733 -0.11237803 -0.17179833 0.08151995 0.13054518 0.10179407 0.10229495 0.21131012 -0.17450772 0.12867725 0.1316471 -0.19476627 0.17306899 0.014693954 0.1255577 0.08974225 0.078154355 0.16807587 -0.053713575 -0.014557382 -0.030154828 -0.23036985 -0.035815742 -0.0894803 0.20471828 -0.14817353 0.2749061 -0.18068466 -0.025011031 -0.113627814 -0.22954698 -0.052436184 0.17277971 0.08319717 0.017945705 -0.040467445 -0.08693301 0.1740128 -0.22613488 -0.025763307 -0.15135778 0.2252866 -0.14340732 0.06147735 -0.013489235 -0.14719933 0.18393207 0.0067076567 -0.2140887 -0.09289959 -0.14511232 0.0530049 0.18691678 0.19683945 -0.108864754 -0.06750529 -0.10323495 -0.15434793 -0.18141823 0.11588995 0.026708428 0.06854718 0.032989237 -0.18146001 0.08609289 -0.059672896 -0.017024586 0.016513968 0.17278986 0.038120937 0.18680489 -0.023534046 -0.039006922 0.016795158 -0.1796997 0.05984161 -0.111592144 -0.029538555 0.11379035 0.24203311 -0.12893638 -0.028595882 -0.0034055596 0.0040367674 0.2321864 0.106568515 0.2610643 -0.013729399 0.06233272 0.038208872 0.15622586 0.26933438 0.07301853 0.14537825 -0.096546255 0.052833542 -0.09832194 0.20726404 -0.1575247 -0.08072404 0.0078006387 0.15452966 0.073294975 0.023256581 -0.15083928 0.06120874 0.018220056 0.08469589 0.08484612 0.11198116 -0.06349529 0.07467574 -0.18276538 0.10878304 -0.2601759 -0.11286386 0.040108398 0.005312755 0.17974114 -0.00040796987 0.04080668 0.005904416 0.113597356 0.07423607 0.020960646 -0.046201717 -0.040818814 -0.21973285 0.071765326 0.24009694 0.022295495 0.20866293 0.12882654 -0.23659343 -0.13763462 -0.071354926 0.24512646 0.030393979 0.2351172 -0.05429811 0.0229976 -0.14575163 -0.16580303 -0.0041781673 0.06569682 0.11855839 0.04805314 0.057073433 -0.0148905665 0.079518616 -0.089306414 -0.0038417974 -0.090592146 0.051949672 -0.0931763 -0.04050802 0.055665176 -0.106082916 0.060725804 -0.14426985 -0.20035073 -0.011455611 0.1281582 -0.11856515 -0.09052955 0.17087682 0.067110725 0.19564076 0.17851615 0.22862245 -0.12772809 0.06672006 -0.099395774 0.018249823 -0.033452533 0.18233828 0.08203135 -0.12350281 0.13262056 -0.2005658 -0.034484107 0.0014127805 -0.11917569 -0.05616303 0.15775579 0.0873806 -0.15969096 -0.08999075 0.001821274 -0.0785405 -0.08560678 0.0817424 -0.25547028 0.16768199 0.07146444 0.01405646 0.17222519 0.18008612 -0.07875527 0.012253258 0.07626438 0.049857516 0.15384597 0.045327462 0.11804338 0.15712708 -0.039645195 0.06671217 0.17018631 -0.037350412 -0.10083369 -0.08681268 0.047448732 -0.11996565 0.14605702 -0.24278153 0.19599618 0.09563975 0.1730412 -0.07554306 0.02962292 -0.14159791 -0.14459409 0.083735175 -0.052469425 -0.0072265295 -0.12743503 0.09385023 0.07550599 -0.23596673 0.23231098 -0.16304545 0.23311126 0.04381741 -0.3006106 0.1537548 0.21196353 -0.054952946 0.034478717 0.13827533 0.025666304 0.22095643 -0.013602029 -0.018385291 -0.09353333 0.021094227 0.28988492 0.18194397 0.23296283 -0.087946765 -0.15147662 0.078709595 0.07707536 0.0015281058 0.12037806 0.043088693 0.09110478 0.03158706 0.052248742 0.12985754 -0.10039231 0.0009653811 0.22157116 0.050660383 0.21400408 0.1860818 0.2352825 0.025989445 0.058565706 0.15901542 -0.21473192 -0.01242538 -0.049984347 -0.015185059 0.045018245 0.23435527 -0.09584751 0.047027275 -0.2403804 -0.009251844 -0.18694746 -0.007307451 -0.23773113 0.19814953 0.011861236 -0.20500419 -0.15462653 0.03840097 0.06285174 -0.054866478 0.09593805 -0.048127368 -0.0761522 0.034786224 0.16321795 0.09149534 -0.022088459 -0.22041067 0.015791956 0.2012825 -0.055890895 -0.12662746 0.15775453 0.04559182 -0.045442503 0.043194104 -0.21950638 -0.26305762 -0.10503942 -0.14932555 -0.2227976 -0.12253062 -0.08231873 0.05977021 -0.26914454 0.26236945 0.109560914 -0.0239771 0.10986355 0.06971086 0.012441489 0.19849595 0.05226592 -0.20936513 -0.06061131 -0.03387955 0.10824028 -0.0138731 0.21385379 0.14002916 -0.068576865
aa -0.14995368 -0.119612165 -0.0823189 0.12858927 0.14278576 0.11571937 0.09580565 -0.04725708 -0.10501468 -0.09288327 -0.107286386 0.089457504 -0.11208493 -0.06060725 0.11877397 0.13011841 0.013330577 -0.07097811 0.07083865 0.15355976 0.11013779 0.083981365 -0.087912716 0.055264663 0.021948444 -0.13432613 -0.088758774 -0.07616898 -0.019125415 -0.13894205 -0.0011899321 0.12455791 -0.11481634 -0.13158785 -0.1275643 -0.056851204 -0.06519453 -0.077390395 0.11699212 0.10882048 0.13300209 -0.10415216 -0.11980225 -0.056176472 -0.14683832 0.11889749 0.12197932 0.03246445 0.08230937 -0.072365224 0.08944909 0.076157115 -0.11526241 0.055486105 -0.11465214 -0.05057999 0.050346233 0.05878249 0.0136705255 -0.12404026 0.041670483 -0.14956693 -0.05309781 0.14114767 0.09538527 0.024985638 -0.075988896 0.020410853 -0.033000365 -0.098800786 -0.116929494 -0.07832322 0.13823596 0.109131664 0.10943529 0.068351485 0.06893746 0.07695873 0.05161005 -0.032704156 0.082032196 -0.02358654 0.011734867 -0.09506539 -0.08750616 0.05116011 0.0017620146 0.09459416 -0.11951542 -0.0329628 -0.057306234 0.10910871 0.047246 0.07598172 0.09004907 -0.10568056 0.07375282 -0.090954214 0.14028037 -0.09777319 0.0983675 0.011910689 0.112189 -0.086175606 -0.104284294 -0.14801982 -0.11636435 0.025461845 -0.07284054 0.047962487 0.12320761 0.13790497 0.008653903 0.08535879 0.13532215 0.116344854 0.028473837 -0.13106863 0.086627156 0.035537332 0.06587746 -0.121477455 0.12372206 0.110446855 0.059785172 0.09381299 -0.074958 0.118318185 -0.06658523 -0.13635714 -0.12793075 -0.08625541 0.118875764 0.05999791 -0.14160417 -0.13102554 -0.065526515 0.13102254 0.10533043 -0.062277127 -0.10027641 0.045454904 0.110526256 0.10480481 -0.13229348 -0.06269823 0.046806112 0.13517219 0.06609968 -0.06755088 0.06824848 -0.118292995 0.11515745 -0.10837318 -0.09899334 -0.033716857 -0.04183584 -0.09376388 0.1441685 0.017424341 4.8112764e-05 -0.1374639 -0.11172436 0.14940399 -0.10273448 -0.13999584 0.03254369 0.10905867 -0.07842123 -0.10760294 0.13165444 -0.06433326 0.016811581 0.05413823 -0.049591508 0.10389522 -0.14148179 0.056491382 0.018782172 0.02633877 0.09962029 -0.09492891 -0.10580375 -0.06703146 0.12108022 0.048404623 0.13534653 0.050691973 0.13697112 -0.035708953 -0.1253196 0.1265173 0.05288597 0.033078384 -0.10966904 0.13506083 -0.12154863 -0.10747186 -0.07850892 -0.060088035 0.021831462 -0.07287266 -0.09791615 0.10172338 -0.13951495 0.061022013 0.03264707 -0.09247057 0.13586041 0.095107205 -0.024803462 0.04179231 -0.11453249 0.059389472 0.13477089 0.113947295 0.05073938 -0.11717523 -0.010787583 0.11968394 -0.062400043 -0.12855525 -0.09273842 -0.1306368 0.1182724 0.13601314 0.06817748 -0.09097224 -0.12582737 -0.13075204 -0.07904548 -0.027896916 -0.08550659 -0.1272582 0.1072882 -0.1168971 -0.13246462 0.11692624 0.09628675 0.1002704 -0.0028651329 -0.042176045 -0.080623664 0.12201882 -0.09119671 0.035423625 0.09055601 -0.14491817 -0.04309866 0.0956862 -0.120226495 0.11017123 -0.07628769 -0.101080336 -0.07457397 0.10479324 -0.02152214 0.032387573 -0.095391095 0.046467412 -0.026468083 0.1300079 -0.124524534 0.05479204 0.06580766 0.0927758 0.17196813 -0.08032385 0.026777519 0.08396567 -0.056613468 0.13238406 -0.13900903 0.06741388 -0.06892151 -0.057872754 -0.14108565 0.06078766 -0.03719826 0.0560762 0.038984258 -0.121661864 0.04336363 -0.103365794 -0.06931691 -0.053469054 -0.09707579 0.07166652 0.07237761 0.04792815 -0.07783685 -0.061564047 -0.059623163 -0.12362328 0.12619747 -0.110964365 -0.085055314 -0.09186877 -0.1256851 0.10912985 -0.028635327 -0.056130715 -0.048662838 0.07264363 0.07571721 0.065779574 0.04845948 -0.003603233 0.083261415 -0.14116615 0.1209449 -0.080356576 0.09907506 0.052442897 -0.09593951 -0.09209065 0.028018996 -0.058098447 -0.025969613 -0.079476714 0.14136676 -0.10973465 0.041691322 -0.15971552 0.08192329 0.10079965 0.003099136 -0.105498165 -0.08248198 -0.09594767 0.09735089 -0.045580897 -0.08704658 0.072051205 -0.09274356 0.07978774 0.10606852 0.047023583 -0.11719447 -0.07454174 0.017760241 0.08906665 0.11560074 0.05725891 0.035122566 0.11274103 -0.07917518 -0.036221933 -0.0845301 0.119270556 -0.098689355 -0.010470118 0.10903947 0.033457514 0.1461987 -0.1426324 0.09422633 0.07186055 -0.036620148 0.09560487 0.14207435 -0.068215 0.08699236 -0.112840585 -0.05942608 -0.06409122 0.093021184 -0.112776704 -0.08590682 0.114348456 0.09764782 0.1208816
cx -0.14169005 -0.06319986 -0.1584797 0.10643792 0.08841579 0.09347312 0.19785193 -0.19425969 -0.020824907 -0.17348546 -0.0796483 0.08807861 -0.012801999 -0.024567394 0.07080155 0.15191011 0.13044362 -0.13790396 0.11008802 0.15969628 0.07956848 -0.070636876 -0.16663438 0.1595066 0.09180865 -0.0830381 8.101123e-05 -0.044842746 0.07803219 -0.050234124 -0.02002988 0.028656952 -0.13775507 0.0015756006 -0.07977242 -0.18873113 -0.014799393 -0.06188898 0.1349973 0.04070847 0.15609099 0.028106682 -0.20529091 -0.19605578 -0.098467514 0.06805314 0.115922794 0.051701143 0.0002014481 -0.12343339 0.007998752 -0.033439256 -0.16486557 0.11187656 -0.048285488 -0.037902217 -0.001883326 0.048559263 0.13378623 -0.102432154 0.0011225689 -0.13487652 -0.033318944 0.093981475 0.001441447 0.018236239 -0.058442485 0.041666374 -0.048370905 -0.066045836 -0.08003062 -0.0967383 0.145935 0.13011338 0.074899346 0.17162263 0.062436923 -0.019909387 0.13329045 -0.13147487 0.11853292 -0.067380525 0.09051242 -0.03199938 -0.07109344 0.16333373 -0.12478509 0.21531884 -0.03561365 -0.08323019 -0.09838391 0.18053432 0.13509887 0.04338937 0.09643435 -0.022718675 0.05966458 -0.08980527 0.19088909 0.10932902 0.08775843 0.15432851 0.08721623 -0.10327852 -0.19865392 -0.094265565 -0.1429772 0.1195726 0.009857554 0.05264976 0.12544774 0.1283334 0.047471594 0.09321141 0.010557212 -0.03394422 0.17650399 -0.013266966 0.06624532 0.109183 0.176554 -0.10812111 0.07195991 0.0979828 0.18093422 0.08839481 -0.10654426 0.060489044 -0.24587971 -0.14994617 0.015309626 -0.06857711 0.060062405 -0.026692865 -0.06728264 -0.13348517 -0.13736828 0.11352713 0.0765376 -0.03895792 -0.13374369 0.049161136 0.060573287 0.12643583 -0.040514946 -0.12056735 0.10707014 0.02339142 0.06326592 -0.04574646 -0.00905771 -0.0850221 0.07241629 0.08219209 -0.10468746 0.014637219 -0.17163695 -0.03737813 0.093683854 0.017760627 0.06918797 -0.014402216 -0.062252115 0.1278255 -0.07190918 -0.09749178 0.0597681 0.17639951 -0.18556342 -0.1739346 0.20018502 -0.13369581 0.11415838 0.14628491 -0.05125885 0.006505176 -0.07884159 0.035457857 0.0875083 -0.057114236 0.092794545 -0.053280406 -0.12645428 -0.1762459 0.11844812 0.13879785 0.025678998 0.06860618 0.11658997 -0.17619577 -0.057762697 0.06060924 0.13626614 0.05603207 -0.060129993 0.01659698 -0.12535647 -0.09767018 -0.10081788 -0.021058781 -0.056288544 0.021491425 -0.061757833 0.17376791 -0.06648003 0.13041098 0.09533067 -0.10449749 0.129344 0.099443324 0.09132324 0.06559602 -0.019545142 0.062097073 0.056236576 0.02295065 0.06270865 -0.07396212 -0.060542088 -0.02854 -0.09651047 -0.16307394 -0.17510508 -0.04052213 0.05398154 0.1555612 0.035876695 -0.055872608 -0.07057824 0.029734096 -0.121215776 -0.04497055 -0.10571178 -0.12403157 0.12745048 -0.06585012 -0.10472617 0.024765315 0.08613499 0.096554786 0.13873067 -0.17704253 -0.15906224 0.014848875 -0.062269222 0.13524573 0.16961558 -0.07094077 -0.08985392 0.12005651 -0.020303393 0.16297868 -0.048716955 -0.09799998 -0.07032443 0.12818813 -0.20646746 0.108494766 -0.17421274 -0.028763438 0.03337009 0.11167041 -0.10489857 0.06487206 0.03463852 0.020213045 0.08561432 -0.1186645 0.08542919 0.082090996 -0.18403552 0.07370914 0.033188518 0.17420276 -0.10619963 -0.16205768 -0.013576128 0.18449953 -0.035272803 0.18003348 -0.08608628 -0.1200253 0.07162674 -0.104053006 -0.17888123 -0.029853364 0.043229923 0.100994736 0.13850893 0.13432597 -0.026594093 -0.1113278 -0.043897208 -0.153705 0.088970065 0.004291485 -0.14796104 -0.16690812 -0.091894075 0.053015083 -0.17648862 -0.053391077 -0.1283463 0.20326395 -0.08955588 0.16538085 0.17425574 0.13291878 0.15161484 -0.14011711 0.052907422 -0.12876923 0.033470757 0.15063104 -0.15991884 -0.047739517 0.14317963 -0.023371043 -0.12877263 -0.14921927 0.075632155 -0.08430791 0.08993263 -0.07664966 0.20173474 0.091325894 0.15813588 -0.037612516 -0.036110908 -0.0904856 0.07513655 -0.13869715 -0.15487064 0.08849579 -0.18005687 0.090097874 0.083073355 0.10466151 -0.17117266 -0.03867694 0.042433504 0.0009993333 0.01804232 0.044942245 0.07823897 0.09915155 -0.06924894 -0.119155414 -0.15739226 0.09722089 -0.06082993 -0.21290807 0.10321735 0.014020117 0.12039003 -0.123507634 0.15052406 0.10198383 -0.18788876 0.1242332 0.1375294 -0.12464892 0.06746424 -0.12685892 -0.07858895 -0.012877708 0.02151722 -0.019049378 -0.15120408 -0.055081505 0.081814535 -0.0058318917
ta 0.14367822 0.0318628 -0.1797366 -0.16075997 0.06456894 0.081943065 0.30761495 0.052441325 -0.0166376 0.04532989 -0.0607578 -0.1420228 -0.052012756 -0.054338116 -0.03010749 0.15728262 -0.13917044 -0.05634376 0.20112215 -0.08377135 0.07212934 0.13251273 0.08991323 -0.075752325 0.043431308 0.056747023 0.13424617 -0.048349377 -0.18471706 -0.029652923 -0.14037691 0.23645933 0.010028098 -0.110662416 0.10945416 -0.14997396 -0.20044751 -0.23008735 0.19830424 0.20413278 -0.042088747 -0.15277192 -0.15924478 -0.12664519 0.11332292 0.11727912 0.1217047 0.07053524 0.28617242 -0.1463983 0.15203078 0.16909443 -0.17417572 0.1625768 -0.06759025 0.09179343 0.11284123 0.12602004 0.16571483 -0.169904 -0.048349965 -0.003934744 -0.20271362 -0.057480656 -0.033483658 0.2514464 -0.0693678 0.18922178 -0.15419854 -0.05895242 0.05234827 -0.21125405 -0.011964048 0.15904294 0.047584735 -0.029314315 -0.030428328 -0.0648474 0.20718874 -0.22807823 -0.108166285 -0.11356264 0.20180234 -0.102057554 0.0656751 -0.068655685 -0.1424395 0.09297695 -0.06264825 -0.18074016 0.015070169 -0.118290365 0.0023273472 0.1797253 0.15291126 -0.117769375 0.044241246 -0.094891146 -0.20099454 -0.19019991 0.06046097 -0.055581212 0.04210678 0.10911387 -0.09219578 0.09693444 -0.040645912 0.02088486 0.030109383 0.15154548 0.05844233 0.11614612 -0.019472666 0.082016334 0.031461313 -0.11965736 0.16157271 -0.028941652 -0.09000295 0.10950631 0.25812492 -0.09627918 -0.09244305 -0.022586867 0.006049267 0.28266293 0.11915444 0.1335245 0.024409663 0.113940366 0.10670315 0.16459769 0.25416455 0.087355256 0.07144304 -0.15126306 -0.024529811 -0.065252915 0.15685996 -0.23414867 -0.10764205 -0.007640784 0.16917695 0.12657236 -0.009055275 -0.18451649 0.05765122 0.0478683 0.1297799 0.13232382 0.08623779 -0.027966188 0.052574713 -0.2742717 0.028037062 -0.1505862 -0.05769207 -0.0797112 -0.026672792 0.09757981 -0.1263343 0.008775771 -0.076549314 0.120632656 0.15350924 0.0140476 0.038278185 -0.06539431 -0.23614104 0.048686065 0.2099941 0.017789992 0.19111903 0.12129804 -0.12300488 -0.11313596 -0.06464834 0.18460004 0.04951097 0.23784438 -0.077914394 -0.09206482 -0.070991345 -0.13132308 0.029528169 0.066145465 0.15764582 0.0851767 0.031887896 -0.09446695 0.14280383 -0.16395804 0.026308438 -0.08164678 0.044950716 -0.11849108 0.008856505 0.0072870315 -0.17901477 0.11514365 -0.24723463 -0.1460139 -0.044543378 0.1469294 0.0034973666 -0.007996539 0.14085993 0.03891425 0.18623519 0.23123671 0.29560834 -0.10179543 -0.06723003 -0.14325088 0.0020085638 -0.059895217 0.17081897 0.08456349 -0.1543151 0.18863504 -0.22455221 0.018199638 0.024524396 -0.19934593 -0.01026545 0.08089602 0.11049125 -0.20941436 -0.060024172 -0.023513872 -0.12766354 -0.064315915 0.024017006 -0.20978518 0.14809915 0.00036577898 -0.040808663 0.10885934 0.19991729 -0.090334095 0.020718073 0.03261859 0.047347188 0.16531712 -0.00058201083 0.09746409 0.11147827 -0.05956372 0.051939648 0.14354917 0.010530417 -0.06949718 -0.10683912 -0.037577942 -0.18098538 0.14908245 -0.13434054 0.15747839 0.012160075 0.22918734 -0.08963815 0.023886807 -0.11212617 -0.19548619 0.04288095 -0.108953774 0.02559052 -0.11258781 0.015592476 0.040044844 -0.16576432 0.20273797 -0.08400205 0.23464409 0.054456145 -0.3354684 0.184467 0.19192597 -0.023970397 -0.02160199 0.18835162 0.08167466 0.24365191 -0.04102052 -0.04847332 -0.023107782 0.01886497 0.30374128 0.16631941 0.1854002 -0.07816107 -0.027777698 0.00037103693 0.095220625 -0.012216752 0.038743038 0.13122927 0.024659997 0.071793504 0.03587375 0.19024129 -0.13606878 -0.05757276 0.13204165 0.09838415 0.16630442 0.14066586 0.19936763 -0.02780991 0.10775845 0.119418524 -0.06427822 -0.032286752 -0.11990715 0.06398861 0.07950489 0.1961501 -0.17437232 0.1329884 -0.22226249 0.02154488 -0.17593314 -0.011061809 -0.22449344 0.17047407 0.024681466 -0.24095094 -0.16253863 0.07369398 0.011481579 -0.05068732 0.09779535 -0.05199626 -0.009785788 0.03952316 0.18798496 0.12165587 -0.070480414 -0.18615142 0.052034512 0.27656662 -0.06710263 -0.05891221 0.23312081 0.024078373 -0.08089715 0.109551266 -0.19852906 -0.17187877 -0.010550902 -0.07528697 -0.1093483 -0.058672883 -0.06467137 -0.03263212 -0.22054303 0.1989877 0.09570135 -0.002879762 0.13046724 0.00755143 -0.020505652 0.22851859 0.022509728 -0.28831363 -0.053127017 0.062381554 0.104359694 0.008730672 0.21020287 0.15750965 -0.04974179
xx 0.27188015 -0.08448005 -0.31450102 -0.23538898 -0.010273476 0.133315 0.34005168 0.02052362 -0.0619424 0.032585062 -0.2501902 -0.1323547 -0.012479177 -0.20561737 0.1919426 0.3207067 -0.30220905 0.098405965 0.29273438 -0.1686659 0.14922908 0.3584551 0.2552922 0.18766734 0.011487877 -0.13104582 0.20414914 -0.06851244 -0.3226252 -0.03664356 -0.30088714 0.21687278 -0.04485462 -0.21517971 0.14486371 -0.24182305 -0.21286522 -0.33327037 0.26687685 0.37747818 -0.10256033 -0.37750894 -0.25971484 -0.3363393 0.22325481 0.13955507 0.06437806 0.13049997 0.32043546 -0.27381566 0.1606935 0.28909847 -0.32212573 0.274457 -0.0038502899 -0.0034271623 0.33809912 0.18640366 0.26367334 0.13361248 0.016227137 0.09370386 -0.32295555 -0.17387435 -0.081359364 0.2808614 -0.25729203 0.3366871 -0.25792015 -0.03242568 0.07526659 -0.27462953 -0.16293074 0.26272333 0.12467073 -0.047927517 0.10675106 -0.091029726 0.046878096 -0.27268434 -0.13709205 -0.27754825 0.24948189 -0.29589176 0.20849594 -0.16564392 -0.25468105 0.26513317 0.06949387 -0.3208443 -0.033842485 -0.4068606 -0.111733876 0.24409209 0.37881973 -0.20825474 0.11213283 -0.20573707 -0.35054952 -0.2699711 -0.013249329 0.003512098 0.1369285 0.23559488 -0.24682854 0.011056044 -0.15743072 0.07472357 0.011054765 0.22016102 0.058136933 -0.13330862 -0.09247861 0.071662344 0.045108818 -0.36379018 0.044833116 -0.22575271 0.024526212 0.09836398 0.28452352 -0.09853367 -0.07904749 -0.025277626 0.024407048 0.38470048 0.32900706 0.17717695 0.09848288 0.08969334 0.071615174 0.21065669 0.23477565 0.24537762 0.2857709 -0.18265918 -0.19052894 -0.05571426 0.23986283 -0.16758071 -0.123582035 0.16352515 0.25930944 0.16537149 0.013454033 -0.22701164 0.29648373 0.031476248 0.15165912 0.08753531 0.28410763 -0.12427529 0.09473897 -0.36081365 0.15550457 -0.27517593 -0.17437467 0.031186454 0.17865436 0.3262408 -0.25448877 0.0007385147 -0.051670913 0.3021045 0.32217526 0.08091105 0.17152546 -0.06181437 -0.35741934 0.16856554 0.30069077 -0.16448994 0.3296977 0.3697617 -0.33552334 -0.18675376 -0.038105458 0.23202148 0.032445278 0.35801443 -0.17855977 -0.20194238 -0.31655574 -0.2600451 -0.00459026 0.29633135 0.27768242 0.11909474 0.113825515 0.00070059125 0.29015154 -0.23716629 -0.070339575 -0.09589867 -0.071875446 -0.045251492 -0.018237492 0.02285411 -0.23157229 0.09197874 -0.20803563 -0.34129038 -0.15053076 0.102293275 -0.24360512 -0.1873721 0.27697745 0.16392392 0.23607452 0.26430956 0.2842218 -0.43443462 0.019831557 -0.23192924 0.17898454 -0.12489187 0.2696507 0.0042123697 -0.10506952 0.29818973 -0.26597923 -0.036354963 -0.14806834 -0.14752977 -0.079394884 0.028240288 0.10110713 -0.27045378 -0.20337017 0.0015544123 0.18315282 -0.18946035 0.028416533 -0.33967587 0.1494212 0.10597436 -0.0759623 0.22949152 0.18487592 -0.06131993 0.16222206 0.15204813 0.06222524 0.35282663 -0.08974294 0.37797847 0.30505672 0.1217225 0.17011403 0.22380115 -0.2359163 -0.24934301 -0.18821666 0.16679032 -0.18692924 0.19679081 -0.23185745 0.29340276 0.11908307 0.36128038 -0.33416158 0.10782695 -0.31119028 -0.36664143 0.17427902 -0.08061982 0.053387467 -0.16546291 0.23204851 0.055480573 -0.17152227 0.25345442 -0.29934254 0.15699051 -0.04411433 -0.2438158 0.3569817 0.31055588 -0.24266528 -0.010280392 0.3818659 0.062663734 0.32292375 -0.12913127 0.031401902 -0.0652249 -0.09220898 0.22829138 0.30250904 0.27271187 -0.30717793 -0.11664188 0.10112358 0.10977554 0.009389982 0.07564903 0.32093963 0.187128 0.1382449 0.20078881 0.22456113 -0.15413697 0.016369015 0.23779424 0.25514784 0.32266197 0.39312828 0.4006443 -0.09662287 0.08626768 0.25670773 -0.063478425 0.032006435 -0.21835187 -0.015657334 0.27104893 0.35906875 -0.24485114 -0.048913963 -0.13600862 -0.00087477 -0.23613156 -0.10299486 -0.29937762 0.21155816 -0.018662954 -0.24898924 -0.33313698 0.15211608 0.016717417 -0.23616548 0.2893811 0.09697802 -0.015751924 0.13193922 0.3613479 0.20617019 -0.0907397 -0.26546997 -0.08705423 0.30434027 -0.025274465 -0.028450385 0.34245545 0.29107103 0.045540754 0.10460728 -0.38336933 -0.31505615 -0.16667819 -0.2509185 -0.31976607 -0.22961348 -0.27685723 0.0771612 -0.15061544 0.09790262 0.22557981 0.101850554 0.21033524 0.18286909 0.042596083 0.30520752 -0.02645898 -0.3600059 -0.06653904 -0.15630957 0.2020077 -0.068447284 0.36985725 0.29732808 0.019640367
tx -0.116297185 0.0095944125 0.01650701 0.006435544 0.11083669 0.09545361 0.0970925 -0.026477134 -0.03142499 -0.039643407 -0.09212547 0.03742028 -0.156085 -0.19925915 -0.029897725 0.03845514 0.007150024 -0.057180088 0.16618009 0.12755814 0.057316005 0.22301361 -0.16058187 0.076820455 0.110691585 -0.012341844 -0.073207706 -0.045742262 -0.046796106 -0.15999006 0.10117542 0.18516107 -0.0938532 -0.043543566 -0.11024329 -0.11712978 -0.103705704 -0.04508574 0.03446872 0.21556397 0.09517962 0.029048499 -0.14959908 -0.17218775 -0.05696808 0.18709517 0.06261788 0.084367126 0.1556872 -0.05267973 -0.0030322624 0.042275786 0.02400462 0.16495907 -0.21027452 -0.12002082 0.043397836 0.061182104 0.083628796 -0.21564592 0.13346337 -0.13638577 0.013410042 0.011777076 0.1385945 -0.018087799 0.11910766 -0.08520663 -0.04569136 -0.20022184 0.22502574 -0.1620261 0.2282088 0.18567124 0.1585498 -0.02928848 0.041605398 0.096892715 0.13686322 -0.20325267 0.070618644 0.016696678 0.16436447 -0.1342429 0.029093103 0.054972325 -0.04161468 0.042777706 -0.19362865 -0.13625076 -0.049767707 0.13131836 0.08627343 0.06389053 -0.019627716 -0.039211296 0.14973253 -0.09189543 0.15742645 0.031389747 0.0672651 0.04177579 0.014965212 -0.045192666 -0.116957754 -0.0686178 0.01358856 0.16566901 -0.13798608 -0.011322982 0.062633775 0.08290271 0.15207785 0.109776296 0.13838153 -0.021154514 0.13231097 -0.121915966 -0.027690193 0.03408067 0.17583442 -0.099015385 0.21332128 0.09342916 0.1714296 0.16587637 -0.093680605 0.052678216 -0.2060882 -0.012750954 -0.05790183 -0.013614942 0.17632268 0.080557466 -0.06880309 -0.11046451 -0.07257566 -0.05031541 0.18556768 -0.14403087 -0.008129777 0.1520222 0.15502825 0.12655948 -0.061109472 -0.111136585 0.038954712 0.08912121 0.15287408 -0.02716092 0.15555303 -0.089473926 0.024925219 -0.058722932 -0.21784659 0.04440342 -0.08256414 -0.17190911 -0.03974349 0.07892587 -0.13195588 -0.22380815 -0.13369052 0.18185635 -0.14733543 -0.07441499 0.11051058 0.05259661 -0.10993831 -0.035503957 0.04753231 -0.055107124 0.04407614 0.111301765 -0.010759115 0.1196504 -0.13729124 0.111191295 0.11548462 0.1093424 2.0640466e-05 -0.0073512923 -0.014692674 -0.12722394 0.09386804 0.14020455 0.018278351 0.18975051 0.08535141 -0.213573 -0.038887534 -0.009081432 0.110650405 0.12676166 -0.022106359 0.060360096 -0.14976278 -0.099120095 -0.108104825 -0.09224589 -0.16409388 -0.08904524 -0.036085248 0.10839693 0.01991863 0.0049614515 0.066458434 -0.11122754 0.10068185 0.15495168 0.08918916 0.17436302 -0.11988739 0.053952694 0.10078935 0.12143887 0.08691812 -0.027909072 -0.054510437 0.023607045 -0.06657418 -0.13727513 -0.013457937 -0.104039215 0.1697314 0.19296096 0.17970131 -0.07069311 -0.10918668 -0.1228932 -0.15147837 -0.13555247 -0.038473736 -0.12653245 0.0760235 -0.22511771 -0.084217325 -0.09500038 0.15205307 0.056768566 0.082144976 -0.16116142 -0.017120475 0.06506768 -0.042312298 0.030344447 0.13692667 -0.083865106 -0.13879938 0.050313946 -0.11150719 0.1471687 -0.06959938 -0.20635793 -0.12794219 0.22362047 -0.062052142 0.10234572 -0.05000262 0.13579214 0.03612748 0.09319647 0.023462396 -0.006345898 0.097404405 0.02512997 0.07079969 -0.061161816 0.06668059 0.030706692 -0.17756192 0.03802162 -0.05576814 0.17818727 -0.14469764 -0.1625484 -0.13801195 -0.003749691 -0.011030776 0.089600675 0.046647914 -0.11293476 0.11628917 -0.16729796 -0.1272501 0.018033288 0.1529848 0.18326762 0.081035875 0.11588213 -0.14894083 -0.041635774 -0.14194994 -0.022514882 0.020089645 -0.1251068 -0.078226306 -0.16376375 -0.15266651 0.09379646 -0.09767925 -0.111408636 -0.121597126 0.07731033 -0.0029554523 0.13810611 0.0075360234 0.06965447 0.08812274 -0.02909445 0.12322291 0.042859618 0.10774615 0.07331017 -0.023671728 -0.09244986 0.06158261 -0.11376683 -0.030042613 -0.078795314 0.16330467 -0.06472831 0.07108318 -0.19078854 0.15504004 0.17818612 -0.02014601 -0.1458418 -0.09453501 -0.16630222 0.08133753 -0.08543967 -0.12344298 0.11848534 -0.041141905 0.06414895 0.08925692 0.011448504 -0.20039728 -0.088656895 0.032046612 0.0877282 -0.008588377 0.13878752 -0.007573514 0.08954399 -0.09558927 -0.07647393 -0.09828109 0.13331714 -0.035879556 0.011375938 0.2073347 0.09934799 0.12927411 -0.15322384 0.1382441 0.05377099 0.023669012 0.13161549 0.052091423 -0.15075909 0.13494003 -0.049334697 -0.03835387 -0.012417052 0.115352675 0.023618976 -0.088759586 -0.14200848 0.064511456 0.10677248
ga 0.08272599 0.008629824 -0.14688934 -0.13105871 0.024067704 0.10679405 0.25401634 -0.0029782553 0.0061184526 0.02393 -0.13141558 -0.050189942 -0.16096368 -0.03810032 -0.013838408 0.16894867 -0.13428892 -0.063325934 0.21950991 -0.056185853 0.11437774 0.10158598 0.046678413 0.04148006 0.06876485 0.007831449 0.037359774 0.020415682 -0.1435755 -0.014336051 -0.12445731 0.21296309 0.008161429 -0.18657085 0.08717657 -0.21210891 -0.15926188 -0.20919582 0.16567747 0.20080815 -0.032702412 -0.13857913 -0.11258359 -0.20877546 0.090229765 0.16033784 0.0766271 0.08741737 0.16623108 -0.21621858 0.14231274 0.17587043 -0.1669818 0.10331778 -0.009341116 0.08336077 0.12830016 0.05317944 0.12837973 -0.12243954 -0.003101591 -0.0013880164 -0.2751549 0.007336356 -0.07810414 0.1914755 -0.18173213 0.23278207 -0.13494667 -0.059485156 -0.021192934 -0.1985755 -0.09598819 0.16135547 0.026512263 -0.04244247 0.025091028 -0.14481387 0.17274633 -0.191581 -0.03546775 -0.18620697 0.19197382 -0.06828142 0.105626665 -0.05822375 -0.16170084 0.12092855 0.050264783 -0.21412346 -0.10703311 -0.2080101 0.012657135 0.1715177 0.15483074 -0.13298847 -0.0244887 -0.065636344 -0.1690938 -0.18554987 0.16277832 0.01997735 0.057720024 0.11025441 -0.08532861 0.06795989 -0.07769882 0.02986201 -0.035996843 0.1438534 0.050696112 0.15728553 -0.021923937 -0.044496 -0.0055245464 -0.20208026 0.054050792 -0.04746758 -0.039071355 0.0737345 0.24886635 -0.059633274 -0.036970723 -0.03152057 0.056017105 0.20753448 0.1275887 0.20071566 0.035545904 0.037146755 0.049728338 0.064063534 0.18258305 0.04884366 0.07789265 -0.123610884 0.018923858 -0.07997373 0.11586029 -0.16468957 -0.12767698 0.0363155 0.091705896 0.11388941 0.0027770768 -0.11047985 0.046924073 -0.06173437 0.09369054 0.06686078 0.15926285 -0.047011115 0.035477627 -0.18986355 0.08467177 -0.1673232 -0.12179788 0.024395037 0.08376446 0.19244295 -0.12633026 0.030774998 -0.02755629 0.18944013 0.119517975 -0.064175285 0.01973159 -0.055102102 -0.21556525 0.08568768 0.20887396 -0.01908787 0.2504644 0.18508822 -0.21015553 -0.045308582 -0.11085144 0.17273524 0.0051291487 0.18298458 -0.113489784 -0.019528849 -0.13880825 -0.16611522 -0.029102266 0.15764585 0.09538906 0.07024206 0.00035909764 -0.05044037 0.15706968 -0.12771334 -0.017371152 -0.026575174 0.046251874 0.016909389 -0.031277526 -0.011581166 -0.11586475 0.12618968 -0.18995295 -0.14508726 -0.07444991 0.076009005 -0.14218143 -0.03948564 0.1749824 0.07283385 0.16845965 0.2361484 0.20000719 -0.16236576 -0.03002977 -0.100101165 0.10865995 0.00031875455 0.14042522 0.03593672 -0.1575458 0.13239409 -0.22922331 -0.013646631 -0.025095442 -0.11305506 -0.02538078 0.14926578 0.17018579 -0.15724008 -0.13701047 -0.093691185 -0.13978669 -0.11837653 0.05132165 -0.26679826 0.1545047 0.03870194 -0.028122239 0.11130738 0.2171319 -0.086236574 0.10536542 0.014866265 0.027638834 0.12715961 -0.05351947 0.123994894 0.20327075 -0.09519169 0.10967181 0.10989118 -0.031067684 -0.123084925 -0.095883325 0.01543357 -0.17974104 0.17607719 -0.1299265 0.18625711 0.050010096 0.1815515 -0.07448827 0.085791595 -0.19368343 -0.087853976 0.028580576 -0.034261875 0.0034661782 -0.105863616 0.119436696 0.0068455394 -0.21272148 0.19998811 -0.10850873 0.2081424 -0.0036865964 -0.22159685 0.15561843 0.12621696 -0.06780998 -0.031536903 0.19025104 0.030217122 0.2397913 -0.068128645 -0.02684356 -0.031250563 -0.05193342 0.22473013 0.13444404 0.12881699 -0.08450049 -0.162762 0.010328058 0.09457732 0.0071950452 0.10134388 0.066929966 0.028059456 0.042515174 0.008648393 0.09554839 -0.08086048 0.059034955 0.20573941 0.103055775 0.10135602 0.15380444 0.25479877 0.008267948 0.044609696 0.08968179 -0.14973526 0.038286343 -0.08843184 0.0114969015 0.083174214 0.26543403 -0.16043936 -0.0017853342 -0.23647723 0.038371537 -0.23258208 -0.0878575 -0.25366053 0.14734535 0.019720208 -0.17799033 -0.1407151 0.05340798 0.0026214418 -0.11962414 0.022473244 0.036243536 -0.017688353 0.037920102 0.14108007 0.07192951 -0.013451325 -0.22059692 -0.03282894 0.21907814 -0.10421871 -0.13802947 0.14138041 0.14535546 0.008613273 0.11659143 -0.23550345 -0.21564135 -0.04419026 -0.17164561 -0.1659917 -0.08244293 -0.11087086 0.07137148 -0.24642238 0.25754035 0.09218998 0.08980045 0.048939534 0.12002534 -0.02394425 0.15615094 0.011039994 -0.21871127 -0.14377987 -0.03176695 0.116679266 -0.018147623 0.19053055 0.14163159 -0.0017968367
gc 0.04777957 -0.04186266 -0.16137408 -0.065668836 0.047473054 0.044979945 0.1623296 0.091706276 -0.093033694 0.050884902 -0.13643761 -0.009022688 -0.014456358 -0.0785939 0.16051938 0.17244746 -0.1533281 0.038031697 0.16679378 -0.13983688 0.1117927 0.12122925 0.08136179 0.039656702 0.08595721 -0.030088281 0.032523654 -0.014908191 -0.14535148 -0.006036165 -0.055898927 0.15001765 -0.025638955 -0.0931265 0.0817841 -0.16110788 -0.19127162 -0.14846379 0.225248 0.15771408 -0.0061103934 -0.1490553 -0.11113439 -0.12889294 0.10171798 0.10351761 0.025001405 0.07980972 0.14031588 -0.12454065 0.099932574 0.113193996 -0.23086919 0.16422302 0.0022328328 0.0049037053 0.09979245 0.12243871 0.008815987 -0.034866944 0.03375925 0.083372355 -0.21144947 -0.06700789 -0.06735544 0.18952923 -0.17297442 0.18018745 -0.08985324 -0.01790279 -0.13298564 -0.18531884 -0.115388446 0.06602775 0.06590146 0.0031796054 0.02474652 -0.04438889 0.04111702 -0.19305189 -0.04214502 -0.1755487 0.103213824 -0.08204335 -0.0015423433 -0.00204204 -0.11279069 0.16494164 0.040444937 -0.14562178 -0.11040701 -0.20025218 -0.047985464 0.10172821 0.18296513 -0.0892542 -0.025859533 -0.11941574 -0.077061296 -0.24757186 0.07926255 0.0009047481 0.07503748 0.04391573 -0.057870526 0.019238587 -0.17443101 0.02282403 -0.0048638275 0.15653853 -0.008887844 0.056139592 0.033421334 -0.03436049 0.11932264 -0.13735057 0.016051052 -0.13284962 -0.020361833 0.091380924 0.1892853 -0.06724536 0.024469374 -0.06414499 0.043051146 0.20165482 0.06599936 0.106249906 0.094789095 0.037110526 0.03305951 0.020682503 0.116428 0.13792187 0.0815059 -0.0979513 -0.07159848 0.016375914 0.04406075 -0.1444689 -0.062773466 0.027802145 0.12950058 0.0835212 0.0025999327 -0.118717395 0.08947653 -0.025444686 0.07631047 0.07647223 0.103168465 0.009542467 0.09825665 -0.16164888 0.059317548 -0.23230274 -0.0729502 0.042499512 0.07172997 0.20882674 -0.063813515 -0.015625935 -0.06774659 0.12936042 0.14514741 -0.026559409 0.046028744 -0.009188967 -0.096019804 0.047289997 0.09585284 -0.08705934 0.21625014 0.17904283 -0.17198098 0.05896325 -0.0034376238 0.11563913 0.018663676 0.22498603 -0.03827321 -0.11900281 -0.13794221 -0.13333887 -0.036721304 0.12086196 0.17732424 0.05880421 0.014648295 -0.029424231 0.15067154 -0.027909877 -0.024920998 0.003706453 -0.01304239 0.08614469 0.0122045325 -0.0050522783 -0.057955947 -0.008957549 -0.1766774 -0.19667444 -0.07948665 0.043413144 -0.15165293 -0.053922616 0.16870181 0.018288594 0.13660486 0.15119943 0.24479872 -0.15802747 -0.010580181 -0.037450492 0.083488375 -0.024092495 0.16823411 -0.0068627694 -0.12608317 0.18078257 -0.11396473 0.0057424246 -0.098085634 -0.03836509 -0.019192992 0.0393121 0.07750772 -0.1724626 -0.1416562 -0.03230942 -0.07664316 -0.11303607 0.021746702 -0.20423287 0.13455445 -0.007626151 -0.03895984 0.11063793 0.15316278 0.017434664 0.021774393 -0.005313844 0.08572326 0.17318304 -0.08531775 0.14026424 0.1320281 0.055778984 0.034867734 0.079163976 -0.08347118 -0.09508875 -0.10449797 -0.03106341 -0.094334595 0.12602764 -0.13098124 0.15751152 0.019317523 0.15256162 -0.13364097 0.0938277 -0.161881 -0.039793104 0.029488819 -0.031119142 0.055047616 -0.035175867 0.18497121 0.049089696 -0.09432417 0.1790782 -0.18180044 0.039970223 -0.028795434 -0.13570866 0.1961237 0.13176328 -0.076555744 0.051432338 0.14559738 -0.021520164 0.18608966 -0.10438834 0.008054716 -0.17792879 -0.12561624 0.17133693 0.1377589 0.15978362 -0.05198463 -0.1616328 0.018600935 0.014673261 0.003496261 0.06727687 0.09484402 0.0026883031 -0.0064726574 0.054107323 0.06726662 -0.07263415 0.07031124 0.18848321 0.12965071 0.106909014 0.14417364 0.19193405 -0.09717404 0.018233007 0.121056154 -0.057341464 0.087544255 -0.08751783 -0.036478404 0.118816584 0.22553937 -0.0780409 -0.032392286 -0.12266633 -0.04090463 -0.1353306 0.018927207 -0.135608 0.09083394 -0.008687174 -0.15144905 -0.12827398 -0.014275092 0.017411618 -0.041973058 0.104837336 0.07737341 -0.02318898 -0.0044638636 0.15812494 0.12601368 0.054258782 -0.08842774 -0.020591702 0.21848959 -0.027116582 0.0242207 0.11172158 0.14785689 0.0019469387 -0.021283507 -0.19463211 -0.19588195 -0.02304369 -0.17780806 -0.23131645 -0.11041953 -0.096496336 0.043765217 -0.14693208 0.10247225 0.13177295 0.0067002294 0.02523841 0.07092118 -0.005620619 0.18912145 0.038222235 -0.2210105 -0.14222413 -0.030183518 0.09459846 0.06000557 0.19746268 0.19638607 0.049103577
gt 0.1476409 -0.045978956 -0.15005612 -0.055142157 0.0037028838 0.09537146 0.17940441 0.05279361 0.007044024 0.010459893 -0.09337343 -0.026324334 -0.0798322 -0.023527887 0.13141124 0.15668216 -0.09476901 0.049993183 0.24533096 -0.12438588 0.15265954 0.083928004 0.04583991 0.07944262 0.03919122 -0.0050156564 0.054119527 0.011807421 -0.09569671 0.015017387 -0.097783715 0.20041211 -0.055091996 -0.078017004 0.050667927 -0.13613725 -0.23261432 -0.17603059 0.15964651 0.116416335 -0.10157597 -0.05260539 -0.14114395 -0.18921277 0.049231417 0.18947317 0.051888883 0.031326894 0.044462275 -0.12164979 0.0037259308 0.19640014 -0.23828873 0.23149015 0.058955435 -0.06937278 0.07227045 0.021013575 0.038933296 0.04591013 0.041037176 0.08933293 -0.18392736 -0.01620499 -0.060563046 0.15485215 -0.15524286 0.23018558 -0.0959098 0.036897894 -0.22040264 -0.17986801 -0.13805187 0.04453929 0.04682854 -0.00092309533 0.08076527 -0.105045326 0.11657741 -0.21659787 0.04919422 -0.12058401 0.08132584 -0.14885554 0.05978974 -0.0047073523 -0.17407298 0.1808678 0.035654113 -0.165373 -0.152793 -0.23980442 0.009493057 0.13738385 0.1529716 -0.06056843 0.039898 -0.18003917 -0.084453985 -0.18471934 0.03585029 0.031864308 -0.032782264 0.05940075 -0.15950589 0.0041166367 -0.12609357 -0.054573067 -0.02684417 0.105839714 0.038958214 0.003811509 0.0075204736 -0.044777088 0.02116707 -0.15311606 0.01712711 -0.06506689 -0.048932336 0.030759763 0.17474587 -0.07114326 -0.025189182 -0.02960698 0.03266151 0.21883869 0.13864431 0.20647222 0.060490776 0.011558965 0.005032217 0.016273638 0.22087695 0.17261897 0.056339838 -0.14267059 -0.07982582 -0.010240041 0.028297098 -0.08412107 -0.08818515 0.0751059 0.07705311 0.13293101 -0.027856871 -0.10961016 0.091423266 0.004802305 0.10309793 0.058311787 0.07022595 -0.034348473 0.09977672 -0.11278344 0.032209244 -0.20626608 -0.10530954 0.054309238 0.081673704 0.21433073 -0.11015084 0.096127726 -0.041458853 0.20821014 0.08741824 0.042644758 0.0758996 -0.052196756 -0.18523039 0.07009792 0.18156521 -0.060543407 0.21840078 0.11543877 -0.23877014 0.018862052 -0.072157234 0.12957227 -0.0030281232 0.19232471 -0.03038807 -0.078004844 -0.18284734 -0.1913367 -0.026316455 0.15089205 0.1487809 0.007952561 0.09660042 -0.046788756 0.083332226 -0.055077624 0.04356467 -0.0665586 -0.048247587 0.12892772 -0.05139132 -0.0076739057 -0.07560128 0.017864117 -0.12048208 -0.073070094 -0.072827235 0.05518208 -0.1295031 -0.09970174 0.23380424 0.020969363 0.21024348 0.21758343 0.14832202 -0.19809273 -0.08543334 0.004329018 0.18842694 -0.0807374 0.1755533 -0.041139603 -0.07758397 0.08293088 -0.10636049 -0.0681164 -0.08991081 -0.030639393 0.006641235 0.075909466 0.121544644 -0.2064175 -0.15123464 0.023520272 -0.011987274 -0.14442374 0.0050956095 -0.23374362 0.09713802 0.040908128 -0.071242444 0.11130701 0.11235515 -0.07395198 0.09951122 0.04450194 0.013783954 0.12148136 -0.005146462 0.17918442 0.1932781 0.038156267 0.07248839 0.14464514 -0.09416949 -0.115308434 -0.055472706 0.014595963 -0.08733842 0.14312571 -0.1970515 0.1752548 0.019171504 0.096733175 -0.15290762 0.08904611 -0.20379911 0.014362625 0.060727704 0.015984116 0.015065215 -0.045042265 0.15195465 0.07094344 -0.13832273 0.18304634 -0.18057793 0.04828316 -0.067995176 -0.12862614 0.15102337 0.17113121 -0.1412592 0.044988632 0.16432016 -0.029136213 0.0901499 -0.07561059 0.031374663 -0.14838713 -0.07422411 0.13467708 0.10132337 0.12919016 -0.109583706 -0.20101613 0.05330024 0.020433428 0.01656698 0.050890855 -0.014118112 -0.041623864 0.098404646 -0.009861923 0.07988915 -0.09108747 0.081884295 0.21183816 0.1208065 0.054712687 0.2100719 0.14632091 -0.04508188 -0.015554529 0.08620682 -0.17035203 0.101894364 -0.05737311 -0.09228757 0.09912725 0.17025398 -0.07189698 -0.08346738 -0.14348127 -0.0476181 -0.14413655 -0.05113243 -0.14909573 0.12694494 -0.065198906 -0.1714909 -0.14105082 0.06000487 -0.08022719 -0.012107627 0.058291532 0.022726517 0.062245835 0.036995396 0.11083012 0.17997654 0.016371477 -0.1665344 -0.011317994 0.2709412 -0.012286 -0.037227307 0.084763914 0.16543785 0.031730175 -0.03568927 -0.13734668 -0.16247207 -0.025658134 -0.118976064 -0.24546553 -0.08684829 -0.13728158 0.084347576 -0.15255716 0.10243428 0.11900539 0.0093413815 0.067172736 0.14315386 0.05886713 0.17534734 -0.0004660695 -0.2034257 -0.10770638 -0.0065006767 0.1131376 0.014083005 0.22113392 0.15696776 0.0022223333
xa 0.027694635 -0.047032624 -0.03690245 0.061720725 0.06242226 0.11213524 0.2211718 -0.152484 -0.16091381 -0.103051834 -0.035580393 0.08128634 -0.13236463 -0.023535887 -0.17413828 0.14556187 0.1527572 -0.12978096 -0.018586595 0.16371138 0.08657305 0.066431776 -0.019585148 -0.05963831 0.12593792 -0.022922102 -0.12756133 -0.07092965 -0.1719125 -0.03325598 0.030661829 0.06886248 0.02714618 -0.047845624 -0.1046345 -0.14244325 -0.08638139 -0.13316396 0.024067258 0.08802908 0.082030885 -0.22107224 -0.034031127 0.009511981 0.020329181 -0.03670206 0.16700687 0.16887619 0.23266026 -0.009234463 0.14792436 0.09901294 -0.04821855 0.08112868 -0.089709796 0.039210577 0.105318144 0.18600944 0.20127128 -0.13716559 0.101039454 -0.17126355 -0.2499087 0.076325476 0.16413513 0.16007476 -0.030150706 0.06538292 -0.18479516 -0.100775026 -0.13482149 -0.08652188 0.07854812 0.07962608 0.17276667 0.123504795 0.027470086 0.11259013 0.1422083 -0.018906461 0.07994867 -0.15315433 0.20935948 -0.08939212 -0.034272045 0.122610904 -0.1474969 -0.03012645 -0.18480638 -0.064781815 0.01917377 0.22694764 0.16352627 0.1605177 0.09605268 -0.062184602 0.0868455 -0.06460219 0.06378899 0.09971848 0.10522738 0.03945744 0.14834085 -0.17304437 -0.025148494 -0.06013086 -0.0113663245 0.110184304 -0.11043632 0.09477395 0.09870028 0.1529136 0.05182686 0.14258705 -0.026188906 0.2425607 0.16771246 -0.07038751 0.21675663 0.16540788 0.14050943 -0.10838034 0.011636396 0.01771684 0.05876386 -0.017762708 -0.04036662 0.17248787 -0.0707918 -0.13089015 -0.15343665 0.0007728299 0.03439693 0.030383768 -0.16524577 -0.063359424 0.029212385 0.1034495 0.18514483 -0.20833625 -0.14815712 0.07682593 0.10029761 0.119624056 -0.08602118 -0.082202464 0.07948121 0.10755308 0.15974721 -0.07647432 0.025580695 -0.16420461 0.10509153 -0.18842115 -0.13088366 0.08255728 -0.13812624 -0.21326473 0.13453798 0.08174683 -0.052089486 -0.1569618 -0.116356045 -0.00042918941 -0.053949155 -0.16619 0.04604882 0.14471991 -0.12745929 -0.08223575 0.11458357 0.0426096 0.15193757 0.093263775 -0.1736573 0.018871471 -0.09109932 0.14312598 0.13664807 0.09892143 0.11722359 -0.03828687 0.06766972 -0.12505437 -0.0064007496 0.027714226 0.117680706 0.15949981 0.07759766 -0.13864437 -0.10328587 0.12282301 0.10208986 0.034394924 0.06411863 -0.16262901 0.014574784 -0.05915984 -0.13343656 -0.07813173 -0.11084621 -0.029421035 -0.21130624 0.04806456 -0.07690354 0.13665044 0.04863057 -0.09099284 0.12435951 0.08287623 0.20493504 -0.01678607 -0.020118618 0.09475143 0.094241604 0.11562313 0.02452226 -0.08143864 -0.14101455 0.15661743 -0.14730184 -0.13036275 0.021099407 -0.14501396 0.12669495 0.031156301 0.13722771 -0.12609378 0.06612401 -0.14878884 -0.1806238 -0.05901421 0.035929188 -0.12506188 0.16993397 -0.09857373 0.0124141285 0.09820652 0.12725642 0.10784056 0.11548893 -0.14669621 -0.17493466 0.113239415 -0.047747217 -0.06770736 0.08379864 -0.21252309 -0.0092370305 0.17415915 -0.011805983 0.11559967 -0.0100350855 -0.08344975 -0.12346394 -0.036983024 -0.0058905766 0.09497238 -0.07762532 0.21776915 0.010833677 0.056725565 0.084197626 -0.02978631 0.14921834 0.06926701 0.061491106 -0.14981882 -0.025370393 0.150542 -0.11617953 0.1938103 -0.0753363 0.113239385 0.041408207 -0.11955757 -0.17548381 0.17326984 -0.1024234 0.07660498 0.14552929 -0.0804092 0.13708444 -0.0658295 -0.11672295 0.00012003452 0.027214607 0.13453233 0.024321057 0.13587898 -0.08301824 -0.03845609 -0.08561012 0.03411776 0.045800578 -0.11925158 -0.044143178 -0.06383238 -0.04539441 0.12160801 0.015859598 -0.058907133 -0.14450839 0.02142963 0.04988015 0.14577204 -0.021559665 0.093940645 0.18680237 -0.15787305 0.12824742 -0.14307727 0.02481073 0.090921655 -0.029088782 -0.07637973 0.1258008 -0.18173645 0.014065651 -0.06660744 0.107426584 -0.073842354 0.11457878 -0.07953674 0.12476912 0.15516886 -0.16215344 -0.080262415 -0.17816183 -0.038714692 0.15278147 -0.09958777 -0.14641522 0.13873872 -0.11515223 0.17455865 0.0646511 0.124623254 -0.07929758 -0.04256336 0.119338 0.1212824 0.1269262 0.16313915 0.12395542 0.081950456 -0.12610914 -0.066334486 0.039253026 0.14820722 -0.12134441 -0.056366514 0.100541465 0.101161614 -0.025125084 -0.065048285 0.14800641 0.023159854 -0.19532545 0.043239426 0.024669452 -0.21554875 0.1751483 0.06263223 -0.06887469 -0.16229369 0.10839869 0.021528412 -0.0935376 0.17559348 0.014916533 0.0734332
gx -0.07221041 -0.17202887 -0.00063985935 -0.014720531 0.11331506 0.10484768 0.0555876 0.028762909 -0.13250333 -0.07375281 -0.13733296 0.12006874 -0.16122055 -0.022442196 0.095826894 0.062073372 0.08203641 -0.13571534 0.1342637 0.09595819 0.09874191 0.058914237 -0.0116928285 0.07249965 0.19812709 -0.08685974 -0.19130294 -0.04622441 -0.10010121 -0.076291464 0.045177206 0.1359382 -0.16656198 -0.08882922 -0.07124885 -0.017633388 -0.19558722 0.08077614 0.06876293 0.07996677 -0.0048998646 0.00017880893 -0.14842542 -0.1279243 -8.634612e-05 0.03376734 0.11239956 0.1367446 0.079227 -0.0647781 0.0311719 -0.058874782 -0.09228784 0.08240108 -0.031634446 -0.15748519 0.07785524 0.06309044 -0.014076701 0.016965384 0.12932698 -0.11901194 -0.036621 0.12360719 0.039994407 0.13649228 0.11704873 0.035490658 -0.04579146 -0.05214021 -0.14358756 -0.20756815 0.051316638 0.054435875 0.101435125 0.0970977 0.16373035 -0.046957817 -0.013586343 -0.10248525 0.14445889 -0.016300052 0.06293155 -0.031893387 -0.079128295 0.15400878 -0.12716421 0.16128595 -0.019942384 0.021967191 -0.20306984 0.06533468 0.101257615 0.13334595 0.008744405 0.02403404 0.07794481 -0.120013244 0.1497662 -0.15639837 0.06342036 0.18049893 0.017909069 -0.14840348 -0.039693356 -0.1903973 -0.17174077 0.024051782 -0.015344174 0.14575331 0.09899069 0.06821283 0.11503345 0.045421906 0.103356846 -0.031873822 0.12825046 -0.032327533 0.056821015 0.06342547 0.07561762 -0.05506504 0.050172545 0.122479595 0.12977429 0.05743637 -0.060776953 0.048421577 -0.11832299 -0.13161439 -0.054344807 -0.0531003 0.07671798 0.14144528 -0.18073435 -0.08305386 -0.1523179 0.10253734 0.073743366 -0.07504914 -0.031787314 0.11152553 -0.005538298 0.1442742 -0.004614334 0.00058413565 0.0881964 0.110015534 0.15012795 -0.09306453 0.05879172 -0.047162104 0.09052164 0.066407494 -0.03907176 0.026865123 -0.00930899 -0.070567936 0.15650778 0.02118988 -0.1264989 -0.042124502 -0.14210977 0.087159686 -0.21149996 -0.150892 0.03676851 0.06927105 -0.05944419 -0.03809618 0.12792853 -0.08908983 0.096692584 0.04148603 -0.14837503 0.09916229 -0.1613788 0.0011665472 0.08180722 0.15479468 0.12273735 -0.15473904 -0.09654658 -0.12793879 0.11772968 0.09407257 0.11279812 0.14025632 0.01855038 -0.12492184 -0.015711896 0.1658002 -0.03713735 0.08970163 -0.013314147 0.17870453 -0.13004166 -0.10347828 -0.065341584 -0.025293704 -0.19083335 -0.0489219 -0.17319076 0.015473957 -0.008129229 0.07200168 0.10635403 -0.13343957 0.15008979 0.099170364 0.12769084 0.14234535 -0.1455556 0.08372725 0.0975348 0.109406225 0.03930674 -0.14291555 -0.059115805 -0.043019228 -0.08299154 -0.0024031084 -0.12214204 -0.15853587 0.09377707 0.14808176 0.036952205 -0.1736951 -0.20416927 -0.113610916 -0.25551048 -0.13327068 -0.09786639 -0.03824535 0.16446076 0.003954829 -0.1579169 -0.029078329 0.1020441 0.10404666 0.12317166 -0.12642 -0.14961505 -0.051579926 -0.11129675 -0.0036014586 0.107247815 -0.008153045 -0.13222662 0.08814092 -0.056958996 0.05482086 -0.047821414 -0.09248746 -0.12277769 0.04175511 -0.07271035 0.103202835 -0.1455777 0.09806123 -0.17012335 0.07840445 -0.135584 0.2075567 0.08651264 0.07728341 0.06366456 -0.062052377 0.21306422 0.124977924 -0.13331449 -0.037474185 -0.13206714 0.039625198 -0.15165286 -0.16346629 0.036631804 0.04010932 0.0048340163 0.12722063 0.12968487 -0.11254443 0.14938389 -0.08068916 -0.09445695 -0.06493957 -0.09697218 0.12197078 0.017596252 0.004100339 -0.07196286 -0.22092383 -0.10828271 0.03930694 0.15831488 -0.19023705 -0.05740887 -0.21394004 -0.04700016 0.0037727288 -0.14347687 -0.1210007 -0.0031008974 0.20210944 0.1411508 -0.003078396 0.133185 0.06556749 0.1520009 -0.11622863 -0.005618395 -0.0054638516 0.1540715 0.113958076 -0.119830236 -0.054224238 0.061169144 -0.15949492 -0.1584593 -0.11250886 0.06911239 -0.08628458 0.036364753 -0.095877595 -0.032320734 0.07388155 -0.031995583 0.022620568 0.00030943338 -0.17733116 0.17003123 -0.22384869 -0.027605701 0.1709448 -0.12617694 0.06843136 0.011382612 0.15815891 -0.05200943 -0.09597475 0.17970099 0.007157621 -0.029457675 0.06745276 0.17436953 -0.002276549 -0.124937795 -0.04334128 -0.086774 0.10596145 -0.0110018505 -0.13865401 0.13927267 0.064726785 0.06402803 -0.14853418 0.1694461 0.12183967 -0.1172567 0.0065889005 0.086056136 -0.1235706 -0.021801854 -0.08087072 -0.10808729 -0.11422866 -0.0032929904 -0.106582746 -0.030275946 -0.010833789 0.04187631 0.17058235
ac 0.111578815 -0.015463914 -0.23821083 -0.12618345 0.08467429 0.095946 0.119263574 0.06816847 -0.07481313 0.0061672856 -0.042206675 -0.07652244 -0.069242574 -0.09934252 0.13135764 0.22075817 -0.14790061 0.035374444 0.25505462 -0.16423632 0.1222326 0.13286969 0.08818543 0.078431696 0.01102358 -0.054389376 -0.02149661 -0.030903276 -0.12150374 -0.09776283 -0.06830394 0.27115807 -0.06923918 -0.14529863 0.08135428 -0.0994114 -0.25426942 -0.23706713 0.27764526 0.12137976 -0.11736627 -0.2077844 -0.066766426 -0.18106303 0.069147184 0.1425777 0.024121976 0.09487693 0.2033308 -0.13020176 0.12249712 0.16269921 -0.24730213 0.21484949 0.002831591 0.03301965 0.13839287 0.17581087 0.08716172 0.04848622 0.09649318 0.09542076 -0.23670952 0.0009654485 -0.05343554 0.25583395 -0.2766715 0.26320148 -0.12903596 -0.02059893 -0.059609763 -0.1788868 -0.12790534 0.08710499 0.07283609 -0.076813415 0.092822365 0.0036322665 0.023008931 -0.183521 -0.030643342 -0.22390984 0.035659563 -0.051856957 -0.016331758 -0.11587959 -0.14569676 0.1901758 0.018513901 -0.27994752 -0.14611752 -0.23265287 -0.049742818 0.23605224 0.195293 -0.10341157 0.010609778 -0.09879615 -0.16136412 -0.27569827 0.07858514 0.02939774 0.013602339 0.10808138 -0.114341274 -0.056148376 -0.18824022 0.01075779 -0.055015523 0.21945125 -0.024452116 0.12496342 0.033198282 0.005020098 0.06395694 -0.24566004 -0.024303447 -0.19270287 -0.038411666 0.054154545 0.22491513 -0.047876917 0.0077359728 -0.024796925 0.04625808 0.28775525 0.12376886 0.071149595 0.024114856 -0.026330804 -0.026565688 0.048478846 0.20337084 0.11496913 0.1534702 -0.21007368 -0.050498705 -0.027299462 0.15007973 -0.13581403 -0.09622107 -0.029978683 0.2117751 0.17896305 -0.088420406 -0.115237586 0.07146496 0.03208468 0.099850155 0.070643 0.18012086 -3.9142036e-05 0.10073722 -0.24400885 0.11717638 -0.3122807 -0.02593672 0.051567428 0.043268 0.17255947 -0.11361384 0.014066718 -0.08023588 0.17346273 0.14131209 0.10110952 0.116813906 -0.09081074 -0.091550365 0.03348592 0.102029376 -0.09031585 0.19584005 0.21113616 -0.21057642 0.043336794 -0.08485206 0.23242189 0.018001 0.24844626 -0.049146 -0.050723914 -0.2256372 -0.10987665 0.009232339 0.14116079 0.15963742 -0.013845557 0.022847487 -0.030305846 0.15573291 -0.104788065 -0.10349795 -0.09283686 0.020685023 0.13827556 -0.05543854 0.050703622 -0.056218054 0.01158692 -0.23222648 -0.19647872 -0.029969761 0.03038468 -0.16610305 -0.081073515 0.215281 -0.0065079415 0.22804552 0.12150603 0.18896218 -0.1417153 -0.06652222 0.008512054 0.15554114 -0.04589521 0.16716526 -0.041868016 -0.117542006 0.14955778 -0.2312662 0.039215032 -0.0053823693 -0.12922417 -0.027206972 0.03888045 0.09351492 -0.22957598 -0.17108507 -0.06401862 0.04030042 -0.19172259 -0.030299488 -0.13749766 0.10624767 0.055699572 -0.031069418 0.1991539 0.16239798 0.023747155 0.025632849 0.02522675 0.055308968 0.15388426 -0.095463395 0.29610947 0.21803847 0.062006418 0.044664606 0.13733381 -0.15309006 -0.16282637 -0.20907193 0.09879622 -0.008369698 0.14131872 -0.20083666 0.16290854 0.09549884 0.16821872 -0.24593247 0.123608045 -0.22030252 -0.092289604 -0.0056449324 -0.061651185 0.079333134 0.02570528 0.17311127 -0.010972931 -0.04297615 0.25594467 -0.229782 -0.03636467 -0.055638436 -0.16949189 0.1729715 0.094308086 -0.11084792 -0.015395568 0.21500495 0.007727259 0.15867291 -0.048369717 -0.0082892245 -0.16742688 -0.09741341 0.23428802 0.17638728 0.10734594 -0.20617977 -0.16175032 0.04525681 0.07531799 0.008688961 0.006142962 0.061575465 0.061938904 0.07248278 0.065666705 0.09443721 -0.15552522 0.080510795 0.18834041 0.171086 -0.0012295425 0.25162056 0.23193382 -0.10691315 0.069795325 0.07591808 -0.08536397 0.19813655 -0.09667409 0.03974953 0.100025885 0.18046215 -0.09724056 -0.049147505 -0.19048643 0.02643464 -0.16739076 -0.047851633 -0.13550825 0.097672805 0.0054857936 -0.27359477 -0.13682692 0.018760394 -0.031822257 -0.06955855 0.13574773 0.104402505 -0.011184258 0.09408171 0.15147321 0.18211965 0.012121806 -0.1446511 -0.0033700247 0.29123208 -0.05930959 -0.074903086 0.095653914 0.098502345 -0.033975948 0.03788369 -0.16758986 -0.22976907 -0.07453632 -0.11615797 -0.25273594 -0.07178639 -0.103047505 0.117525905 -0.17469278 0.11283969 0.15296331 0.00894963 0.08617242 0.18780796 0.08053074 0.1906061 -0.03676183 -0.22435877 -0.09231503 0.0029836337 0.018829226 -0.03776119 0.20076041 0.119154066 0.029298093
tc 0.019570585 0.008610032 -0.1371533 -0.1340643 0.096698724 0.11882184 0.11265912 0.00530222 0.036244955 0.008122329 -0.029804448 -0.03635793 -0.066682786 -0.14653216 0.11696535 0.14488192 -0.1359566 0.008201559 0.18244207 -0.047408726 0.019267555 0.13176513 0.041859947 0.045656156 -0.0056414437 -0.019972607 0.042124625 -0.0496272 -0.12551948 -0.11006019 0.012816029 0.17631577 0.017595017 -0.1952583 0.09379728 -0.19835356 -0.1148017 -0.24876395 0.21862382 0.14706108 0.020994425 -0.13988666 -0.07670812 -0.16005348 0.038543597 0.18445356 -0.021009747 0.039294053 0.16311893 -0.13002513 0.17612828 0.1926151 -0.171582 0.112614244 -0.107354105 0.024918929 0.14776048 0.106760055 0.08181754 -0.11328795 0.07387327 0.018172473 -0.17028536 -0.033644505 -0.05206883 0.26179624 -0.19890778 0.22312133 -0.18519443 -0.082460284 0.022396715 -0.18159905 -0.024950199 0.09158801 0.019108852 -0.09303442 0.0192017 -0.007303452 0.060805798 -0.22687525 -0.05785686 -0.20726311 0.099379785 -0.03477291 0.0030947595 -0.0016792697 -0.098607555 0.174712 0.039523046 -0.23735519 -0.13330029 -0.10691686 0.045596797 0.11011038 0.21186665 -0.025455637 0.0042597195 -0.07622898 -0.11850715 -0.21058388 0.0704699 0.0060984534 0.04094752 0.10487139 -0.05572889 0.04243644 -0.10646828 -0.014155227 -0.030854212 0.12077343 0.030808253 0.12305014 0.06943678 0.052306805 0.07788492 -0.104423426 0.03562421 -0.16803288 -0.10031346 0.05039768 0.180871 -0.16563672 -0.0015635951 0.061116915 0.019945903 0.21847689 0.10611276 0.083838835 -0.013696058 0.07890709 -0.043561317 0.08948339 0.18481366 0.044083692 0.1336561 -0.19044179 0.012602829 -0.03612078 0.21079779 -0.13468939 -0.06837196 -0.051249575 0.17632768 0.10142526 -0.06977186 -0.15643254 0.052965753 -0.0006951963 0.12097715 0.05757335 0.1919729 -0.027935227 0.13095252 -0.24587761 0.0872989 -0.2871254 -0.033378318 0.020740563 -0.07336629 0.13928592 -0.12697765 -0.023873264 -0.06725715 0.21849485 0.061495367 -0.031723622 0.06855211 -0.05974377 -0.14056812 0.06865702 0.07030881 -0.029319286 0.16673478 0.11291141 -0.10101312 0.011102693 -0.04921401 0.19853608 -0.005243063 0.17908318 -0.09301651 0.04200218 -0.15506664 -0.09427052 -0.024733124 0.1052648 0.13105261 0.028461365 0.0071881916 -0.0898957 0.12207909 -0.0778894 -0.0047330675 0.03533568 0.005625809 0.08151412 0.0013079742 0.03173049 -0.043026995 0.085764125 -0.1872692 -0.16586894 0.01297119 0.09172095 -0.027303893 -0.099767216 0.15998493 -0.020991147 0.2146769 0.18014348 0.238456 -0.084036246 -0.043249685 -0.063685745 -0.0017689521 0.06514478 0.12310889 0.046262234 -0.083051205 0.13174056 -0.19279148 -0.010052699 -0.012975988 -0.089328825 0.028129214 0.124192625 0.07655236 -0.15277547 -0.11208322 -0.05545186 -0.010157742 -0.07806088 -0.019420726 -0.19937214 0.11073922 0.044529334 -0.061218522 0.1185479 0.15755902 0.00083215605 0.0075941435 0.015443062 0.066486366 0.11731487 0.038417224 0.1735129 0.2317279 -0.0017543328 0.023706367 0.04965952 -0.07065668 -0.087241344 -0.20351349 -0.008563681 -0.056469835 0.17896764 -0.11698661 0.11105258 0.026745886 0.1593852 -0.11539469 0.056663357 -0.13198581 -0.073663466 0.030660808 -0.040183496 -0.00034645796 -0.07321041 0.14326996 -0.051540997 -0.099651985 0.19358726 -0.12001854 0.13526888 0.011665906 -0.19488837 0.14979498 0.10269684 -0.03493566 -0.026661772 0.15524699 0.06755804 0.19228306 -0.06425902 0.029066874 -0.03336755 -0.014698778 0.21245667 0.20123973 0.078629024 -0.05423389 -0.046569735 -0.038749766 -0.0093363235 -0.05865404 0.05221212 0.024787145 -0.0010575389 0.024786074 0.06583148 0.08407155 -0.13339415 0.031941812 0.18564656 0.034909215 0.017835235 0.19972175 0.16340674 -0.0142820235 0.0561328 0.13749193 -0.15369576 0.079801284 -0.05562567 0.054872237 0.05533131 0.17207669 -0.10842963 0.024596764 -0.22919004 0.067104146 -0.14457022 -0.06989636 -0.16959812 0.121301085 0.0010090411 -0.28926328 -0.1878705 0.025637155 0.0124133 -0.03014046 0.06316791 -0.018203484 0.022200134 0.08688332 0.14432599 0.043484755 -0.01213573 -0.21957462 0.022193978 0.21389672 -0.046018228 -0.09327065 0.18283118 0.07812509 -0.04920801 0.02361556 -0.23295578 -0.19098863 -0.07629536 -0.11531286 -0.19917566 -0.021886613 0.029658673 0.082081325 -0.14388742 0.10920125 0.099605896 0.018727224 0.074186556 0.011331015 -0.033893235 0.13562559 0.032514296 -0.15858687 -0.1406252 0.083704226 0.06887447 0.00944889 0.18164328 0.14747712 -0.021064393
gg -0.0686117 -0.09729535 -0.12614253 0.13009769 0.038237523 0.042666484 0.10421799 -0.1459623 -0.12851934 -0.0557524 -0.036873225 0.120400414 -0.07521815 -0.046360552 0.0069333143 0.094318785 0.063219234 -0.07515108 0.1476091 0.10905872 0.103865616 0.023415182 -0.15332372 0.06826381 0.14875774 -0.10478497 -0.1653727 -0.119415 -0.11598446 -0.1469479 0.064561434 0.022480264 -0.1167501 -0.059978124 -0.0993169 -0.04988091 -0.075118355 -0.04299905 0.046809096 0.036231335 0.059364002 -0.059926476 -0.12303211 -0.058502205 -0.12757269 0.025318885 0.045742128 0.07505715 0.008754593 -0.14064874 0.07574631 0.09878047 -0.104220614 0.0139264325 -0.053721093 -0.12126687 0.12710188 0.08968321 -0.023784243 -0.02248416 0.03434842 -0.050650626 -0.0120793525 0.010680813 0.075573705 0.06073652 -0.01187279 0.11203177 0.00056256016 -0.09491511 0.035560094 -0.0745562 0.026068121 0.13147055 0.092709966 0.15105502 0.15275091 0.067012794 0.11401856 -0.11959052 0.1244466 -0.12620844 0.1127512 -0.026879055 -0.09508366 0.13711566 -0.05531979 0.043888893 -0.14518896 -0.15317596 -0.055592384 0.039601546 0.08128183 0.08404331 0.08797085 -0.11815862 0.102692634 -0.10251544 0.07840246 -0.110643685 0.11031759 0.11621316 0.061084162 -0.13522004 -0.091633484 -0.045738786 -0.0745883 0.06277523 -0.060094338 0.09994937 0.06569883 0.063644916 0.07581109 0.14315477 0.1087292 0.15524653 0.15916887 -0.10185489 0.1017058 0.052928414 -0.01191477 -0.07768064 0.12662482 0.07436506 0.13429041 0.02682267 -0.15447512 0.029074851 -0.117567316 -0.15997697 -0.078718804 -0.11960627 0.0052485494 0.101524964 -0.16484831 -0.062113367 -0.04179511 0.09970385 0.034656078 -0.09936726 -0.031512726 0.0839174 0.03745378 0.046138924 -0.04847228 -0.047899414 0.038825225 0.10778979 0.048566025 -0.16260311 0.09128445 -0.047585275 0.13392344 -0.115279086 -0.03714866 -0.047760215 -0.13540281 -0.035034347 0.11201442 0.07487526 -0.124554284 -0.03510552 -0.00017816061 0.14315753 -0.16920748 -0.015832547 0.12232891 0.0565983 0.006839192 -0.09333036 0.17629889 -0.01820477 0.0895059 0.057615038 -0.08600937 0.07173224 -0.08742388 0.056447566 0.071027406 0.14737152 0.06858793 -0.063017376 -0.06665976 -0.09559164 0.10060952 0.01130285 0.07283928 0.03744674 0.06687521 -0.09244491 -0.06849758 0.16040911 0.12243129 0.059623856 -0.0001073882 0.13798246 -0.07944108 -0.1434081 -0.030161243 -0.09357107 -0.06950681 -0.003001854 -0.014713651 0.075324394 -0.1127047 0.14034086 0.1372551 -0.08477759 0.028571978 0.04016738 0.099129125 0.1121129 -0.09006848 0.06645175 0.11839668 0.06726341 0.10681751 -0.09758025 -0.1552953 0.10620431 0.0011951171 -0.028277121 -0.07760828 -0.05554046 0.045795277 0.0038908487 0.139744 -0.07877962 -0.041968193 -0.11754898 -0.08286702 -0.110981986 -0.108673446 -0.0855916 0.03215886 -0.12240513 -0.10937544 0.12414289 0.06384428 0.12976345 0.0311422 -0.12073577 -0.10843516 0.08871388 -0.0615627 0.026795259 0.13016254 -0.052008864 -0.14777935 0.09860898 -0.18138233 0.14871784 -0.089321 -0.10136931 -0.106668584 0.09485101 -0.035075534 0.10091932 -0.060507517 0.016001757 -0.033503696 0.04157168 -0.14042911 0.080964066 0.1404942 0.1620601 0.028046161 -0.09274588 0.1064498 0.12916164 -0.01894358 0.03962282 -0.09917858 0.09459338 -0.085747175 -0.1093089 -0.1461764 -0.01657569 -0.10023275 0.06843943 0.08720474 -0.15364075 0.10956601 -0.089932494 -0.09375611 -0.1175784 -0.09904227 0.016128829 0.12172751 0.023707757 -0.100485034 -0.11586099 -0.08515286 -0.11245072 0.14317366 -0.08779149 -0.16303313 -0.1500789 -0.1499208 0.08677518 -0.08905537 -0.005210251 -0.069772415 0.09977117 0.15175506 0.08210157 -0.010596564 0.11509771 0.06906989 -0.13359605 0.08555866 -0.087456495 0.13110778 0.075524785 -0.07799125 -0.10524565 0.020030519 -0.10799987 -0.06229879 -0.108146325 0.07754377 -0.1573875 0.11509481 -0.06372436 0.10141917 0.14861763 -0.0116784675 0.013201235 -0.073367745 -0.10289671 0.1267395 -0.14192751 -0.0724123 0.07488433 -0.08086995 0.076250404 0.11254394 0.100230366 -0.15107292 -0.043604247 0.038852915 0.11762491 0.14717162 0.13332438 0.0767065 0.18860519 -0.08533593 -0.12916918 -0.10438791 0.109542586 -0.07656417 -0.058896888 0.1125738 0.10660858 0.027283918 -0.13398747 0.09096922 0.05849899 -0.121067755 0.14446795 0.11889668 -0.032885175 0.032004513 -0.02190599 -0.085555404 -0.12741615 0.12862505 -0.10827829 -0.010481069 0.032901775 0.12236764 0.13879974
at 0.1500993 -0.024403237 -0.23721896 -0.07309411 -0.034450926 0.11604549 0.17306104 -0.0009419049 -0.031819407 -0.028723061 -0.14380786 -0.022393769 -0.10790813 -0.10796871 0.27986336 0.2137483 -0.17807685 -0.0026765487 0.23356004 -0.14382072 0.099309936 0.17203169 0.088740446 0.13133359 0.007540556 -0.059010718 0.026360761 -0.08842995 -0.13014644 0.06677126 -0.09785008 0.23311323 -0.07559624 -0.14526202 0.09923757 -0.14825293 -0.16235638 -0.21007992 0.22723466 0.16136888 -0.090027496 -0.056234512 -0.099361055 -0.18037191 0.045850504 0.13272119 -0.07148699 0.03387071 0.008520677 -0.14937805 0.065182135 0.20552915 -0.33055487 0.24730018 0.019672126 -0.06564227 0.11703202 -0.009434429 0.038877185 -0.0046745697 0.0907308 0.13317999 -0.24584764 -0.03245674 -0.06045466 0.25195035 -0.30030993 0.26952714 -0.20066449 -0.016467381 -0.21926476 -0.1539383 -0.09609578 0.04973403 0.034650095 -0.028631823 0.14273475 -0.020781524 0.09342516 -0.12990814 -0.0081136245 -0.13818705 -0.02708254 -0.07213258 -0.005666337 -0.036925912 -0.1352059 0.1841231 0.07765233 -0.2994563 -0.17991278 -0.27227327 -0.0041174036 0.22087084 0.19656694 -0.110812396 -0.014450196 -0.14408143 -0.051377043 -0.26098296 0.06448733 0.057565026 0.024984682 0.12509899 -0.11136035 0.0040044445 -0.17959844 -0.028357498 -0.061909445 0.12426006 -0.024958815 -0.07011416 -0.004477068 -0.116646856 0.055432465 -0.1510339 0.02409431 -0.0874613 -0.08896753 -0.019782182 0.17542133 -0.07684292 -0.06230532 -0.021950977 0.03274086 0.13624948 0.10284756 0.20345873 0.10178521 0.017530808 0.018714461 0.029747088 0.20890528 0.22177862 0.1428363 -0.21066138 -0.13214266 -0.025707562 0.06762124 -0.05018183 -0.08307397 0.10670294 0.071624085 0.1910036 -0.04662396 -0.066904195 0.14441949 0.031966686 0.060797293 0.057365455 0.18702474 0.043474287 0.17733654 -0.1390085 0.059523754 -0.35644186 -0.04475898 0.041748144 0.05983863 0.25000706 -0.07308758 0.09631748 -0.03194357 0.18134558 0.10792654 0.071267776 0.119445674 -0.04142891 -0.15194757 0.057382047 0.0921705 -0.1766686 0.17784342 0.11688367 -0.2014972 -0.02652557 0.020462006 0.21884342 -0.054102138 0.2778178 -0.16636717 -0.05080276 -0.22471952 -0.018725863 -0.05366271 0.12553175 0.11606953 -0.047486387 0.09269638 0.09348034 0.047696214 -0.14379714 0.046017505 0.03621329 -0.09768209 0.09200567 -0.088385984 0.026292514 -0.107704 0.038693666 -0.1360277 -0.23565285 -0.060547695 0.0036791975 -0.29004335 -0.05204787 0.26231205 0.0950103 0.16673519 0.20320874 0.1603047 -0.184643 -0.027458454 -0.04532941 0.1867739 -0.09966623 0.18973967 0.047879305 -0.10688584 0.18727177 -0.1825301 -0.036940236 -0.107536264 -0.07795907 -0.01820554 0.08048848 0.049084537 -0.17661454 -0.21052574 0.080253154 -0.01975551 -0.12614554 0.0126254475 -0.2666431 0.11727307 0.07344239 -0.051726297 0.2173319 0.1444845 -0.022869337 0.015099653 0.05691853 0.085236415 0.1598698 -0.05845674 0.27119583 0.15820803 0.04893972 0.044550017 0.16689478 -0.008431222 -0.10813713 -0.08252186 0.028651498 0.048427533 0.17289643 -0.17314595 0.19512619 0.103198886 0.07058764 -0.151221 0.13118416 -0.24577264 0.03586804 0.06986347 -0.049614713 0.077854805 -0.00023261696 0.22479442 -0.049382158 -0.16166507 0.28416267 -0.17660494 -0.0014549377 -0.124902196 -0.12537947 0.16524398 0.15854591 -0.2405759 -0.008656215 0.1826558 -0.013621313 0.06542738 -0.017073842 0.07142281 -0.2501975 -0.10371439 0.169573 0.08176388 0.18819372 -0.16920719 -0.17092977 0.07321183 -0.020969843 0.000599001 -0.034042798 0.006116337 0.06881361 0.06531975 -0.014606721 0.09081509 -0.13138837 0.06404101 0.26110002 0.1092692 0.084008746 0.29404545 0.23646113 -0.14254674 0.05016523 0.037425436 -0.15964445 0.11117089 -0.10134387 -0.015037866 0.07720209 0.21864869 -0.077751994 -0.14476545 -0.12820928 -0.048555024 -0.0846872 -0.029567499 -0.13358414 1.3418168e-05 -0.09526639 -0.24413313 -0.12988551 0.103697725 -0.07447173 -0.02857474 0.093964845 0.10861148 -0.029936315 0.05326158 0.19003312 0.18297845 -0.07521272 -0.16296262 -0.030968826 0.22604842 -0.04088433 0.004550316 0.06978805 0.0942189 0.047171168 0.0018661262 -0.18360983 -0.16573256 -0.100099534 -0.1673554 -0.2993196 -0.057448912 -0.14980546 0.17798094 -0.09265412 0.04591039 0.19901781 0.05350625 0.044686962 0.25147069 0.07667352 0.079228595 0.00859935 -0.17775856 -0.08489704 -0.11032678 0.0041440898 0.0147005925 0.19042155 0.15550183 0.043335736
ax -0.19355653 -0.06991724 -0.045431275 0.06063244 0.064627096 0.13654232 -0.026840553 -0.06374441 -0.059962854 -0.09936034 -0.15820895 0.11705086 -0.14920476 -0.17990878 0.2189301 -0.044482302 0.10308456 -0.10334572 0.10927262 -0.02112217 0.018279059 0.11714288 -0.08516216 0.14841263 -0.005492641 -0.108049795 -0.0053993934 -0.13061145 -0.001312797 -0.050295457 0.21371444 -0.06213393 -0.11526114 -0.14212514 -0.12781766 0.0035691396 -0.049693666 0.14786848 0.09078369 0.11183411 0.056853544 0.009140202 0.0037873937 -0.13095649 -0.20378852 0.13299371 -0.036189422 0.0841443 -0.06808496 -0.058188673 0.08272033 0.116437376 -0.1889628 0.14270276 -0.14088883 -0.16456184 0.13520226 0.05668913 0.011328529 -0.08092002 0.2037363 0.0044738026 0.055704094 0.120147176 0.038274247 0.09661822 -0.22702563 0.07027666 -0.05914002 -0.039417796 -0.029895604 -0.05633978 0.026243243 0.13545096 0.018509738 0.0135548 0.14796646 0.15658373 0.032035656 -0.034103062 0.18107295 -0.079982296 -0.08574941 -0.043405537 -0.15252663 0.16316505 -0.04005499 0.097904444 -0.061562587 -0.16134107 -0.17427814 -0.15152876 0.10156934 0.10237485 0.11434593 0.024736606 0.13933016 -0.100270875 0.11838966 -0.042950235 0.09318385 0.10902575 0.07969551 -0.07239778 -0.1682609 -0.14470117 -0.2087175 0.16304497 -0.16656698 0.090490684 0.029671513 -0.01664067 0.18072926 0.014346967 0.08659144 -0.086124726 0.10307219 -0.16508305 -0.047844995 0.009205581 0.015390886 -0.10698397 0.07996184 0.22591358 0.13007677 0.04988299 -0.16211621 -0.020210262 -0.08141808 -0.024326436 -0.073328644 -0.20640816 0.07559967 0.12554821 -0.05035958 -0.16277821 -0.108897075 0.1182277 0.11390147 -0.0652591 -0.113455005 0.06831366 0.11104068 0.16703446 -0.050424106 -0.11006027 0.12908141 0.14291301 0.09930448 -0.1295971 0.1601499 0.014029088 0.19917125 0.11613361 -0.048985388 -0.16646096 -0.060041185 -0.039412268 -0.00084655156 0.06519685 -0.01193458 -0.11255234 -0.06623221 0.106899075 -0.03353303 -0.1283896 0.14755896 0.06704676 -0.0021119788 -0.19272283 -0.036319196 -0.21382089 0.05040937 0.10298914 -0.05532406 0.10960424 -0.025651611 0.09212546 0.13347349 0.0699826 -0.033028387 -0.09275898 -0.21820062 -0.0005213029 0.067092404 0.2062065 0.039652903 0.09005781 0.14441505 -0.11792737 -0.15933287 0.09224543 0.08394035 0.14806902 -0.2322197 0.24105722 -0.10489062 0.014487876 -0.115173616 -0.11715625 -0.11428848 -0.17966016 -0.10345072 0.080822475 -0.17418684 0.16612001 0.10074286 -0.11742514 0.036539238 0.15341213 -0.07186178 0.08190657 -0.07783081 0.15219842 0.044969246 0.117373616 0.1252724 -0.12049488 -0.025974534 -0.00046477356 -0.07310651 0.012772387 -0.12623216 -0.06660082 0.10421517 0.11265347 0.06813194 -0.1017134 -0.18744273 0.015536088 -0.070801385 -0.16909598 -0.07123357 -0.06770892 0.16825293 0.016250493 -0.07156962 0.0797229 0.13861513 0.07246359 0.12584016 -0.009690381 -0.028601214 0.01046605 -0.11293978 0.123825155 0.09962304 0.016051125 -0.09435667 -0.0118713835 -0.1612034 0.07234722 -0.10835521 -0.139356 0.08063233 0.16514385 -0.19115299 0.09729157 -0.10533693 -0.0649082 -0.114448845 0.18886068 -0.08711031 0.19749147 0.013433023 0.04938862 0.08126434 -0.11668226 0.24126928 0.0051645427 -0.14422618 0.07070904 -0.12143957 -0.0032808327 -0.08508544 0.08865146 0.019551592 0.13918316 -0.16633882 0.08002295 0.023299463 -0.08614385 0.06427735 -0.07994921 -0.03863859 -0.06931249 -0.11218527 0.057186253 0.0362747 0.057187904 -0.09707454 -0.058346022 -0.14527346 -0.15991911 0.06904268 -0.13901076 -0.07035063 -0.13551883 -0.035292484 0.017053451 -0.19919218 -0.11438029 -0.079722315 0.122536145 -0.00056142925 -0.09157675 0.14367774 0.091748334 -0.038498253 -0.058888156 0.065961875 -0.10797485 0.11183611 0.1861956 -0.13510856 -0.14041907 0.094784886 -0.099327385 -0.16008042 -0.09294304 0.10120815 -0.09623258 0.12128229 0.029844813 -0.027574182 0.08496905 -0.08930524 -0.061615866 -0.073980786 -0.1962942 0.10968031 -0.11557853 -0.046776954 0.0795129 -0.07688233 0.064451225 0.10497163 0.062209025 -0.019301629 -0.083878785 -0.084755205 0.13616215 0.08523725 0.062359445 0.06263157 0.09563145 -0.17832486 -0.096772105 -0.1554706 0.1289363 -0.056015678 -0.19301248 0.19588721 0.03287415 0.18543103 0.013275628 0.08208184 0.12269681 -0.0013849095 -0.018085476 0.029170776 -0.061111405 0.099451475 -0.13389423 0.030048408 -0.040853094 -0.02875315 -0.18902189 -0.11585409 0.015456654 0.11927933 0.11391531
